/*!
 * The following copyright notice may not be removed under any circumstances.
 * 
 * Copyright:
 * © 2009 exljbris Font Foundry. All rights reserved.
 * 
 * Trademark:
 * Calluna is a trademark of exljbris Font Foundry.
 * 
 * Description:
 * Calluna is a trademark of exljbris Font Foundry.
 * 
 * Designer:
 * Jos Buivenga
 * 
 * Vendor URL:
 * http://www.exljbris.com
 * 
 * License information:
 * http://www.exljbris.com
 */
Cufon.registerFont({"w":510,"face":{"font-family":"Calluna","font-weight":700,"font-style":"italic","font-stretch":"normal","units-per-em":"1000","panose-1":"0 0 8 0 0 0 0 0 0 0","ascent":"750","descent":"-250","x-height":"12","cap-height":"3","bbox":"-134 -871 985 252","underline-thickness":"50","underline-position":"-50","slope":"-12","unicode-range":"U+0020-U+2122"},"glyphs":{" ":{"w":217},"!":{"d":"101,-205r35,-454v59,-11,115,-25,166,-41r4,8v-15,25,-31,64,-48,118r-116,369r-41,0xm75,12v-36,0,-55,-22,-55,-55v0,-51,35,-100,89,-100v35,0,57,22,57,54v0,51,-35,101,-91,101","w":279},"\"":{"d":"244,-401r53,-266r107,0r-7,37r-87,229r-66,0xm73,-401r53,-266r107,0r-7,37r-87,229r-66,0","w":361},"#":{"d":"53,-318r14,-60r133,0r56,-200r63,0r-55,200r151,0r56,-200r63,0r-55,200r144,0r-14,60r-146,0r-38,136r145,0r-14,60r-147,0r-58,211r-64,0r58,-211r-151,0r-58,211r-64,0r58,-211r-130,0r14,-60r132,0r38,-136r-131,0xm248,-318r-38,136r151,0r38,-136r-151,0","w":632},"$":{"d":"130,6v-62,-6,-139,-26,-139,-83v0,-25,13,-61,40,-107r35,0v-17,77,10,134,75,144r41,-187v-41,-27,-52,-34,-86,-65v-26,-24,-44,-52,-44,-96v0,-97,98,-170,204,-171r19,-87r46,0r-20,87v15,1,57,6,125,16r-41,149r-35,0v9,-58,-9,-109,-59,-117r-39,175v52,35,77,47,108,98v41,67,21,151,-38,194v-40,30,-88,47,-146,50r-18,83r-46,0xm187,-41v44,-7,89,-33,90,-79v0,-25,-18,-52,-55,-79xm245,-512v-43,5,-89,30,-90,74v0,24,19,49,57,76","w":424},"%":{"d":"62,0r583,-678r39,34r-553,644r-69,0xm384,-536v0,90,-90,185,-178,185v-79,0,-132,-51,-132,-129v0,-90,85,-187,176,-187v78,0,134,54,134,131xm149,-489v0,39,25,73,62,73v50,0,98,-59,98,-112v0,-39,-24,-73,-61,-73v-51,0,-99,58,-99,112xm507,12v-79,0,-132,-51,-132,-129v0,-90,85,-187,176,-187v78,0,134,54,134,131v0,90,-90,185,-178,185xm549,-238v-51,0,-99,58,-99,112v0,39,25,73,62,73v50,0,98,-59,98,-112v0,-39,-24,-73,-61,-73","w":736},"&":{"d":"175,12v-92,1,-174,-52,-174,-145v0,-43,14,-79,43,-109v29,-30,71,-62,126,-96v-21,-54,-31,-102,-31,-145v2,-115,79,-196,207,-196v82,0,147,30,147,107v0,87,-72,134,-123,173v-18,13,-42,28,-70,45v29,67,71,139,126,214v76,-65,114,-133,114,-204v0,-39,-19,-63,-58,-70r0,-30v13,-7,34,-11,62,-11v49,1,71,15,71,68v0,43,-15,91,-45,142v-30,51,-70,98,-119,139v50,65,91,109,122,131r-15,24v-64,-15,-126,-47,-186,-97v-67,40,-133,60,-197,60xm118,-158v-1,70,41,110,107,110v32,0,69,-11,112,-33v-63,-63,-113,-134,-150,-214v-32,29,-68,83,-69,137xm342,-637v-51,0,-83,70,-81,126v0,33,7,71,22,113v55,-45,99,-86,101,-174v0,-33,-11,-65,-42,-65","w":626},"'":{"d":"73,-401r53,-266r107,0r-7,37r-87,229r-66,0","w":190},"(":{"d":"281,-679v-107,144,-198,421,-127,667v26,89,43,121,77,177r-41,21v-35,-33,-80,-103,-106,-155v-28,-58,-56,-162,-56,-251v0,-147,50,-282,150,-407v24,-30,45,-53,64,-69","w":299},")":{"d":"-22,165v91,-117,171,-292,173,-504v0,-124,-26,-240,-77,-335r42,-22v73,85,135,214,135,375v0,153,-54,295,-161,427v-28,35,-53,61,-76,80","w":280},"*":{"d":"292,-512v-6,-7,-11,-15,-15,-26r-45,-117v-7,-23,38,-33,60,-33v23,0,69,11,60,33r-45,117v-4,9,-10,21,-15,26xm105,-513v-26,-9,-7,-53,2,-68v7,-13,17,-24,29,-33v12,-9,22,-10,29,-2r79,97v6,7,13,17,15,26v-9,2,-19,2,-30,0xm325,-493v2,-8,7,-17,15,-26r79,-97v7,-8,17,-7,29,2v24,19,45,46,43,86v0,9,-6,14,-13,15v-51,6,-95,21,-153,20xm419,-332r-79,-97v-6,-8,-11,-16,-15,-26v8,-2,18,-2,30,0r124,20v26,9,7,53,-2,68v-7,13,-17,24,-29,33v-12,9,-22,10,-29,2xm165,-332v-7,8,-17,7,-29,-2v-24,-19,-45,-46,-43,-86v0,-9,6,-14,13,-15v51,-6,95,-21,153,-20v-3,9,-8,17,-15,26xm232,-293v19,-48,34,-101,60,-143v6,6,11,15,15,26r45,117v7,23,-38,33,-60,33v-23,0,-69,-11,-60,-33","w":508},"+":{"d":"28,-220r0,-71r193,0r0,-207r75,0r0,207r190,0r0,71r-190,0r0,220r-75,0r0,-220r-193,0","w":520},",":{"d":"-3,-50r10,-51r105,-52v49,72,37,150,-18,215v-32,39,-73,73,-122,104r-25,-38v69,-45,103,-83,103,-113v0,-30,-31,-54,-53,-65","w":224},"-":{"d":"49,-215r0,-80r266,0r0,80r-266,0","w":374},".":{"d":"58,12v-36,0,-55,-22,-55,-55v0,-51,35,-100,89,-100v35,0,57,22,57,54v0,51,-35,101,-91,101","w":229},"\/":{"d":"-8,196r-79,0r377,-863r79,0","w":293},"0":{"d":"230,12v-119,0,-193,-84,-193,-199v0,-113,52,-200,125,-254v81,-59,222,-62,288,9v64,69,66,186,22,280v-39,83,-126,164,-242,164xm382,-299v0,-64,-19,-125,-77,-126v-41,0,-76,27,-105,79v-29,52,-43,108,-43,169v0,63,18,126,76,127v39,0,73,-26,103,-78v30,-52,46,-110,46,-171","w":552},"1":{"d":"-3,5r0,-39v58,-1,78,-16,88,-64r61,-279v9,-54,-12,-57,-67,-59r0,-39r284,0r-4,37r-82,11r-72,329r-16,53r91,10r-3,35","w":369},"2":{"d":"261,-96v62,-5,85,-40,108,-87r44,0r-70,183r-352,0r-1,-36v48,-34,200,-149,243,-209v19,-26,29,-53,29,-82v1,-49,-26,-76,-71,-77v-38,0,-72,11,-103,34r-19,-29v40,-43,101,-86,185,-88v72,-1,135,40,133,110v-2,66,-33,101,-76,143v-65,63,-88,77,-168,138r118,0","w":463},"3":{"d":"161,-185v80,8,144,49,144,129v0,105,-103,184,-189,220v-66,27,-120,39,-193,32r0,-40v87,-3,164,-41,210,-96v27,-32,41,-67,41,-106v0,-67,-52,-98,-129,-88r0,-53v70,-9,179,-88,179,-167v0,-60,-61,-66,-110,-46v-27,11,-41,18,-60,30r-18,-30v30,-38,110,-86,183,-87v70,-1,134,38,133,107v-2,85,-75,130,-130,164v-19,11,-40,22,-61,31","w":389},"4":{"d":"-25,-30r0,-34r352,-406r108,-19r1,3v-36,107,-61,257,-90,377r127,0r-31,79r-113,0v-15,65,-37,159,-38,217r-123,9v0,-46,27,-166,41,-226r-234,0xm79,-109r148,0r39,-178v3,-15,9,-37,19,-66","w":523},"5":{"d":"-60,156v110,5,261,-86,258,-187v-3,-89,-90,-116,-165,-133r-19,-2r83,-309r217,0r67,-6r-25,100r-231,0r-30,110v93,20,180,60,211,143v53,139,-64,253,-169,293v-64,24,-122,35,-197,31r0,-40","w":397},"6":{"d":"220,12v-118,1,-183,-97,-182,-219v2,-123,53,-230,114,-309v68,-89,194,-164,347,-163r0,38v-177,21,-275,154,-313,314v-12,50,-18,100,-18,151v0,97,21,146,64,146v56,0,88,-79,102,-132v16,-62,22,-129,-4,-178v-14,-26,-32,-37,-60,-30r0,-39v15,-11,36,-16,62,-16v89,-2,143,68,142,155v-2,101,-52,186,-120,236v-41,30,-85,46,-134,46","w":508},"7":{"d":"171,-356v-73,2,-68,15,-105,67r-40,0r62,-186r332,0r66,-4r0,27v-29,32,-51,59,-65,81r-340,533v-13,24,-54,54,-81,25v-28,-46,25,-76,48,-102v52,-60,218,-304,306,-445v-65,7,-116,3,-183,4","w":460},"8":{"d":"199,12v-94,0,-184,-49,-182,-143v0,-42,16,-80,47,-115v31,-35,73,-68,127,-101v-50,-59,-75,-111,-75,-157v-2,-107,98,-175,207,-175v90,0,169,46,170,128v0,35,-14,66,-41,93v-27,27,-67,56,-118,85v40,47,58,61,84,116v67,147,-78,269,-219,269xm206,-30v83,0,130,-102,91,-180v-23,-45,-38,-62,-73,-101v-65,50,-99,108,-99,173v0,72,27,108,81,108xm317,-637v-48,-1,-78,55,-77,103v0,36,21,78,63,126v55,-39,82,-84,82,-136v1,-50,-22,-92,-68,-93","w":499},"9":{"d":"289,-488v118,-1,183,97,182,219v-2,121,-52,227,-113,306v-68,88,-195,163,-347,162r0,-38v189,-25,282,-166,319,-342v8,-39,11,-79,11,-119v0,-97,-21,-146,-64,-146v-31,0,-58,26,-79,78v-30,75,-48,159,-16,228v12,25,30,35,57,29r0,39v-15,11,-36,16,-62,16v-86,2,-138,-66,-137,-150v2,-100,52,-186,118,-236v40,-30,83,-46,131,-46","w":517},":":{"d":"69,12v-36,0,-55,-22,-55,-55v0,-51,35,-100,89,-100v35,0,57,22,57,54v0,51,-35,101,-91,101xm135,-312v-36,0,-55,-22,-55,-55v0,-51,35,-100,89,-100v35,0,57,22,57,54v0,51,-35,101,-91,101","w":257},";":{"d":"126,-312v-36,0,-55,-22,-55,-55v0,-51,35,-100,89,-100v35,0,57,22,57,54v0,51,-35,101,-91,101xm20,-50r10,-51r105,-52v49,72,38,150,-17,215v-32,39,-74,73,-123,104r-25,-38v69,-45,103,-83,103,-113v0,-30,-31,-54,-53,-65","w":256},"<":{"d":"14,-231r0,-46r426,-229r20,73r-347,179r347,189r-20,72","w":520},"=":{"d":"35,-303r0,-70r438,0r0,70r-438,0xm35,-128r0,-70r438,0r0,70r-438,0","w":520},">":{"d":"76,7r-20,-72r347,-189r-347,-179r20,-73r426,229r0,46","w":520},"?":{"d":"114,-201v-34,-54,9,-119,38,-149v26,-27,56,-58,79,-88v51,-67,-49,-119,-93,-138r-35,-15r54,-116v73,31,161,74,209,135v40,51,30,88,-13,138v-48,57,-118,93,-168,146v-32,34,-44,44,-35,82xm168,-87v0,47,-37,99,-90,99v-37,0,-56,-19,-56,-57v0,-49,36,-98,89,-98v38,0,57,19,57,56","w":355},"@":{"d":"322,170v-181,-4,-320,-141,-318,-325v2,-175,114,-315,238,-384v72,-40,147,-61,227,-61v183,0,329,124,324,304v-5,196,-137,298,-340,302v-31,1,-55,4,-73,7v-10,-5,0,-20,2,-29v5,-18,9,-41,13,-61v-36,47,-61,89,-125,89v-65,0,-98,-56,-98,-129v0,-83,33,-160,98,-231v86,-94,184,-123,325,-97v-33,91,-44,201,-67,302v-6,30,-9,51,-9,64v0,23,11,34,33,34v32,0,63,-23,94,-69v31,-46,46,-102,46,-168v1,-151,-91,-267,-245,-267v-196,0,-341,186,-341,386v0,157,91,278,226,288xm304,-140v0,61,17,79,56,58v16,-8,25,-15,37,-24r60,-303v-39,2,-73,32,-105,89v-32,57,-48,117,-48,180","w":820},"A":{"d":"-60,0r0,-34v29,-3,51,-18,66,-45r337,-585r56,-9r97,563v13,54,6,67,51,77r-3,33r-213,4r0,-37v27,-1,46,-13,42,-42r-21,-130r-201,0r-16,10r-84,150r74,12r-3,33r-182,0xm343,-258r-37,-243r-136,243r173,0","w":587},"B":{"d":"551,-212v0,137,-139,210,-294,212r-253,3r0,-37v34,-5,67,-25,73,-57r93,-467v18,-63,6,-65,-56,-79r0,-30v136,4,324,-17,402,36v37,24,55,56,55,96v0,95,-80,147,-159,178v69,21,139,56,139,145xm195,-50v127,7,215,-34,218,-148v2,-85,-52,-125,-149,-121r-14,12r-39,199xm432,-518v-2,-56,-26,-101,-88,-99r-21,0r-15,13r-46,235r66,0v53,-2,107,-86,104,-149","w":600},"C":{"d":"327,12v-172,4,-287,-128,-285,-290v2,-158,93,-279,206,-343v103,-57,195,-69,336,-47v50,8,78,10,83,11r-44,163r-39,0v7,-91,-33,-136,-124,-136v-123,0,-216,81,-256,168v-22,48,-34,98,-34,151v0,174,137,271,310,226v41,-10,59,-20,87,-34r13,27v-55,56,-140,102,-253,104","w":641},"D":{"d":"704,-388v0,237,-210,394,-461,388r-98,0r-141,3r0,-37v34,-5,67,-25,73,-57r93,-467v18,-63,6,-65,-56,-79r0,-30v128,3,270,-10,377,15v123,30,213,109,213,264xm565,-383v2,-156,-79,-246,-243,-234r-13,12r-98,497r-16,58v76,2,141,-3,195,-28v111,-50,173,-153,175,-305","w":724},"E":{"d":"4,3r0,-37v43,-7,67,-27,74,-61r92,-463v18,-63,6,-65,-56,-79r0,-30r406,0r74,-4r-48,177r-39,0v19,-89,-2,-123,-82,-123r-101,0r-15,12r-47,241r159,0r18,-64r42,0r-38,189r-50,0r15,-75r-144,0r-15,12r-38,194r-16,58v73,-3,173,11,214,-22v18,-14,43,-47,75,-98r39,0r-61,170r-295,0","w":574},"F":{"d":"4,3r0,-37v43,-7,67,-27,74,-61r92,-463v18,-63,6,-65,-56,-79r0,-30r406,0r74,-4r-49,177r-39,0v19,-90,0,-123,-81,-123r-101,0r-15,12r-48,245r159,0r18,-64r42,0r-38,189r-50,0r15,-75r-144,0r-15,12r-38,194r-16,59r104,9r-4,33","w":534},"G":{"d":"357,12v-180,0,-317,-105,-314,-286v1,-114,47,-207,106,-274v65,-75,182,-131,320,-131v34,0,198,20,219,22r-44,163r-39,0v8,-101,-38,-136,-146,-136v-169,0,-277,167,-277,337v0,142,61,250,195,250v23,0,52,-4,85,-13r26,-127v9,-58,-10,-63,-62,-73r0,-30r238,0r3,14v-28,12,-48,56,-56,95r-33,163v-22,1,-191,26,-221,26","w":689},"H":{"d":"4,3r0,-37v43,-7,67,-27,74,-61r94,-472v13,-58,1,-55,-50,-70r0,-30r74,0r153,-4r4,4v-26,25,-44,66,-55,121r-36,180r294,0r14,-13r38,-188v13,-58,1,-55,-50,-70r0,-30r74,0r153,-4r4,4v-26,25,-44,66,-55,121r-88,442r-16,59r79,9r-4,33r-265,6r0,-37v43,-7,67,-27,74,-61r43,-218r-293,0r-15,14r-39,195r-16,59r79,9r-4,33","w":787},"I":{"d":"4,3r0,-37v43,-7,67,-27,74,-61r94,-472v13,-58,1,-55,-50,-70r0,-30r74,0r153,-4r4,4v-26,25,-44,66,-55,121r-88,442r-16,59r79,9r-4,33","w":351},"J":{"d":"58,-55r102,-512v13,-58,1,-55,-50,-70r0,-30r74,0r153,-4r4,4v-25,25,-44,66,-55,121r-89,444v-18,88,-51,154,-99,198v-48,44,-105,67,-170,67r-6,-29v28,-5,55,-23,81,-56v26,-33,44,-78,55,-133","w":322},"K":{"d":"4,3r0,-37v43,-7,67,-27,74,-61r94,-472v13,-58,1,-55,-50,-70r0,-30r74,0r153,-4r4,4v-59,57,-66,198,-90,296r20,0v13,-7,25,-15,34,-24r210,-191v10,-12,24,-23,13,-40v-5,-6,-14,-9,-28,-11r0,-30r194,0r4,19v-28,3,-71,30,-128,82r-190,174r0,15r147,276v22,39,29,61,76,64r-3,37r-183,0r-2,-3v2,-17,-11,-53,-40,-106r-112,-209r-23,0r-42,214r-16,59r79,9r-4,33","w":653},"L":{"d":"4,3r0,-37v43,-7,67,-27,74,-61r94,-472v13,-58,1,-55,-50,-70r0,-30r74,0r153,-4r4,4v-26,25,-44,66,-55,121r-85,427r-18,69v71,-3,163,11,201,-24v18,-16,47,-53,86,-114r39,0r-68,188r-306,0","w":536},"M":{"d":"-5,3r0,-37v42,-5,67,-26,75,-62r111,-473v7,-22,7,-37,1,-45v-6,-8,-27,-16,-60,-23r0,-30r91,0r135,-4r2,4v14,165,51,309,69,470r228,-401r37,-69r170,-4r4,4v-25,29,-42,71,-51,126r-67,437v-3,21,-9,44,-16,59r79,9r-4,33r-265,6r0,-37v43,-7,69,-27,74,-61r69,-450r-310,545r-40,-12r-91,-549v-3,8,-6,19,-9,32r-102,433r-15,54r84,6r-3,33","w":873},"N":{"d":"4,3r0,-37v43,-5,68,-26,75,-62r88,-445v15,-69,9,-85,-53,-96r0,-30r166,-4v3,15,11,33,24,52r250,385r26,47r74,-372v16,-56,-3,-67,-57,-75r0,-33r190,0r2,14v-41,15,-70,53,-81,102r-111,556r-41,0r-311,-480v-7,-11,-16,-26,-27,-46r-84,425r-15,54r84,6r-3,33","w":747},"O":{"d":"343,12v-176,0,-300,-123,-298,-295v1,-110,46,-204,103,-269v60,-71,165,-127,291,-127v178,0,301,114,299,287v-2,157,-83,280,-190,346v-62,38,-130,58,-205,58xm214,-443v-60,153,-33,407,136,407v106,0,177,-93,214,-182v65,-156,43,-413,-133,-413v-109,0,-182,99,-217,188","w":758},"P":{"d":"457,-487v1,-82,-51,-134,-133,-130r-15,12r-99,501r-16,59r89,9r-4,33r-275,6r0,-37v43,-7,67,-27,74,-61r92,-463v18,-63,6,-65,-56,-79r0,-30r256,0v125,2,224,42,226,166v2,100,-77,173,-153,202v-43,17,-86,24,-131,23r0,-36v88,-11,144,-80,145,-175","w":572},"Q":{"d":"439,-679v180,0,302,113,299,290v-4,210,-141,327,-282,407v-51,28,-106,52,-164,69v149,60,331,59,457,-15r9,30v-115,123,-255,158,-434,100v-57,-18,-126,-48,-208,-88r0,-34v123,-21,202,-44,237,-68v-184,7,-309,-120,-308,-295v1,-110,46,-204,103,-269v60,-71,165,-127,291,-127xm184,-279v-1,119,53,242,165,242v66,0,124,-35,174,-107v69,-97,95,-230,59,-360v-18,-63,-71,-127,-151,-126v-109,2,-184,99,-217,188v-20,53,-30,108,-30,163","w":758},"R":{"d":"589,-516v1,103,-92,163,-168,196r0,16r98,205v21,41,30,57,77,62r-4,37r-178,0r-4,-3v-26,-91,-85,-195,-124,-282r-28,0r-15,12r-33,169r-16,59r79,9r-4,33r-265,6r0,-37v43,-7,67,-27,74,-61r92,-463v18,-63,6,-65,-56,-79r0,-30r245,0v78,0,135,14,173,43v38,29,57,65,57,108xm450,-503v-3,-70,-46,-122,-126,-114r-15,12r-53,270r47,0v73,-4,151,-79,147,-168","w":624},"S":{"d":"436,-190v6,176,-211,244,-367,178v-37,-16,-56,-40,-56,-70v0,-28,13,-68,39,-119r39,0v-1,76,10,131,65,153v74,30,170,-6,164,-90v-7,-95,-94,-137,-150,-188v-39,-35,-82,-85,-82,-153v1,-120,108,-200,240,-200v35,0,94,6,175,19r-45,166r-39,0v15,-91,-17,-136,-96,-136v-61,-1,-124,36,-121,97v4,78,69,105,117,147v56,49,113,95,117,196","w":492},"T":{"d":"601,-494v3,-88,4,-121,-76,-123r-80,0r-15,12r-99,501r-16,59r94,9r-4,33r-280,6r0,-37v43,-7,67,-27,74,-61r104,-522r-68,0v-91,5,-112,45,-150,123r-39,0r44,-179v16,4,37,6,63,6r463,0v23,0,50,-3,69,-6r-45,179r-39,0","w":610},"U":{"d":"318,12v-146,2,-239,-69,-240,-207v0,-25,2,-47,6,-66r61,-306v11,-59,-1,-55,-50,-70r0,-30r74,0r153,-4r4,4v-26,27,-44,67,-55,121r-60,303v-5,23,-7,44,-7,63v-2,84,50,136,129,136v49,0,97,-18,141,-54v44,-36,73,-88,87,-158r60,-302v10,-48,-9,-73,-56,-76r0,-33r187,0r3,19v-33,12,-70,55,-77,97r-62,311v-24,142,-143,251,-298,252","w":707},"V":{"d":"207,-3r-102,-579v-4,-28,-20,-45,-46,-55r0,-30r63,0r131,-4r3,4v-18,33,-25,63,-20,92r58,366v3,19,4,35,5,50r231,-397v27,-43,17,-65,-29,-81r0,-30r164,0r4,14v-23,14,-51,50,-84,107r-324,555","w":586},"W":{"d":"545,-3r-75,-424r-214,436r-55,-12r-102,-579v-6,-27,-21,-46,-46,-55r0,-30r63,0r129,-4r3,4v-18,33,-25,63,-20,92r56,354v1,8,3,23,4,46r167,-340v-10,-51,-11,-108,-58,-122r0,-30r63,0r129,-4r3,4v-18,33,-25,63,-20,92r56,351v3,17,4,33,5,47r185,-379v24,-45,18,-64,-29,-81r0,-30r162,0r4,14v-33,19,-63,65,-84,107r-271,555","w":887},"X":{"d":"-35,0r0,-37v37,-4,63,-17,80,-37r211,-245r-122,-274v-9,-22,-33,-39,-58,-44r0,-30r56,0r134,-4r3,4v-9,29,-9,53,0,72r79,184r144,-167v26,-27,15,-53,-24,-59r0,-30r177,0r5,16v-23,6,-48,27,-77,61r-202,233r141,316r44,8r-3,33r-225,4r0,-37v27,-5,48,-10,35,-40r-83,-192r-191,221r84,9r-3,35r-205,0","w":598},"Y":{"d":"103,3r0,-37v43,-7,67,-27,74,-61r42,-210r-113,-288v-8,-21,-23,-38,-43,-44r0,-30r47,0r131,-4v5,4,0,8,-1,15v-2,12,-7,50,2,61r63,177v3,7,8,27,17,59r164,-221v23,-27,14,-53,-25,-57r0,-30r168,0r4,14v-24,7,-48,28,-73,62r-211,285r-40,202r-16,59r79,9r-4,33","w":549},"Z":{"d":"-19,4r-5,-36v17,-12,39,-36,66,-71r361,-469v4,-5,17,-20,38,-45r-161,0v-36,0,-64,8,-83,24v-19,16,-42,49,-69,99r-39,0r43,-173r415,0r58,-4r10,31v-17,15,-39,40,-67,76r-359,469v-15,19,-28,34,-39,45r182,0v36,0,63,-8,81,-24v18,-16,47,-53,86,-114r39,0r-68,188r-431,0","w":584},"[":{"d":"60,155r43,-822r205,0r-2,51r-118,0r-39,720r118,0r-2,51r-205,0","w":310},"\\":{"d":"325,196r-287,-863r75,0r288,863r-76,0","w":393},"]":{"d":"7,104r118,0r39,-720r-118,0r2,-51r205,0r-43,822r-205,0","w":324},"^":{"d":"31,-250r214,-429r70,0r214,429r-81,0r-169,-340r-169,340r-79,0","w":550},"_":{"d":"-59,37r500,0r0,59r-500,0r0,-59","w":515},"`":{"d":"332,-505r-115,-176r0,-27r110,11r47,171","w":500},"a":{"d":"308,-467v45,0,126,20,169,9r2,3v-30,72,-54,215,-76,306v-10,42,-14,67,-14,75v0,15,7,23,21,23v17,0,36,-9,56,-28r3,36v-39,37,-82,55,-130,55v-48,0,-78,-22,-72,-65r7,-54v-6,2,-6,9,-10,13v-31,45,-76,106,-150,106v-71,0,-109,-65,-107,-145v3,-122,60,-221,141,-280v48,-35,101,-54,160,-54xm175,-73v50,0,92,-86,108,-129v25,-68,37,-135,55,-208v-43,-27,-77,-13,-113,26v-45,47,-88,146,-88,235v0,51,13,76,38,76"},"b":{"d":"177,12v-31,-1,-120,-19,-163,-9r-4,-4v0,-22,9,-76,28,-162r92,-420v6,-27,9,-44,9,-51v2,-28,-27,-33,-59,-31r0,-32v57,-6,155,-30,195,-49r3,3v-9,122,-50,274,-77,390r2,0v36,-48,85,-114,164,-114v68,0,104,66,102,144v-1,88,-31,165,-71,222v-42,62,-121,113,-221,113xm138,-43v69,32,114,-1,154,-73v32,-56,47,-120,47,-189v0,-51,-12,-77,-35,-77v-55,0,-125,114,-133,173r-12,55v-8,33,-15,70,-21,111","w":493},"c":{"d":"181,12v-104,2,-173,-78,-171,-180v2,-108,59,-201,132,-252v44,-31,90,-47,142,-47v55,0,133,16,133,68v0,38,-48,61,-79,35v-25,-21,-31,-62,-73,-62v-33,0,-63,24,-90,72v-27,48,-40,97,-40,150v0,75,34,141,110,139v37,-1,73,-16,110,-46r4,35v-35,47,-94,87,-178,88","w":413},"d":{"d":"474,-43v-31,31,-133,81,-185,37v-25,-22,-14,-62,-11,-99v-6,2,-6,9,-10,13v-33,44,-80,104,-156,104v-70,0,-109,-65,-107,-145v3,-120,64,-222,144,-280v62,-45,119,-63,206,-50r26,-120v6,-27,9,-44,9,-51v2,-28,-27,-33,-59,-31r0,-32v57,-6,155,-30,195,-49r3,3v-3,44,-11,100,-26,167r-97,439v-7,35,-11,57,-11,64v0,15,6,22,19,22v18,0,37,-9,56,-26xm175,-73v26,0,51,-21,79,-62v43,-64,63,-160,83,-251v6,-26,-19,-38,-42,-38v-35,0,-70,29,-106,88v-36,59,-54,120,-54,184v0,53,13,79,40,79","w":516},"e":{"d":"173,12v-106,3,-164,-71,-164,-171v0,-112,61,-208,135,-261v43,-31,90,-47,141,-47v60,1,116,24,114,86v-2,98,-111,136,-185,162v-22,7,-45,13,-68,18r-12,13v1,81,34,121,100,121v48,0,97,-25,121,-48r3,32v-35,50,-98,93,-185,95xm137,-237v78,-19,145,-50,144,-144v0,-29,-10,-43,-29,-43v-25,0,-48,19,-71,56v-23,37,-37,81,-44,131","w":414},"f":{"d":"464,-675v1,27,-23,53,-50,52v-17,0,-36,-10,-57,-31v-21,-21,-37,-31,-50,-31v-23,0,-40,19,-51,57v-11,38,-22,96,-31,173r117,0r-14,59r-99,0r-12,8v-7,59,-13,110,-20,152v-13,82,-37,202,-67,268v-43,98,-102,193,-229,205r-9,-29v83,-29,143,-167,179,-415v3,-21,11,-82,23,-185r-62,0r3,-42r68,-22v26,-150,78,-277,250,-277v53,0,109,11,111,58","w":305},"g":{"d":"476,-455v-20,54,-77,306,-82,376v-1,17,-5,30,-6,39v-23,152,-83,275,-257,277v-47,0,-83,-8,-109,-25v-36,-25,-50,-57,-26,-94v20,-30,23,-28,54,-56r38,0v-21,52,-19,136,43,136v45,0,76,-32,103,-91v16,-35,29,-175,37,-212v-6,1,-5,9,-9,13v-31,45,-76,104,-150,104v-71,0,-109,-66,-107,-145v3,-121,63,-222,143,-281v48,-35,100,-53,159,-53v44,0,125,20,167,9xm135,-149v0,83,48,95,87,51v67,-75,89,-198,114,-312v-13,-9,-27,-14,-42,-14v-35,0,-70,29,-106,88v-36,59,-53,121,-53,187","w":488},"h":{"d":"285,-53v-2,-25,59,-264,54,-288v0,-25,-10,-38,-31,-38v-61,-1,-125,116,-136,170v-13,62,-34,156,-35,207r-127,8v0,-30,8,-83,25,-158r96,-431v6,-27,9,-44,9,-51v2,-28,-27,-33,-59,-31r0,-32v57,-6,155,-30,195,-49r3,3v-4,87,-37,212,-54,302v-8,37,-18,70,-29,99r2,0v38,-57,99,-123,181,-125v59,-1,88,35,89,90v6,23,-57,284,-55,302v4,49,58,9,75,-2r4,34v-22,24,-83,55,-132,55v-45,0,-72,-22,-75,-65","w":529},"i":{"d":"270,-636v0,46,-33,82,-77,82v-36,0,-64,-21,-64,-56v-1,-46,31,-85,77,-85v38,0,64,22,64,59xm106,12v-45,0,-75,-22,-75,-65v-6,-14,69,-307,64,-318v2,-32,-28,-29,-57,-28r0,-32v59,-5,155,-27,193,-48r3,3v9,22,-76,388,-75,401v4,49,58,9,75,-2r4,34v-22,24,-83,55,-132,55","w":281},"j":{"d":"273,-636v0,46,-33,82,-77,82v-36,0,-64,-21,-64,-56v-1,-46,31,-85,77,-85v38,0,64,22,64,59xm40,-431v59,-5,157,-27,195,-48r3,3v-11,132,-57,297,-84,426v-20,95,-56,166,-104,214v-48,48,-108,73,-178,73r-6,-29v70,-13,132,-110,149,-189r77,-347v5,-21,7,-36,7,-43v2,-32,-29,-28,-59,-28r0,-32","w":262},"k":{"d":"447,-464v7,6,6,17,7,35v0,31,-11,59,-30,83v-20,25,-70,51,-122,71r0,10v20,33,56,139,78,174v26,45,40,42,85,17r4,34v-43,35,-83,52,-119,52v-52,1,-85,-50,-100,-89r-29,-84v0,0,-20,-58,-29,-74r-15,0v-15,69,-40,169,-41,233r-126,8v0,-31,9,-87,28,-169r93,-420v6,-27,9,-44,9,-51v2,-28,-27,-33,-59,-31r0,-32v57,-6,155,-30,195,-49r3,3v-13,151,-64,321,-92,466r20,0r85,-33v46,-18,69,-42,69,-71v0,-24,-22,-31,-51,-29r0,-32","w":495},"l":{"d":"87,12v-43,1,-70,-24,-71,-62v0,-9,6,-43,19,-101r95,-432v6,-27,9,-44,9,-51v2,-28,-27,-33,-59,-31r0,-32v57,-6,155,-30,195,-49r3,3v-3,47,-11,102,-26,167r-97,439v-7,31,-11,52,-11,63v2,47,61,9,75,-3r4,34v-23,25,-84,54,-136,55","w":268},"m":{"d":"289,7v-7,-45,62,-311,62,-348v0,-25,-10,-38,-31,-38v-59,2,-119,111,-131,170v-12,62,-34,163,-35,207r-127,9v-9,-22,74,-366,72,-378v2,-34,-29,-28,-59,-28r0,-32v94,-13,158,-29,193,-48r3,3v0,31,-8,76,-23,134r2,0v36,-58,95,-121,176,-125v72,-3,101,59,83,125r2,0v36,-56,97,-122,177,-125v59,-1,88,35,89,90v6,23,-57,284,-55,302v4,49,58,9,75,-2r4,34v-22,24,-83,55,-132,55v-45,0,-72,-22,-75,-65v-2,-25,59,-264,54,-288v0,-25,-10,-38,-31,-38v-60,3,-119,110,-131,170v-13,64,-33,151,-35,207","w":803},"n":{"d":"302,-53v-2,-25,59,-264,54,-288v0,-25,-10,-38,-31,-38v-63,-2,-125,116,-136,170v-13,64,-33,151,-35,207r-127,9v-9,-22,74,-366,72,-378v2,-34,-29,-28,-59,-28r0,-32v94,-13,158,-29,193,-48r3,3v0,31,-8,76,-23,134r2,0v38,-57,99,-123,181,-125v59,-1,88,35,89,90v6,23,-57,284,-55,302v4,48,60,10,75,-2r4,34v-22,24,-83,55,-132,55v-45,0,-72,-22,-75,-65","w":546},"o":{"d":"194,12v-114,0,-183,-71,-183,-180v0,-79,31,-146,69,-197v41,-56,119,-102,214,-102v115,0,183,66,183,174v0,79,-32,147,-70,199v-41,57,-118,106,-213,106xm141,-127v0,65,19,98,57,98v28,0,54,-17,77,-49v42,-56,70,-149,71,-240v0,-72,-20,-108,-59,-108v-30,0,-56,17,-79,50v-43,59,-66,154,-67,249","w":504},"p":{"d":"383,-467v68,0,104,65,103,143v-2,88,-32,166,-72,223v-50,73,-147,130,-273,109r-28,127v-5,23,4,41,31,38r41,-5r2,35v-93,9,-162,24,-207,43r-4,-4v3,-43,11,-91,22,-142r91,-416v7,-29,10,-48,10,-55v2,-34,-29,-28,-59,-28r0,-32v94,-13,158,-29,193,-48r3,3v0,30,-6,71,-18,123r2,0v35,-48,84,-114,163,-114xm157,-66v-7,24,25,35,47,35v40,0,75,-28,106,-85v31,-57,46,-120,46,-189v0,-51,-12,-77,-35,-77v-23,0,-47,20,-76,56v-57,72,-62,163,-88,260"},"q":{"d":"274,-102v-35,48,-82,114,-161,114v-72,0,-110,-65,-108,-146v3,-120,65,-222,145,-280v48,-35,100,-53,159,-53v52,0,125,20,175,9r2,3v-42,122,-95,401,-132,557v-10,39,-19,70,24,71r41,-5r2,35v-93,9,-162,24,-207,43r-4,-4v9,-115,43,-237,66,-344r-2,0xm175,-73v25,0,50,-21,79,-61v49,-70,67,-178,90,-276v-14,-9,-29,-14,-46,-14v-35,0,-71,29,-108,88v-37,59,-55,120,-55,183v0,53,13,80,40,80","w":499},"r":{"d":"350,-346v-16,0,-40,-15,-56,-14v-41,2,-94,98,-102,139v-13,64,-38,166,-38,219r-127,9v-9,-22,74,-366,72,-378v2,-34,-29,-28,-59,-28r0,-32v94,-13,158,-29,193,-48r3,3v0,35,-8,80,-23,134r2,0v49,-83,94,-125,134,-125v36,0,63,27,63,59v0,32,-25,62,-62,62","w":382},"s":{"d":"307,-144v-1,108,-103,174,-227,153v-43,-7,-96,-18,-99,-65v-3,-43,53,-61,84,-36v20,16,20,37,41,52v39,30,106,-2,102,-49v-6,-58,-67,-79,-104,-111v-28,-25,-57,-63,-57,-114v1,-96,81,-157,188,-153v54,2,117,6,120,59v1,26,-21,49,-48,48v-17,0,-33,-11,-48,-33v-15,-22,-32,-33,-49,-33v-29,-1,-68,27,-65,58v6,59,68,78,105,110v29,25,57,62,57,114","w":362},"t":{"d":"150,12v-84,3,-127,-51,-109,-134r43,-205r16,-65r-59,0r4,-42v28,-5,51,-15,68,-30v16,-25,28,-56,36,-93r96,-22v0,19,-5,61,-14,124r141,0r-16,59r-123,0r-14,11r-49,240v-11,44,-2,78,41,77v38,-1,76,-25,98,-44r5,35v-35,42,-87,87,-164,89","w":354},"u":{"d":"127,12v-59,1,-88,-35,-89,-90v-7,-27,54,-274,54,-293v0,-32,-25,-28,-54,-28r0,-33v93,-13,156,-29,188,-47r3,3v8,51,-63,323,-62,362v0,25,10,38,31,38v58,-1,120,-116,131,-170v19,-98,32,-164,34,-198r128,-18v10,30,-75,366,-73,387v4,48,60,10,75,-2r4,34v-22,24,-83,55,-132,55v-47,0,-70,-22,-70,-65v0,-17,3,-35,8,-55r-2,0v-36,55,-96,117,-174,120","w":541},"v":{"d":"13,-431v43,-5,153,-31,181,-48r3,3v-15,105,1,261,19,364v77,-97,124,-174,140,-230v12,-43,1,-64,-33,-64r0,-30r142,-31r3,6v-48,133,-131,272,-248,415v-15,19,-30,40,-44,62r-53,-13v-26,-72,-45,-217,-60,-380v-3,-21,-24,-24,-50,-22r0,-32","w":436},"w":{"d":"267,-431v42,-7,152,-31,179,-48r3,3v-12,102,0,259,15,361v71,-91,115,-166,132,-223v13,-45,3,-68,-31,-68r0,-30r142,-31r3,6v-47,131,-128,270,-243,415v-15,19,-30,40,-44,62r-53,-13v-17,-56,-31,-132,-41,-229v-52,96,-98,164,-155,242r-56,-13v-22,-67,-40,-214,-55,-380v-3,-21,-24,-24,-50,-22r0,-32v43,-5,153,-31,181,-48r3,3v-12,91,-7,210,15,359v27,-40,53,-82,75,-125v33,-65,37,-74,28,-135v-3,-20,-22,-24,-48,-22r0,-32","w":678},"x":{"d":"433,-47v-31,32,-131,90,-181,41v-36,-35,-45,-81,-71,-151v-38,66,-70,112,-96,138v-21,21,-41,31,-62,31v-41,0,-59,-42,-36,-72v18,-23,59,-11,84,-30v38,-29,65,-63,94,-113v-22,-65,-40,-119,-59,-159v-11,-24,-17,-39,-52,-37r-19,0r0,-32v59,-8,112,-24,158,-48r3,3r56,165v33,-57,63,-98,89,-125v20,-21,41,-31,62,-31v28,0,48,16,48,42v0,31,-21,47,-57,48v-33,2,-50,16,-69,36v-21,23,-40,48,-57,75v34,91,46,143,82,198v20,31,47,9,79,-13","w":476},"y":{"d":"-58,237v-29,0,-54,-22,-55,-47v0,-37,22,-55,67,-55v51,1,94,-22,126,-56v19,-20,29,-46,29,-79v1,-97,-13,-308,-36,-373v-8,-23,-31,-28,-62,-26r0,-32v91,-16,149,-32,176,-48r4,2v21,140,31,263,32,369v41,-61,76,-118,104,-170v28,-52,42,-87,42,-104v0,-18,-18,-27,-38,-27r0,-28r140,-30r3,6v-43,101,-129,238,-189,335v-69,110,-162,238,-250,318v-33,30,-64,45,-93,45","w":442},"z":{"d":"51,-11v-20,1,-45,5,-60,11r-20,-24v27,-19,51,-42,73,-67r229,-260v-56,2,-118,-6,-167,5v-24,5,-24,17,-35,38r-30,-6r39,-141r257,0v30,0,52,-3,66,-8r14,26v-33,32,-55,54,-66,67r-235,267v119,22,211,18,244,-76r31,0v-13,62,-32,109,-55,142v-23,33,-56,49,-99,49v-29,0,-159,-24,-186,-23","w":429},"{":{"d":"80,83v0,-25,9,-123,9,-153v0,-114,-30,-171,-91,-172r0,-41v61,-2,87,-52,106,-97v22,-55,27,-133,34,-201v12,-107,88,-160,227,-160r1,41v-69,6,-114,27,-126,92v-13,73,-15,161,-40,226v-20,50,-51,101,-105,118r0,2v60,27,90,104,90,205v0,28,-7,110,-7,136v2,80,32,97,111,106r-9,41v-118,-1,-199,-31,-200,-143","w":339},"|":{"d":"99,225r0,-974r85,0r0,974r-85,0","w":292},"}":{"d":"249,-595v0,23,-9,118,-9,146v0,110,31,165,92,166r0,41v-44,1,-76,36,-92,66v-31,61,-40,158,-49,242v-12,119,-93,159,-226,160r-1,-41v34,-5,66,-7,86,-25v14,-13,19,-14,28,-34v13,-29,17,-75,22,-113v17,-157,62,-249,135,-275r0,-2v-61,-21,-96,-87,-91,-196r6,-132v-2,-82,-29,-100,-110,-108r9,-41v133,0,200,49,200,146","w":334},"~":{"d":"191,-268v-51,-2,-67,51,-68,100r-72,0v-1,-104,43,-167,137,-169v49,-2,93,27,114,52v18,21,48,52,85,52v51,0,67,-51,68,-100r72,0v1,104,-43,167,-137,169v-64,1,-98,-35,-128,-68v-17,-18,-39,-36,-71,-36","w":569},"\u00a0":{"w":217},"\u00a1":{"d":"155,-250r-35,454v-59,11,-115,25,-166,41r-4,-8v15,-25,31,-64,48,-118r116,-369r41,0xm181,-467v36,0,55,22,55,55v0,51,-35,100,-89,100v-35,0,-57,-22,-57,-54v0,-51,35,-101,91,-101","w":271},"\u00a2":{"d":"176,-69v-85,-5,-150,-71,-149,-158v1,-95,46,-167,111,-213v39,-28,83,-44,132,-47r20,-90r44,0r-20,90v70,6,105,26,105,59v0,21,-18,41,-40,41v-39,0,-57,-36,-76,-52r-68,303v50,6,99,-16,126,-38r10,34v-25,32,-93,66,-151,71r-20,91r-44,0xm262,-451v-93,14,-159,234,-67,299","w":424},"\u00a3":{"d":"272,25v-37,0,-161,-45,-192,-43v-13,0,-39,6,-78,18r-14,-34v30,-13,64,-54,76,-90r38,-120r-61,0r0,-45r75,0r28,-88v40,-129,117,-193,231,-193v49,0,113,14,114,58v0,29,-20,49,-49,49v-15,0,-31,-10,-47,-30v-28,-37,-65,-42,-88,-1v-16,28,-51,148,-69,205r155,0r-16,45r-153,0v-15,55,-47,114,-77,149v37,20,81,30,134,30v73,0,120,-34,143,-101r38,0v-12,101,-77,191,-188,191","w":505},"\u00a5":{"d":"69,-272r0,-43r121,0r-68,-180v-6,-16,-18,-30,-35,-33r0,-30r150,-3v3,11,-13,41,-3,57r41,115v8,23,14,43,17,59r129,-155v19,-24,13,-38,-20,-43r0,-30r138,0r5,16v-13,2,-31,16,-52,41r-155,186r125,0r-10,43r-142,0r-15,65r142,0r-10,43r-142,0v-9,43,-19,84,-32,122r74,8r-3,31r-236,6r0,-34v40,-5,64,-26,73,-65r15,-68r-133,0r0,-43r143,0r15,-65r-132,0","w":519},"\u00a6":{"d":"88,-333r0,-358r92,0r0,358r-92,0xm88,-178r92,0r0,358r-92,0r0,-358","w":243},"\u00a7":{"d":"514,-586v-20,-21,-73,-35,-119,-35v-53,0,-95,23,-125,68v-30,45,-49,101,-57,168r-37,315v-3,25,-20,90,-32,110v-17,29,-49,67,-85,78r-3,-5v17,-35,30,-86,39,-154r46,-365v18,-161,123,-305,307,-266v42,9,69,30,90,57xm-57,144v20,21,73,35,119,35v53,0,94,-23,124,-68v30,-45,50,-101,58,-168r37,-315v3,-25,21,-90,33,-110v17,-29,48,-67,84,-78r3,5v-19,38,-31,89,-39,154r-46,365v-18,161,-122,305,-306,266v-42,-9,-70,-30,-91,-57","w":524},"\u00a8":{"d":"477,-635v0,43,-31,78,-73,78v-35,0,-61,-21,-61,-53v-1,-45,29,-81,73,-81v36,0,61,22,61,56xm261,-635v0,43,-31,78,-73,78v-35,0,-61,-21,-61,-53v-1,-45,29,-81,73,-81v36,0,61,22,61,56","w":500},"\u00a9":{"d":"393,12v-186,0,-345,-160,-345,-345v0,-186,160,-345,345,-345v186,0,345,160,345,345v0,186,-160,345,-345,345xm393,-632v-160,0,-294,139,-294,299v0,160,134,299,294,299v160,0,294,-139,294,-299v0,-160,-134,-299,-294,-299xm406,-133v-116,2,-218,-80,-216,-196v2,-133,115,-240,269,-208v22,4,62,17,79,22r-17,116r-36,0v-3,-70,-27,-103,-88,-103v-65,0,-103,77,-103,149v0,110,82,187,190,147v29,-10,41,-17,59,-31r11,34v-26,36,-91,69,-148,70","w":762},"\u00aa":{"d":"250,-416v-15,29,-60,73,-104,73v-50,0,-77,-46,-77,-103v0,-110,95,-233,213,-233v34,0,86,14,120,5r2,3v-20,64,-59,187,-59,262v0,9,4,14,13,14v15,-2,32,-15,40,-24r5,34v-29,28,-61,42,-96,42v-44,0,-66,-31,-55,-73r-2,0xm276,-645v-58,2,-107,118,-107,191v0,32,7,48,20,48v15,0,31,-17,50,-48v34,-55,44,-118,59,-187v-7,-3,-15,-4,-22,-4","w":407},"\u00ab":{"d":"217,-252r0,-4v19,-14,93,-84,220,-211r33,10r-132,203r97,204r-33,10v-103,-124,-164,-195,-185,-212xm206,-40v-103,-124,-164,-195,-185,-212r0,-4v19,-14,93,-84,220,-211r33,10r-132,203r97,204","w":490},"\u00ac":{"d":"23,-324r0,-70r453,0r0,283r-74,0r0,-213r-379,0","w":520},"\u00ad":{"d":"49,-215r0,-80r266,0r0,80r-266,0","w":374},"\u00ae":{"d":"425,-531v0,92,-81,173,-173,173v-92,0,-173,-81,-173,-173v0,-92,81,-173,173,-173v92,0,173,81,173,173xm116,-531v0,73,64,141,136,141v70,0,136,-70,136,-141v0,-71,-66,-140,-136,-140v-72,0,-136,68,-136,140xm189,-587v-1,-16,-6,-13,-20,-19r0,-12r73,0v82,-4,98,54,42,85v10,21,24,37,36,56v5,7,12,12,23,13r-1,17r-56,1v-9,-23,-29,-49,-43,-70r-8,0v0,17,1,35,-2,49r25,3r-1,16r-85,2r0,-18v11,-1,17,-6,17,-15r0,-108xm269,-568v0,-19,-13,-31,-34,-30r0,62v25,3,34,-10,34,-32","w":411},"\u00af":{"d":"57,-579r16,-74r258,0r-16,74r-258,0","w":500},"\u00b0":{"d":"325,-559v0,65,-56,120,-122,120v-66,0,-122,-55,-122,-120v0,-65,56,-120,122,-120v66,0,122,55,122,120xm138,-559v0,36,30,67,65,67v35,0,65,-31,65,-67v0,-36,-30,-66,-65,-66v-35,0,-65,30,-65,66","w":300},"\u00b1":{"d":"37,-310r0,-71r173,0r0,-177r75,0r0,177r170,0r0,71r-170,0r0,190r-75,0r0,-190r-173,0xm52,0r0,-71r408,0r0,71r-408,0","w":520},"\u00b2":{"d":"250,-451v46,-3,54,-19,72,-55r31,0r-41,130r-269,0r-5,-27v59,-43,118,-95,168,-144v19,-20,51,-69,51,-108v0,-53,-50,-77,-95,-55v-18,9,-26,15,-37,26r-18,-28v24,-32,87,-75,146,-75v56,-1,111,34,110,89v0,33,-17,67,-49,103v-32,36,-84,84,-155,144r91,0","w":329},"\u00b3":{"d":"330,-507v1,80,-107,141,-194,138v-43,-1,-94,-8,-97,-46v-2,-18,16,-32,35,-31v14,0,28,8,40,24v12,16,23,23,32,23v51,-2,93,-94,56,-145v-15,-20,-40,-21,-68,-16r7,-40v38,-15,68,-25,88,-56v16,-25,11,-73,-27,-70v-25,2,-52,13,-66,24r-15,-29v22,-25,81,-56,131,-56v52,0,95,24,95,73v0,43,-40,81,-119,114v56,6,101,38,102,93","w":309},"\u00b4":{"d":"221,-503r-38,-25r115,-169r114,-11r0,27","w":500},"\u00b5":{"d":"73,28v-3,79,25,206,-53,209v-68,2,-47,-85,-30,-133v6,-18,10,-34,13,-47r80,-354v13,-64,21,-113,23,-147r128,-18v7,38,-63,316,-63,348v0,25,10,38,31,38v58,-1,120,-116,131,-170v19,-98,32,-164,34,-198r128,-18v10,30,-74,366,-73,387v2,47,56,12,70,1r10,-7r4,34v-23,26,-84,59,-136,59v-47,0,-71,-22,-71,-66v0,-17,4,-41,8,-54r-2,0v-37,66,-141,164,-230,97v-1,11,-2,23,-2,39","w":562},"\u00b6":{"d":"72,190v0,-27,22,-47,46,-47v23,0,61,16,81,-1v30,-16,41,-63,49,-100r42,-201v-148,9,-245,-90,-245,-222v0,-75,29,-141,87,-199v58,-58,136,-87,231,-87r235,0v37,0,63,-1,76,-4r-21,61r-70,0r-121,610r-65,0r121,-610r-71,0r-117,590v-9,38,-32,115,-52,149v-30,50,-89,109,-152,108v-36,0,-54,-16,-54,-47","w":636},"\u00b7":{"d":"188,-279v0,51,-35,101,-91,101v-36,0,-55,-22,-55,-55v0,-51,35,-100,89,-100v35,0,57,22,57,54","w":237},"\u00b8":{"d":"198,156v5,-18,-65,-48,-61,-68v6,-33,38,-68,59,-88r37,0v-17,32,-31,47,-9,67v15,13,35,14,46,33v42,70,-47,139,-117,137v-42,-1,-85,-17,-103,-40r27,-37v18,18,41,27,68,27v22,0,53,-11,53,-31","w":500},"\u00b9":{"d":"46,-374r1,-31v39,-3,69,-7,76,-39r49,-233v4,-26,8,-40,-15,-34r-54,13r0,-37v68,-15,150,-38,204,-57r1,2v-36,116,-53,261,-88,379r72,5r-3,28","w":270},"\u00ba":{"d":"272,-679v81,0,131,47,131,122v0,117,-81,211,-201,214v-82,2,-132,-50,-132,-128v0,-51,18,-98,54,-142v36,-44,85,-66,148,-66xm206,-377v27,0,49,-21,68,-65v19,-44,28,-90,28,-137v0,-44,-13,-66,-38,-66v-27,0,-50,21,-68,65v-18,44,-26,89,-26,136v0,45,12,67,36,67","w":381},"\u00bb":{"d":"213,-50r132,-203r-97,-204r33,-10v105,127,166,197,185,212r0,4v-19,14,-93,84,-220,211xm17,-50r132,-203r-97,-204r33,-10v105,127,166,197,185,212r0,4v-19,14,-93,84,-220,211","w":495},"\u00bc":{"d":"564,2r0,-28v26,-3,41,-15,45,-36r9,-44r-160,0r-2,-43r228,-250r105,-14r1,2v-23,70,-40,176,-59,255r61,0r-14,50r-57,0r-17,74r46,5r-2,25xm515,-156r113,0r27,-127r10,-40xm42,-266r1,-31v39,-3,69,-7,76,-39r49,-233v4,-26,8,-40,-15,-34r-54,13r0,-37v68,-15,150,-38,204,-57r1,2v-36,116,-53,261,-88,379r72,5r-3,28xm213,0r-68,0r538,-682r55,15","w":844},"\u00bd":{"d":"40,-266r1,-31v39,-3,69,-7,76,-39r49,-233v4,-26,8,-40,-15,-34r-54,13r0,-37v68,-15,150,-38,204,-57r1,2v-36,116,-53,261,-88,379r72,5r-3,28xm711,-75v46,-3,54,-19,72,-55r31,0r-41,130r-269,0r-5,-27v59,-43,119,-95,169,-144v19,-20,50,-69,50,-108v0,-53,-50,-77,-95,-55v-17,9,-25,16,-37,26r-18,-28v24,-32,87,-75,146,-75v56,-1,111,34,110,89v0,33,-16,67,-48,103v-32,36,-85,84,-156,144r91,0xm211,0r-68,0r538,-682r55,15","w":871},"\u00be":{"d":"569,2r0,-28v26,-3,41,-15,45,-36r9,-44r-160,0r-2,-43r228,-250r105,-14r1,2v-23,70,-40,176,-59,255r61,0r-14,50r-57,0r-17,74r46,5r-2,25xm325,-394v1,80,-107,141,-194,138v-43,-1,-94,-8,-97,-46v-2,-18,16,-32,35,-31v14,0,27,7,39,23v12,16,24,24,33,24v51,-2,93,-94,56,-145v-15,-20,-40,-21,-68,-16r7,-40v38,-15,68,-24,88,-55v16,-25,11,-74,-27,-71v-25,2,-52,13,-66,24r-15,-29v22,-25,81,-56,131,-56v52,0,95,24,95,73v0,43,-40,81,-119,114v56,6,101,38,102,93xm217,0r-68,0r538,-682r55,15xm520,-156r113,0r27,-127r10,-40","w":851},"\u00bf":{"d":"228,-254v34,54,-9,119,-38,149v-26,28,-56,57,-79,87v-51,67,49,118,93,139r35,15r-54,116v-73,-31,-161,-74,-209,-135v-40,-51,-30,-88,13,-138v48,-57,118,-93,168,-146v32,-34,44,-44,35,-82xm174,-368v0,-47,37,-99,90,-99v37,0,56,19,56,57v0,49,-36,98,-89,98v-38,0,-57,-19,-57,-56","w":363},"\u00c0":{"d":"-60,0r0,-34v29,-3,51,-18,66,-45r337,-585r56,-9r97,563v13,54,6,67,51,77r-3,33r-213,4r0,-37v27,-1,46,-13,42,-42r-21,-130r-201,0r-16,10r-84,150r74,12r-3,33r-182,0xm343,-258r-37,-243r-136,243r173,0xm250,-771r0,-29r53,-71r5,0r179,113r-19,41","w":587},"\u00c1":{"d":"-60,0r0,-34v29,-3,51,-18,66,-45r337,-585r56,-9r97,563v13,54,6,67,51,77r-3,33r-213,4r0,-37v27,-1,46,-13,42,-42r-21,-130r-201,0r-16,10r-84,150r74,12r-3,33r-182,0xm343,-258r-37,-243r-136,243r173,0xm313,-717r-16,-42r199,-112r5,0r33,71r0,29","w":587},"\u00c2":{"d":"-60,0r0,-34v29,-3,51,-18,66,-45r337,-585r56,-9r97,563v13,54,6,67,51,77r-3,33r-213,4r0,-37v27,-1,46,-13,42,-42r-21,-130r-201,0r-16,10r-84,150r74,12r-3,33r-182,0xm343,-258r-37,-243r-136,243r173,0xm250,-717r-31,-32r159,-122r73,0r107,127r-37,27r-117,-74r-10,0","w":587},"\u00c3":{"d":"-60,0r0,-34v29,-3,51,-18,66,-45r337,-585r56,-9r97,563v13,54,6,67,51,77r-3,33r-213,4r0,-37v27,-1,46,-13,42,-42r-21,-130r-201,0r-16,10r-84,150r74,12r-3,33r-182,0xm343,-258r-37,-243r-136,243r173,0xm378,-758v-59,-42,-95,-35,-124,27r-44,-9v18,-58,57,-112,132,-118v37,-3,109,54,142,54v27,0,48,-21,61,-54r45,5v-18,62,-57,121,-137,122v-23,0,-49,-8,-75,-27","w":587},"\u00c4":{"d":"-60,0r0,-34v29,-3,51,-18,66,-45r337,-585r56,-9r97,563v13,54,6,67,51,77r-3,33r-213,4r0,-37v27,-1,46,-13,42,-42r-21,-130r-201,0r-16,10r-84,150r74,12r-3,33r-182,0xm343,-258r-37,-243r-136,243r173,0xm587,-805v0,43,-31,78,-73,78v-35,0,-61,-21,-61,-53v-1,-45,29,-81,73,-81v36,0,61,22,61,56xm345,-805v0,43,-31,78,-73,78v-35,0,-61,-21,-61,-53v-1,-45,29,-81,73,-81v36,0,61,22,61,56","w":587},"\u00c5":{"d":"-60,0r0,-34v29,-3,51,-18,66,-45r337,-585r56,-9r97,563v13,54,6,67,51,77r-3,33r-213,4r0,-37v27,-1,46,-13,42,-42r-21,-130r-201,0r-16,10r-84,150r74,12r-3,33r-182,0xm502,-801v0,55,-51,93,-113,93v-55,0,-92,-23,-92,-71v0,-54,49,-92,113,-92v55,0,92,24,92,70xm343,-258r-37,-243r-136,243r173,0xm408,-831v-33,0,-53,23,-54,51v0,21,12,32,37,32v25,0,56,-21,55,-49v-1,-20,-15,-34,-38,-34","w":587},"\u00c6":{"d":"225,-293r-176,248r75,11r-4,34r-188,0r0,-34v29,-3,54,-18,75,-47r352,-489v15,-21,19,-36,13,-45v-6,-9,-26,-16,-58,-22r0,-30r484,0r74,-4r-48,177r-39,0v19,-89,-2,-123,-82,-123r-101,0r-15,12r-49,251r159,0r20,-74r42,0r-38,189r-50,0r13,-65r-144,0r-15,12r-36,184r-16,58v73,-3,173,11,214,-22v18,-14,43,-47,75,-98r39,0r-61,170r-295,0r-163,3r0,-37v43,-7,67,-27,74,-61r41,-209r-153,0xm416,-562r-148,208r139,0r50,-252v-15,11,-28,26,-41,44","w":852},"\u00c7":{"d":"284,156v5,-18,-67,-48,-61,-68v0,-20,17,-47,50,-80v-138,-17,-231,-137,-231,-286v0,-158,93,-279,206,-343v103,-57,195,-69,336,-47v50,8,78,10,83,11r-44,163r-39,0v7,-91,-33,-136,-124,-136v-123,0,-216,81,-256,168v-22,48,-34,98,-34,151v0,174,137,271,310,226v41,-10,59,-20,87,-34r13,27v-57,58,-148,109,-268,103v-12,26,-21,40,-2,56v15,13,35,14,46,33v42,70,-47,139,-117,137v-42,-1,-85,-17,-103,-40r27,-37v18,18,41,27,68,27v22,0,53,-11,53,-31","w":641},"\u00c8":{"d":"4,3r0,-37v43,-7,67,-27,74,-61r92,-463v18,-63,6,-65,-56,-79r0,-30r406,0r74,-4r-48,177r-39,0v19,-89,-2,-123,-82,-123r-101,0r-15,12r-47,241r159,0r18,-64r42,0r-38,189r-50,0r15,-75r-144,0r-15,12r-38,194r-16,58v73,-3,173,11,214,-22v18,-14,43,-47,75,-98r39,0r-61,170r-295,0xm246,-771r0,-29r53,-71r5,0r179,113r-19,41","w":574},"\u00c9":{"d":"4,3r0,-37v43,-7,67,-27,74,-61r92,-463v18,-63,6,-65,-56,-79r0,-30r406,0r74,-4r-48,177r-39,0v19,-89,-2,-123,-82,-123r-101,0r-15,12r-47,241r159,0r18,-64r42,0r-38,189r-50,0r15,-75r-144,0r-15,12r-38,194r-16,58v73,-3,173,11,214,-22v18,-14,43,-47,75,-98r39,0r-61,170r-295,0xm309,-717r-16,-42r199,-112r5,0r33,71r0,29","w":574},"\u00ca":{"d":"4,3r0,-37v43,-7,67,-27,74,-61r92,-463v18,-63,6,-65,-56,-79r0,-30r406,0r74,-4r-48,177r-39,0v19,-89,-2,-123,-82,-123r-101,0r-15,12r-47,241r159,0r18,-64r42,0r-38,189r-50,0r15,-75r-144,0r-15,12r-38,194r-16,58v73,-3,173,11,214,-22v18,-14,43,-47,75,-98r39,0r-61,170r-295,0xm246,-717r-31,-32r159,-122r73,0r107,127r-37,27r-117,-74r-10,0","w":574},"\u00cb":{"d":"4,3r0,-37v43,-7,67,-27,74,-61r92,-463v18,-63,6,-65,-56,-79r0,-30r406,0r74,-4r-48,177r-39,0v19,-89,-2,-123,-82,-123r-101,0r-15,12r-47,241r159,0r18,-64r42,0r-38,189r-50,0r15,-75r-144,0r-15,12r-38,194r-16,58v73,-3,173,11,214,-22v18,-14,43,-47,75,-98r39,0r-61,170r-295,0xm583,-805v0,43,-31,78,-73,78v-35,0,-61,-21,-61,-53v-1,-45,29,-81,73,-81v36,0,61,22,61,56xm341,-805v0,43,-31,78,-73,78v-35,0,-61,-21,-61,-53v-1,-45,29,-81,73,-81v36,0,61,22,61,56","w":574},"\u00cc":{"d":"4,3r0,-37v43,-7,67,-27,74,-61r94,-472v13,-58,1,-55,-50,-70r0,-30r74,0r153,-4r4,4v-26,25,-44,66,-55,121r-88,442r-16,59r79,9r-4,33xm123,-771r0,-29r53,-71r5,0r179,113r-19,41","w":351},"\u00cd":{"d":"4,3r0,-37v43,-7,67,-27,74,-61r94,-472v13,-58,1,-55,-50,-70r0,-30r74,0r153,-4r4,4v-26,25,-44,66,-55,121r-88,442r-16,59r79,9r-4,33xm186,-717r-16,-42r199,-112r5,0r33,71r0,29","w":351},"\u00ce":{"d":"4,3r0,-37v43,-7,67,-27,74,-61r94,-472v13,-58,1,-55,-50,-70r0,-30r74,0r153,-4r4,4v-26,25,-44,66,-55,121r-88,442r-16,59r79,9r-4,33xm123,-717r-31,-32r159,-122r73,0r107,127r-37,27r-117,-74r-10,0","w":351},"\u00cf":{"d":"435,-805v0,43,-31,78,-73,78v-35,0,-61,-21,-61,-53v-1,-45,29,-81,73,-81v36,0,61,22,61,56xm243,-805v0,43,-31,78,-73,78v-35,0,-61,-21,-61,-53v-1,-45,29,-81,73,-81v36,0,61,22,61,56xm4,3r0,-37v43,-7,67,-27,74,-61r94,-472v13,-58,1,-55,-50,-70r0,-30r74,0r153,-4r4,4v-26,25,-44,66,-55,121r-88,442r-16,59r79,9r-4,33","w":351},"\u00d0":{"d":"705,-388v0,237,-210,394,-461,388r-98,0r-141,3r0,-37v34,-5,67,-25,73,-57r44,-221r-80,0r10,-55r81,0r38,-191v18,-63,6,-65,-56,-79r0,-30v128,3,270,-10,377,15v123,30,213,109,213,264xm566,-383v2,-156,-79,-246,-243,-234r-13,12r-47,238r137,0r-10,55r-138,0r-40,204r-16,58v76,2,141,-3,195,-28v111,-50,173,-153,175,-305","w":725},"\u00d1":{"d":"4,3r0,-37v43,-5,68,-26,75,-62r88,-445v15,-69,9,-85,-53,-96r0,-30r166,-4v3,15,11,33,24,52r250,385r26,47r74,-372v16,-56,-3,-67,-57,-75r0,-33r190,0r2,14v-41,15,-70,53,-81,102r-111,556r-41,0r-311,-480v-7,-11,-16,-26,-27,-46r-84,425r-15,54r84,6r-3,33xm458,-758v-59,-42,-95,-35,-124,27r-44,-9v18,-58,57,-112,132,-118v37,-3,109,54,142,54v27,0,48,-21,61,-54r45,5v-18,62,-57,121,-137,122v-23,0,-49,-8,-75,-27","w":747},"\u00d2":{"d":"343,12v-176,0,-300,-123,-298,-295v1,-110,46,-204,103,-269v60,-71,165,-127,291,-127v178,0,301,114,299,287v-2,157,-83,280,-190,346v-62,38,-130,58,-205,58xm214,-443v-60,153,-33,407,136,407v106,0,177,-93,214,-182v65,-156,43,-413,-133,-413v-109,0,-182,99,-217,188xm335,-771r0,-29r53,-71r5,0r179,113r-19,41","w":758},"\u00d3":{"d":"343,12v-176,0,-300,-123,-298,-295v1,-110,46,-204,103,-269v60,-71,165,-127,291,-127v178,0,301,114,299,287v-2,157,-83,280,-190,346v-62,38,-130,58,-205,58xm214,-443v-60,153,-33,407,136,407v106,0,177,-93,214,-182v65,-156,43,-413,-133,-413v-109,0,-182,99,-217,188xm398,-717r-16,-42r199,-112r5,0r33,71r0,29","w":758},"\u00d4":{"d":"343,12v-176,0,-300,-123,-298,-295v1,-110,46,-204,103,-269v60,-71,165,-127,291,-127v178,0,301,114,299,287v-2,157,-83,280,-190,346v-62,38,-130,58,-205,58xm214,-443v-60,153,-33,407,136,407v106,0,177,-93,214,-182v65,-156,43,-413,-133,-413v-109,0,-182,99,-217,188xm335,-717r-31,-32r159,-122r73,0r107,127r-37,27r-117,-74r-10,0","w":758},"\u00d5":{"d":"343,12v-176,0,-300,-123,-298,-295v1,-110,46,-204,103,-269v60,-71,165,-127,291,-127v178,0,301,114,299,287v-2,157,-83,280,-190,346v-62,38,-130,58,-205,58xm214,-443v-60,153,-33,407,136,407v106,0,177,-93,214,-182v65,-156,43,-413,-133,-413v-109,0,-182,99,-217,188xm462,-758v-59,-42,-94,-35,-123,27r-44,-9v18,-58,57,-112,132,-118v37,-3,109,54,142,54v27,0,48,-21,61,-54r45,5v-18,62,-57,121,-137,122v-23,0,-50,-8,-76,-27","w":758},"\u00d6":{"d":"343,12v-176,0,-300,-123,-298,-295v1,-110,46,-204,103,-269v60,-71,165,-127,291,-127v178,0,301,114,299,287v-2,157,-83,280,-190,346v-62,38,-130,58,-205,58xm214,-443v-60,153,-33,407,136,407v106,0,177,-93,214,-182v65,-156,43,-413,-133,-413v-109,0,-182,99,-217,188xm672,-805v0,43,-31,78,-73,78v-35,0,-61,-21,-61,-53v-1,-45,29,-81,73,-81v36,0,61,22,61,56xm430,-805v0,43,-31,78,-73,78v-35,0,-61,-21,-61,-53v-1,-45,29,-81,73,-81v36,0,61,22,61,56","w":758},"\u00d7":{"d":"26,-434r51,-49r178,178r179,-180r49,51r-178,179r184,182r-51,50r-183,-182r-182,183r-50,-51r182,-182","w":520},"\u00d8":{"d":"146,-52v-101,-77,-127,-235,-74,-373v55,-142,174,-254,367,-254v59,0,112,12,158,36r41,-54r62,0r-61,81v117,83,124,282,50,419v-60,111,-184,209,-346,209v-57,0,-109,-12,-155,-36r-41,54r-63,0xm214,-443v-37,95,-42,217,-3,306r334,-438v-58,-78,-174,-70,-243,-2v-38,37,-68,81,-88,134xm564,-218v40,-93,48,-219,8,-311r-333,439v59,74,162,68,233,4v38,-34,69,-77,92,-132","w":758},"\u00d9":{"d":"318,12v-146,2,-239,-69,-240,-207v0,-25,2,-47,6,-66r61,-306v11,-59,-1,-55,-50,-70r0,-30r74,0r153,-4r4,4v-26,27,-44,67,-55,121r-60,303v-5,23,-7,44,-7,63v-2,84,50,136,129,136v49,0,97,-18,141,-54v44,-36,73,-88,87,-158r60,-302v10,-48,-9,-73,-56,-76r0,-33r187,0r3,19v-33,12,-70,55,-77,97r-62,311v-24,142,-143,251,-298,252xm327,-771r0,-29r53,-71r5,0r179,113r-19,41","w":707},"\u00da":{"d":"318,12v-146,2,-239,-69,-240,-207v0,-25,2,-47,6,-66r61,-306v11,-59,-1,-55,-50,-70r0,-30r74,0r153,-4r4,4v-26,27,-44,67,-55,121r-60,303v-5,23,-7,44,-7,63v-2,84,50,136,129,136v49,0,97,-18,141,-54v44,-36,73,-88,87,-158r60,-302v10,-48,-9,-73,-56,-76r0,-33r187,0r3,19v-33,12,-70,55,-77,97r-62,311v-24,142,-143,251,-298,252xm390,-717r-16,-42r199,-112r5,0r33,71r0,29","w":707},"\u00db":{"d":"318,12v-146,2,-239,-69,-240,-207v0,-25,2,-47,6,-66r61,-306v11,-59,-1,-55,-50,-70r0,-30r74,0r153,-4r4,4v-26,27,-44,67,-55,121r-60,303v-5,23,-7,44,-7,63v-2,84,50,136,129,136v49,0,97,-18,141,-54v44,-36,73,-88,87,-158r60,-302v10,-48,-9,-73,-56,-76r0,-33r187,0r3,19v-33,12,-70,55,-77,97r-62,311v-24,142,-143,251,-298,252xm327,-717r-31,-32r159,-122r73,0r107,127r-37,27r-117,-74r-10,0","w":707},"\u00dc":{"d":"318,12v-146,2,-239,-69,-240,-207v0,-25,2,-47,6,-66r61,-306v11,-59,-1,-55,-50,-70r0,-30r74,0r153,-4r4,4v-26,27,-44,67,-55,121r-60,303v-5,23,-7,44,-7,63v-2,84,50,136,129,136v49,0,97,-18,141,-54v44,-36,73,-88,87,-158r60,-302v10,-48,-9,-73,-56,-76r0,-33r187,0r3,19v-33,12,-70,55,-77,97r-62,311v-24,142,-143,251,-298,252xm664,-805v0,43,-31,78,-73,78v-35,0,-61,-21,-61,-53v-1,-45,29,-81,73,-81v36,0,61,22,61,56xm422,-805v0,43,-31,78,-73,78v-35,0,-61,-21,-61,-53v-1,-45,29,-81,73,-81v36,0,61,22,61,56","w":707},"\u00dd":{"d":"103,3r0,-37v43,-7,67,-27,74,-61r42,-210r-113,-288v-8,-21,-23,-38,-43,-44r0,-30r47,0r131,-4v5,4,0,8,-1,15v-2,12,-7,50,2,61r63,177v3,7,8,27,17,59r164,-221v23,-27,14,-53,-25,-57r0,-30r168,0r4,14v-24,7,-48,28,-73,62r-211,285r-40,202r-16,59r79,9r-4,33xm296,-717r-16,-42r199,-112r5,0r33,71r0,29","w":549},"\u00de":{"d":"427,-351v1,-78,-54,-117,-133,-115r-14,12r-70,350r-16,59r79,9r-4,33r-265,6r0,-37v43,-7,67,-27,74,-61r94,-472v13,-58,1,-55,-50,-70r0,-30r74,0r153,-4r4,4v-32,28,-51,89,-61,151v138,-7,274,29,274,151v0,65,-29,117,-88,155v-59,38,-125,56,-196,55r0,-36v86,-12,144,-69,145,-160","w":567},"\u00df":{"d":"408,-533v38,-70,3,-182,-89,-151v-19,5,-34,23,-43,37v-36,54,-40,149,-51,228v-10,69,-19,128,-27,175v-15,87,-41,213,-71,282v-42,94,-95,187,-215,199r-7,-24v68,-33,99,-129,122,-208v35,-119,50,-261,69,-397r-61,0r3,-42r70,-23v18,-84,48,-152,90,-203v42,-51,99,-76,168,-76v87,-1,162,41,162,123v0,116,-151,128,-151,249v0,59,57,83,89,118v23,25,48,64,48,111v0,91,-96,148,-184,147v-79,0,-118,-19,-118,-57v-1,-23,19,-43,42,-43v43,0,50,56,89,58v31,1,58,-23,56,-55v-6,-84,-90,-97,-117,-165v-16,-39,-18,-88,3,-126v33,-61,90,-96,123,-157","w":549},"\u00e0":{"d":"308,-467v45,0,126,20,169,9r2,3v-30,72,-54,215,-76,306v-10,42,-14,67,-14,75v0,15,7,23,21,23v17,0,36,-9,56,-28r3,36v-39,37,-82,55,-130,55v-48,0,-78,-22,-72,-65r7,-54v-6,2,-6,9,-10,13v-31,45,-76,106,-150,106v-71,0,-109,-65,-107,-145v3,-122,60,-221,141,-280v48,-35,101,-54,160,-54xm175,-73v50,0,92,-86,108,-129v25,-68,37,-135,55,-208v-43,-27,-77,-13,-113,26v-45,47,-88,146,-88,235v0,51,13,76,38,76xm303,-505r-115,-176r0,-27r110,11r47,171"},"\u00e1":{"d":"308,-467v45,0,126,20,169,9r2,3v-30,72,-54,215,-76,306v-10,42,-14,67,-14,75v0,15,7,23,21,23v17,0,36,-9,56,-28r3,36v-39,37,-82,55,-130,55v-48,0,-78,-22,-72,-65r7,-54v-6,2,-6,9,-10,13v-31,45,-76,106,-150,106v-71,0,-109,-65,-107,-145v3,-122,60,-221,141,-280v48,-35,101,-54,160,-54xm175,-73v50,0,92,-86,108,-129v25,-68,37,-135,55,-208v-43,-27,-77,-13,-113,26v-45,47,-88,146,-88,235v0,51,13,76,38,76xm276,-503r-38,-25r115,-169r114,-11r0,27"},"\u00e2":{"d":"308,-467v45,0,126,20,169,9r2,3v-30,72,-54,215,-76,306v-10,42,-14,67,-14,75v0,15,7,23,21,23v17,0,36,-9,56,-28r3,36v-39,37,-82,55,-130,55v-48,0,-78,-22,-72,-65r7,-54v-6,2,-6,9,-10,13v-31,45,-76,106,-150,106v-71,0,-109,-65,-107,-145v3,-122,60,-221,141,-280v48,-35,101,-54,160,-54xm175,-73v50,0,92,-86,108,-129v25,-68,37,-135,55,-208v-43,-27,-77,-13,-113,26v-45,47,-88,146,-88,235v0,51,13,76,38,76xm184,-503r-38,-25r157,-177r53,0r72,177r-38,25r-80,-111"},"\u00e3":{"d":"308,-467v45,0,126,20,169,9r2,3v-30,72,-54,215,-76,306v-10,42,-14,67,-14,75v0,15,7,23,21,23v17,0,36,-9,56,-28r3,36v-39,37,-82,55,-130,55v-48,0,-78,-22,-72,-65r7,-54v-6,2,-6,9,-10,13v-31,45,-76,106,-150,106v-71,0,-109,-65,-107,-145v3,-122,60,-221,141,-280v48,-35,101,-54,160,-54xm175,-73v50,0,92,-86,108,-129v25,-68,37,-135,55,-208v-43,-27,-77,-13,-113,26v-45,47,-88,146,-88,235v0,51,13,76,38,76xm242,-622v-18,-1,-35,24,-49,62r-44,-9v14,-56,33,-131,99,-131v20,0,44,12,71,37v56,52,87,53,113,-25r45,5v-12,59,-33,132,-101,135v-58,3,-83,-68,-134,-74"},"\u00e4":{"d":"308,-467v45,0,126,20,169,9r2,3v-30,72,-54,215,-76,306v-10,42,-14,67,-14,75v0,15,7,23,21,23v17,0,36,-9,56,-28r3,36v-39,37,-82,55,-130,55v-48,0,-78,-22,-72,-65r7,-54v-6,2,-6,9,-10,13v-31,45,-76,106,-150,106v-71,0,-109,-65,-107,-145v3,-122,60,-221,141,-280v48,-35,101,-54,160,-54xm175,-73v50,0,92,-86,108,-129v25,-68,37,-135,55,-208v-43,-27,-77,-13,-113,26v-45,47,-88,146,-88,235v0,51,13,76,38,76xm488,-635v0,43,-31,78,-73,78v-35,0,-61,-21,-61,-53v-1,-45,29,-81,73,-81v36,0,61,22,61,56xm272,-635v0,43,-31,78,-73,78v-35,0,-61,-21,-61,-53v-1,-45,29,-81,73,-81v36,0,61,22,61,56"},"\u00e5":{"d":"308,-467v45,0,126,20,169,9r2,3v-30,72,-54,215,-76,306v-10,42,-14,67,-14,75v0,15,7,23,21,23v17,0,36,-9,56,-28r3,36v-39,37,-82,55,-130,55v-48,0,-78,-22,-72,-65r7,-54v-6,2,-6,9,-10,13v-31,45,-76,106,-150,106v-71,0,-109,-65,-107,-145v3,-122,60,-221,141,-280v48,-35,101,-54,160,-54xm175,-73v50,0,92,-86,108,-129v25,-68,37,-135,55,-208v-43,-27,-77,-13,-113,26v-45,47,-88,146,-88,235v0,51,13,76,38,76xm416,-637v0,53,-53,102,-115,102v-54,0,-90,-32,-90,-79v0,-53,52,-100,115,-100v54,0,90,30,90,77xm323,-671v-33,0,-55,27,-55,58v0,23,12,35,36,35v29,0,58,-28,57,-57v0,-24,-13,-36,-38,-36"},"\u00e6":{"d":"98,12v-61,0,-120,-30,-117,-92v4,-97,98,-127,179,-152v32,-9,66,-15,103,-20v15,-65,22,-109,22,-133v0,-47,-50,-49,-77,-26v-30,26,-39,77,-88,81v-24,2,-46,-21,-45,-45v3,-47,74,-73,121,-83v72,-16,166,-17,184,43v45,-35,94,-52,147,-52v60,0,120,23,119,83v0,49,-45,87,-80,106v-52,26,-128,49,-192,59v-1,6,-1,15,-1,26v0,84,34,126,102,126v50,0,99,-24,124,-48r3,32v-36,51,-100,95,-188,95v-77,0,-128,-42,-152,-125v-27,59,-77,125,-164,125xm100,-109v0,25,16,42,41,42v52,-1,95,-60,104,-110r7,-33v-45,7,-82,19,-110,36v-28,17,-42,39,-42,65xm380,-262v99,-20,148,-59,148,-118v0,-29,-11,-44,-32,-44v-23,0,-46,16,-68,48v-22,32,-39,69,-48,114","w":659},"\u00e7":{"d":"151,156v5,-18,-67,-48,-61,-68v0,-20,17,-47,50,-80v-78,-13,-131,-87,-130,-176v1,-108,59,-201,132,-252v44,-31,90,-47,142,-47v55,0,133,16,133,68v0,38,-48,61,-79,35v-25,-21,-31,-62,-73,-62v-33,0,-63,24,-90,72v-27,48,-40,97,-40,150v0,75,34,141,110,139v37,-1,73,-16,110,-46r4,35v-36,47,-95,88,-180,88v-13,26,-22,39,-3,55v15,13,37,14,48,33v42,70,-48,137,-118,137v-43,0,-84,-18,-103,-40r27,-37v18,18,41,27,68,27v22,0,53,-11,53,-31","w":413},"\u00e8":{"d":"173,12v-106,3,-164,-71,-164,-171v0,-112,61,-208,135,-261v43,-31,90,-47,141,-47v60,1,116,24,114,86v-2,98,-111,136,-185,162v-22,7,-45,13,-68,18r-12,13v1,81,34,121,100,121v48,0,97,-25,121,-48r3,32v-35,50,-98,93,-185,95xm137,-237v78,-19,145,-50,144,-144v0,-29,-10,-43,-29,-43v-25,0,-48,19,-71,56v-23,37,-37,81,-44,131xm275,-505r-115,-176r0,-27r110,11r47,171","w":414},"\u00e9":{"d":"173,12v-106,3,-164,-71,-164,-171v0,-112,61,-208,135,-261v43,-31,90,-47,141,-47v60,1,116,24,114,86v-2,98,-111,136,-185,162v-22,7,-45,13,-68,18r-12,13v1,81,34,121,100,121v48,0,97,-25,121,-48r3,32v-35,50,-98,93,-185,95xm137,-237v78,-19,145,-50,144,-144v0,-29,-10,-43,-29,-43v-25,0,-48,19,-71,56v-23,37,-37,81,-44,131xm248,-503r-38,-25r115,-169r114,-11r0,27","w":414},"\u00ea":{"d":"173,12v-106,3,-164,-71,-164,-171v0,-112,61,-208,135,-261v43,-31,90,-47,141,-47v60,1,116,24,114,86v-2,98,-111,136,-185,162v-22,7,-45,13,-68,18r-12,13v1,81,34,121,100,121v48,0,97,-25,121,-48r3,32v-35,50,-98,93,-185,95xm137,-237v78,-19,145,-50,144,-144v0,-29,-10,-43,-29,-43v-25,0,-48,19,-71,56v-23,37,-37,81,-44,131xm156,-503r-38,-25r157,-177r53,0r72,177r-38,25r-80,-111","w":414},"\u00eb":{"d":"173,12v-106,3,-164,-71,-164,-171v0,-112,61,-208,135,-261v43,-31,90,-47,141,-47v60,1,116,24,114,86v-2,98,-111,136,-185,162v-22,7,-45,13,-68,18r-12,13v1,81,34,121,100,121v48,0,97,-25,121,-48r3,32v-35,50,-98,93,-185,95xm137,-237v78,-19,145,-50,144,-144v0,-29,-10,-43,-29,-43v-25,0,-48,19,-71,56v-23,37,-37,81,-44,131xm460,-635v0,43,-31,78,-73,78v-35,0,-61,-21,-61,-53v-1,-45,29,-81,73,-81v36,0,61,22,61,56xm244,-635v0,43,-31,78,-73,78v-35,0,-61,-21,-61,-53v-1,-45,29,-81,73,-81v36,0,61,22,61,56","w":414},"\u00ec":{"d":"106,12v-45,0,-75,-22,-75,-65v-6,-14,69,-307,64,-318v2,-32,-28,-29,-57,-28r0,-32v59,-5,155,-27,193,-48r3,3v9,22,-76,388,-75,401v2,47,56,12,70,1r10,-7r4,34v-24,26,-84,59,-137,59xm190,-505r-115,-176r0,-27r110,11r47,171","w":283},"\u00ed":{"d":"106,12v-45,0,-75,-22,-75,-65v-6,-14,69,-307,64,-318v2,-32,-28,-29,-57,-28r0,-32v59,-5,155,-27,193,-48r3,3v9,22,-76,388,-75,401v2,47,56,12,70,1r10,-7r4,34v-24,26,-84,59,-137,59xm163,-503r-38,-25r115,-169r114,-11r0,27","w":283},"\u00ee":{"d":"106,12v-45,0,-75,-22,-75,-65v-6,-14,69,-307,64,-318v2,-32,-28,-29,-57,-28r0,-32v59,-5,155,-27,193,-48r3,3v9,22,-76,388,-75,401v2,47,56,12,70,1r10,-7r4,34v-24,26,-84,59,-137,59xm71,-503r-38,-25r157,-177r53,0r72,177r-38,25r-80,-111","w":283},"\u00ef":{"d":"360,-635v0,43,-31,78,-73,78v-35,0,-61,-21,-61,-53v-1,-45,29,-81,73,-81v36,0,61,22,61,56xm174,-635v0,43,-31,78,-73,78v-35,0,-61,-21,-61,-53v-1,-45,29,-81,73,-81v36,0,61,22,61,56xm106,12v-45,0,-75,-22,-75,-65v-6,-14,69,-307,64,-318v2,-32,-28,-29,-57,-28r0,-32v59,-5,155,-27,193,-48r3,3v9,22,-76,388,-75,401v2,47,56,12,70,1r10,-7r4,34v-24,26,-84,59,-137,59","w":283},"\u00f0":{"d":"178,12v-107,0,-172,-65,-172,-167v0,-112,69,-212,146,-264v61,-41,130,-61,203,-38v-7,-46,-21,-87,-40,-122r-140,74r-22,-47r133,-70v-30,-37,-69,-66,-117,-85r19,-36v71,15,130,41,177,80r150,-79r20,47r-130,69v58,67,87,149,87,245v0,193,-131,393,-314,393xm359,-325v0,-56,-5,-98,-56,-98v-43,0,-81,28,-115,85v-34,57,-52,123,-52,198v0,74,20,111,59,111v33,0,66,-27,101,-81v35,-54,63,-125,63,-215"},"\u00f1":{"d":"302,-53v-2,-25,59,-264,54,-288v0,-25,-10,-38,-31,-38v-63,-2,-125,116,-136,170v-13,64,-33,151,-35,207r-127,9v-9,-22,74,-366,72,-378v2,-34,-29,-28,-59,-28r0,-32v94,-13,158,-29,193,-48r3,3v0,31,-8,76,-23,134r2,0v38,-57,99,-123,181,-125v59,-1,88,35,89,90v6,23,-57,284,-55,302v4,48,60,10,75,-2r4,34v-22,24,-83,55,-132,55v-45,0,-72,-22,-75,-65xm274,-622v-18,-1,-35,24,-49,62r-44,-9v14,-56,33,-131,99,-131v20,0,44,12,71,37v56,52,87,53,113,-25r45,5v-12,59,-33,132,-101,135v-58,3,-83,-68,-134,-74","w":546},"\u00f2":{"d":"194,12v-114,0,-183,-71,-183,-180v0,-79,31,-146,69,-197v41,-56,119,-102,214,-102v115,0,183,66,183,174v0,79,-32,147,-70,199v-41,57,-118,106,-213,106xm141,-127v0,65,19,98,57,98v28,0,54,-17,77,-49v42,-56,70,-149,71,-240v0,-72,-20,-108,-59,-108v-30,0,-56,17,-79,50v-43,59,-66,154,-67,249xm319,-505r-115,-176r0,-27r110,11r47,171","w":504},"\u00f3":{"d":"194,12v-114,0,-183,-71,-183,-180v0,-79,31,-146,69,-197v41,-56,119,-102,214,-102v115,0,183,66,183,174v0,79,-32,147,-70,199v-41,57,-118,106,-213,106xm141,-127v0,65,19,98,57,98v28,0,54,-17,77,-49v42,-56,70,-149,71,-240v0,-72,-20,-108,-59,-108v-30,0,-56,17,-79,50v-43,59,-66,154,-67,249xm292,-503r-38,-25r115,-169r114,-11r0,27","w":504},"\u00f4":{"d":"194,12v-114,0,-183,-71,-183,-180v0,-79,31,-146,69,-197v41,-56,119,-102,214,-102v115,0,183,66,183,174v0,79,-32,147,-70,199v-41,57,-118,106,-213,106xm141,-127v0,65,19,98,57,98v28,0,54,-17,77,-49v42,-56,70,-149,71,-240v0,-72,-20,-108,-59,-108v-30,0,-56,17,-79,50v-43,59,-66,154,-67,249xm200,-503r-38,-25r157,-177r53,0r72,177r-38,25r-80,-111","w":504},"\u00f5":{"d":"194,12v-114,0,-183,-71,-183,-180v0,-79,31,-146,69,-197v41,-56,119,-102,214,-102v115,0,183,66,183,174v0,79,-32,147,-70,199v-41,57,-118,106,-213,106xm141,-127v0,65,19,98,57,98v28,0,54,-17,77,-49v42,-56,70,-149,71,-240v0,-72,-20,-108,-59,-108v-30,0,-56,17,-79,50v-43,59,-66,154,-67,249xm258,-622v-18,-1,-35,24,-49,62r-44,-9v14,-56,33,-131,99,-131v20,0,44,12,71,37v56,52,87,53,113,-25r45,5v-12,59,-33,132,-101,135v-58,3,-83,-68,-134,-74","w":504},"\u00f6":{"d":"194,12v-114,0,-183,-71,-183,-180v0,-79,31,-146,69,-197v41,-56,119,-102,214,-102v115,0,183,66,183,174v0,79,-32,147,-70,199v-41,57,-118,106,-213,106xm141,-127v0,65,19,98,57,98v28,0,54,-17,77,-49v42,-56,70,-149,71,-240v0,-72,-20,-108,-59,-108v-30,0,-56,17,-79,50v-43,59,-66,154,-67,249xm504,-635v0,43,-31,78,-73,78v-35,0,-61,-21,-61,-53v-1,-45,29,-81,73,-81v36,0,61,22,61,56xm288,-635v0,43,-31,78,-73,78v-35,0,-61,-21,-61,-53v-1,-45,29,-81,73,-81v36,0,61,22,61,56","w":504},"\u00f7":{"d":"327,-440v0,38,-32,70,-70,70v-37,0,-69,-33,-69,-70v0,-37,32,-70,69,-70v38,0,70,32,70,70xm33,-218r0,-71r448,0r0,71r-448,0xm257,3v-37,0,-69,-32,-69,-69v0,-37,32,-71,69,-71v38,0,70,33,70,71v0,38,-32,69,-70,69","w":520},"\u00f8":{"d":"68,-29v-62,-48,-70,-153,-39,-240v38,-107,122,-196,265,-198v33,0,62,5,89,16r24,-34r58,0r-44,57v61,48,69,149,38,236v-38,108,-122,202,-265,204v-33,0,-62,-6,-88,-17r-24,35r-59,0xm207,-376v-44,60,-66,154,-66,251r196,-263v-9,-25,-26,-38,-50,-38v-30,0,-57,16,-80,50xm198,-29v28,0,54,-17,77,-49v43,-59,72,-153,71,-249r-196,263v8,23,24,35,48,35","w":504},"\u00f9":{"d":"127,12v-59,1,-88,-35,-89,-90v-7,-27,54,-274,54,-293v0,-32,-25,-28,-54,-28r0,-33v93,-13,156,-29,188,-47r3,3v8,51,-63,323,-62,362v0,25,10,38,31,38v58,-1,120,-116,131,-170v19,-98,32,-164,34,-198r128,-18v10,30,-75,366,-73,387v4,48,60,10,75,-2r4,34v-22,24,-83,55,-132,55v-47,0,-70,-22,-70,-65v0,-17,3,-35,8,-55r-2,0v-36,55,-96,117,-174,120xm321,-505r-115,-176r0,-27r110,11r47,171","w":541},"\u00fa":{"d":"127,12v-59,1,-88,-35,-89,-90v-7,-27,54,-274,54,-293v0,-32,-25,-28,-54,-28r0,-33v93,-13,156,-29,188,-47r3,3v8,51,-63,323,-62,362v0,25,10,38,31,38v58,-1,120,-116,131,-170v19,-98,32,-164,34,-198r128,-18v10,30,-75,366,-73,387v4,48,60,10,75,-2r4,34v-22,24,-83,55,-132,55v-47,0,-70,-22,-70,-65v0,-17,3,-35,8,-55r-2,0v-36,55,-96,117,-174,120xm294,-503r-38,-25r115,-169r114,-11r0,27","w":541},"\u00fb":{"d":"127,12v-59,1,-88,-35,-89,-90v-7,-27,54,-274,54,-293v0,-32,-25,-28,-54,-28r0,-33v93,-13,156,-29,188,-47r3,3v8,51,-63,323,-62,362v0,25,10,38,31,38v58,-1,120,-116,131,-170v19,-98,32,-164,34,-198r128,-18v10,30,-75,366,-73,387v4,48,60,10,75,-2r4,34v-22,24,-83,55,-132,55v-47,0,-70,-22,-70,-65v0,-17,3,-35,8,-55r-2,0v-36,55,-96,117,-174,120xm202,-503r-38,-25r157,-177r53,0r72,177r-38,25r-80,-111","w":541},"\u00fc":{"d":"127,12v-59,1,-88,-35,-89,-90v-7,-27,54,-274,54,-293v0,-32,-25,-28,-54,-28r0,-33v93,-13,156,-29,188,-47r3,3v8,51,-63,323,-62,362v0,25,10,38,31,38v58,-1,120,-116,131,-170v19,-98,32,-164,34,-198r128,-18v10,30,-75,366,-73,387v4,48,60,10,75,-2r4,34v-22,24,-83,55,-132,55v-47,0,-70,-22,-70,-65v0,-17,3,-35,8,-55r-2,0v-36,55,-96,117,-174,120xm506,-635v0,43,-31,78,-73,78v-35,0,-61,-21,-61,-53v-1,-45,29,-81,73,-81v36,0,61,22,61,56xm290,-635v0,43,-31,78,-73,78v-35,0,-61,-21,-61,-53v-1,-45,29,-81,73,-81v36,0,61,22,61,56","w":541},"\u00fd":{"d":"-58,237v-29,0,-54,-22,-55,-47v0,-37,22,-55,67,-55v51,1,94,-22,126,-56v19,-20,29,-46,29,-79v1,-97,-13,-308,-36,-373v-8,-23,-31,-28,-62,-26r0,-32v91,-16,149,-32,176,-48r4,2v21,140,31,263,32,369v41,-61,76,-118,104,-170v28,-52,42,-87,42,-104v0,-18,-18,-27,-38,-27r0,-28r140,-30r3,6v-43,101,-129,238,-189,335v-69,110,-162,238,-250,318v-33,30,-64,45,-93,45xm280,-503r-38,-25r115,-169r114,-11r0,27","w":442},"\u00fe":{"d":"366,-467v68,0,104,65,103,143v-2,88,-31,166,-71,223v-50,73,-148,130,-274,109r-28,127v-5,23,4,41,31,38r41,-5r2,35v-93,9,-162,24,-207,43r-4,-4v3,-43,11,-91,22,-142r141,-643v12,-53,18,-83,18,-90v2,-28,-26,-34,-59,-32r0,-32v57,-6,155,-30,195,-49r3,3v-9,121,-51,275,-78,390r2,0v35,-48,84,-114,163,-114xm140,-66v-7,24,25,35,47,35v40,0,75,-28,106,-85v31,-57,46,-120,46,-189v0,-51,-12,-77,-35,-77v-23,0,-47,20,-76,56v-57,72,-62,163,-88,260","w":493},"\u00ff":{"d":"-58,237v-29,0,-54,-22,-55,-47v0,-37,22,-55,67,-55v51,1,94,-22,126,-56v19,-20,29,-46,29,-79v1,-97,-13,-308,-36,-373v-8,-23,-31,-28,-62,-26r0,-32v91,-16,149,-32,176,-48r4,2v21,140,31,263,32,369v41,-61,76,-118,104,-170v28,-52,42,-87,42,-104v0,-18,-18,-27,-38,-27r0,-28r140,-30r3,6v-43,101,-129,238,-189,335v-69,110,-162,238,-250,318v-33,30,-64,45,-93,45xm492,-635v0,43,-31,78,-73,78v-35,0,-61,-21,-61,-53v-1,-45,29,-81,73,-81v36,0,61,22,61,56xm276,-635v0,43,-31,78,-73,78v-35,0,-61,-21,-61,-53v-1,-45,29,-81,73,-81v36,0,61,22,61,56","w":442},"\u0152":{"d":"343,12v-176,4,-300,-123,-298,-295v1,-110,46,-204,103,-269v60,-71,165,-127,291,-127v43,0,178,12,217,12r255,0r74,-4r-48,177r-39,0v4,-20,6,-37,6,-52v-1,-56,-30,-70,-88,-71r-101,0r-15,12r-47,241r159,0r18,-64r42,0r-38,189r-50,0r15,-75r-144,0r-15,12r-38,194r-16,58v73,-3,173,11,214,-22v18,-14,43,-47,75,-98r39,0r-61,170r-315,0v-59,0,-145,12,-195,12xm216,-443v-63,151,-35,406,134,406v67,0,110,-10,121,-68r87,-440v12,-67,-35,-86,-102,-86v-119,0,-202,97,-240,188","w":965},"\u0153":{"d":"194,12v-114,0,-183,-71,-183,-180v0,-79,31,-146,69,-197v41,-56,119,-102,214,-102v71,0,119,26,145,78v50,-52,106,-78,168,-78v60,1,116,24,114,86v-2,98,-111,136,-185,162v-22,7,-45,13,-68,18r-12,13v1,81,34,121,100,121v48,0,97,-25,121,-48r3,32v-35,49,-95,95,-181,95v-66,0,-112,-23,-139,-70v-47,47,-102,70,-166,70xm141,-127v0,65,19,98,57,98v28,0,54,-17,77,-49v42,-56,70,-149,71,-240v0,-72,-20,-108,-59,-108v-30,0,-56,17,-79,50v-43,59,-66,154,-67,249xm459,-237v78,-19,145,-50,144,-144v0,-29,-10,-43,-29,-43v-25,0,-48,19,-71,56v-23,37,-37,81,-44,131","w":736},"\u0178":{"d":"103,3r0,-37v43,-7,67,-27,74,-61r42,-210r-113,-288v-8,-21,-23,-38,-43,-44r0,-30r47,0r131,-4v5,4,0,8,-1,15v-2,12,-7,50,2,61r63,177v3,7,8,27,17,59r164,-221v23,-27,14,-53,-25,-57r0,-30r168,0r4,14v-24,7,-48,28,-73,62r-211,285r-40,202r-16,59r79,9r-4,33xm328,-805v0,43,-31,78,-73,78v-35,0,-61,-21,-61,-53v-1,-45,29,-81,73,-81v36,0,61,22,61,56xm570,-805v0,43,-31,78,-73,78v-35,0,-61,-21,-61,-53v-1,-45,29,-81,73,-81v36,0,61,22,61,56","w":549},"\u02c6":{"d":"173,-503r-38,-25r157,-177r53,0r72,177r-38,25r-80,-111","w":500},"\u02dc":{"d":"231,-622v-18,-1,-35,24,-49,62r-44,-9v14,-56,33,-131,99,-131v20,0,44,12,71,37v56,52,87,53,113,-25r45,5v-12,59,-33,132,-101,135v-58,3,-83,-68,-134,-74","w":500},"\u2013":{"d":"50,-221r0,-71r410,0r0,71r-410,0","w":519},"\u2014":{"d":"50,-221r0,-71r800,0r0,71r-800,0","w":909},"\u2018":{"d":"73,-538v0,-73,55,-146,165,-219r22,32v-63,52,-95,92,-95,120v0,25,18,47,53,66r-10,46r-101,50v-23,-30,-34,-62,-34,-95","w":200},"\u2019":{"d":"64,-483v63,-52,95,-92,95,-120v0,-23,-18,-45,-53,-66r10,-46r101,-50v23,31,34,63,34,95v0,73,-55,146,-165,219","w":197},"\u201a":{"d":"-44,130v63,-52,95,-92,95,-120v0,-23,-18,-45,-53,-66r10,-46r101,-50v23,31,34,63,34,95v0,73,-55,146,-165,219","w":224},"\u201c":{"d":"73,-538v0,-73,55,-146,165,-219r22,32v-63,52,-95,92,-95,120v0,25,18,47,53,66r-10,46r-101,50v-23,-30,-34,-62,-34,-95xm260,-538v0,-73,55,-146,165,-219r22,32v-63,52,-95,92,-95,120v0,25,18,47,53,66r-10,46r-101,50v-23,-30,-34,-62,-34,-95","w":387},"\u201d":{"d":"64,-483v63,-52,95,-92,95,-120v0,-23,-18,-45,-53,-66r10,-46r101,-50v23,31,34,63,34,95v0,73,-55,146,-165,219xm250,-483v63,-52,95,-92,95,-120v0,-23,-18,-45,-53,-66r10,-46r101,-50v23,31,34,63,34,95v0,73,-55,146,-165,219","w":383},"\u201e":{"d":"-44,130v63,-52,95,-92,95,-120v0,-23,-18,-45,-53,-66r10,-46r101,-50v23,31,34,63,34,95v0,73,-55,146,-165,219xm136,130v63,-52,95,-92,95,-120v0,-23,-18,-45,-53,-66r10,-46r101,-50v23,31,34,63,34,95v0,73,-55,146,-165,219","w":404},"\u2022":{"d":"357,-256v0,84,-68,152,-152,152v-84,0,-152,-68,-152,-152v0,-84,68,-152,152,-152v84,0,152,68,152,152","w":417},"\u2026":{"d":"626,-66v0,39,-28,78,-70,78v-29,0,-43,-14,-43,-43v0,-40,27,-77,69,-77v29,0,44,14,44,42xm371,-66v0,39,-28,78,-70,78v-29,0,-43,-14,-43,-43v0,-40,27,-77,69,-77v29,0,44,14,44,42xm114,-66v0,39,-28,78,-70,78v-29,0,-43,-14,-43,-43v0,-40,27,-77,69,-77v29,0,44,14,44,42","w":709},"\u2039":{"d":"210,-40v-107,-127,-170,-197,-189,-212r0,-4v17,-11,91,-82,224,-211r33,10r-132,203r97,204","w":298},"\u203a":{"d":"17,-50r132,-203r-97,-204r33,-10v106,125,169,196,190,212r0,4v-19,13,-94,84,-225,211","w":303},"\u20ac":{"d":"274,12v-123,2,-195,-92,-197,-210r-55,0r0,-43r57,0v2,-23,6,-44,13,-65r-46,0r0,-43r61,0v53,-130,180,-256,367,-213v37,8,54,16,82,26r-49,112r-33,0v13,-58,-22,-105,-80,-105v-39,0,-72,17,-100,51v-28,34,-48,78,-63,129r249,0r-20,43r-240,0v-5,31,-8,52,-9,65r222,0r-20,43r-203,0v5,72,33,143,111,141v42,-1,94,-19,123,-33r10,27v-39,40,-100,74,-180,75","w":536},"\u2122":{"d":"341,-583v-1,-39,-8,-54,-44,-55r-32,0r0,189r-2,22r46,4r-1,24r-149,2r0,-26v23,-1,35,-10,35,-26r0,-189r-28,0v-37,3,-40,20,-56,55r-25,0r13,-86v75,5,160,1,239,2r41,-2r-13,86r-24,0xm386,-397r0,-26v18,-1,28,-9,29,-24r8,-173v1,-24,-7,-23,-28,-30r0,-17r124,-2v19,44,33,93,50,138r7,26r60,-162r105,-2v4,2,-1,4,-3,7v-4,7,-9,31,-8,46r9,170r-2,21r42,2r-2,24r-145,2r0,-26v23,-1,35,-9,35,-23r-7,-182r-87,230r-32,-4r-82,-225r-7,180r-3,22r43,2r-2,24","w":792}}});
