/*!
 * The following copyright notice may not be removed under any circumstances.
 * 
 * Copyright:
 * © 2009 exljbris Font Foundry. All rights reserved.
 * 
 * Trademark:
 * Calluna is a trademark of exljbris Font Foundry.
 * 
 * Description:
 * Calluna is a trademark of exljbris Font Foundry.
 * 
 * Designer:
 * Jos Buivenga
 * 
 * Vendor URL:
 * http://www.exljbris.com
 * 
 * License information:
 * http://www.exljbris.com
 */
Cufon.registerFont({"w":460,"face":{"font-family":"Calluna","font-weight":400,"font-stretch":"normal","units-per-em":"1000","panose-1":"0 0 5 0 0 0 0 0 0 0","ascent":"750","descent":"-250","x-height":"12","cap-height":"3","bbox":"-26 -871 955 251","underline-thickness":"50","underline-position":"-50","unicode-range":"U+0020-U+2122"},"glyphs":{" ":{"w":225},"!":{"d":"124,-176r-44,-480v59,-16,98,-28,116,-36r3,3v-7,21,-13,57,-17,108r-33,405r-25,0xm135,12v-32,0,-60,-28,-60,-60v0,-32,28,-60,60,-60v32,0,60,28,60,60v0,32,-28,60,-60,60","w":276},"\"":{"d":"62,-431r0,-236r81,0r0,37r-43,199r-38,0xm218,-431r0,-236r81,0r0,37r-43,199r-38,0","w":342},"#":{"d":"320,89r45,-219r-162,0r-44,219r-49,0r45,-219r-126,0r8,-45r127,0r31,-152r-128,0r8,-45r129,0r43,-206r48,0r-43,206r162,0r43,-206r48,0r-43,206r139,0r-8,45r-140,0r-31,152r141,0r-8,45r-142,0r-44,219r-49,0xm243,-327r-31,152r162,0r31,-152r-162,0","w":633},"$":{"d":"188,6v-68,-3,-150,-27,-152,-91v0,-5,7,-31,21,-80r31,0v0,80,34,125,102,135r8,-209v-50,-26,-62,-31,-103,-63v-32,-26,-51,-55,-51,-106v0,-89,73,-144,167,-150r4,-88r40,0r-4,86v37,1,85,6,142,17r-28,140r-31,0v7,-65,-25,-115,-84,-120r-8,202r40,20v13,7,62,35,72,46v25,28,51,54,51,109v0,97,-82,145,-177,152r-3,83r-40,0xm230,-29v51,-5,97,-31,96,-84v-1,-59,-43,-80,-88,-106xm210,-522v-47,6,-88,32,-88,82v0,37,27,71,80,100","w":440},"%":{"d":"183,-357v-80,0,-151,-70,-151,-150v0,-80,71,-150,151,-150v80,0,151,70,151,150v0,80,-71,150,-151,150xm183,-610v-53,0,-97,50,-97,103v0,53,44,103,97,103v53,0,97,-50,97,-103v0,-53,-44,-103,-97,-103xm100,0r467,-672r39,27r-449,645r-57,0xm537,13v-80,0,-151,-70,-151,-150v0,-80,71,-150,151,-150v80,0,151,70,151,150v0,80,-71,150,-151,150xm537,-240v-53,0,-97,50,-97,103v0,53,44,103,97,103v53,0,97,-50,97,-103v0,-53,-44,-103,-97,-103","w":717},"&":{"d":"239,12v-103,1,-202,-60,-202,-166v0,-75,54,-118,95,-151r57,-40v-41,-73,-61,-134,-61,-183v1,-89,64,-151,163,-151v82,0,142,47,143,121v0,39,-13,74,-39,104v-26,30,-63,61,-111,95v45,75,103,148,172,221v45,-54,83,-135,84,-223v0,-37,-22,-59,-65,-64r0,-25r143,0r5,15v-6,12,-18,45,-35,98v-31,99,-67,175,-106,226v67,69,120,113,159,132r-14,21v-61,-10,-127,-43,-196,-98v-54,45,-118,68,-192,68xm123,-187v0,91,57,151,143,151v47,0,91,-16,133,-47v-75,-67,-139,-144,-192,-231v-56,41,-84,84,-84,127xm276,-643v-43,1,-64,44,-63,91v0,43,18,97,53,162v55,-45,82,-95,82,-148v-1,-52,-19,-106,-72,-105","w":658},"'":{"d":"62,-431r0,-236r79,0r0,37r-37,199r-42,0","w":186},"(":{"d":"238,-674v-83,123,-147,341,-104,548v22,109,65,194,112,267r15,19r-32,15v-122,-114,-224,-347,-167,-589v27,-117,79,-200,142,-272","w":282},")":{"d":"78,-686v86,91,159,234,159,416v0,199,-85,346,-184,445r-32,-15v76,-99,140,-250,141,-430v1,-145,-45,-293,-118,-404","w":282},"*":{"d":"206,-660v-3,-28,45,-35,69,-20v9,5,13,11,11,20r-30,117r-10,21v-5,-5,-8,-12,-10,-21xm286,-308v4,27,-46,35,-69,20v-9,-6,-13,-11,-11,-20r30,-117r10,-21v5,5,8,12,10,21xm74,-537v-18,-8,-13,-33,-5,-49v6,-11,29,-36,45,-21r86,85v7,6,11,12,13,19v-7,1,-14,1,-23,-2xm378,-361r-86,-85v-7,-6,-11,-12,-13,-19v7,-1,14,-1,23,2r116,32v18,8,13,33,5,49v-6,11,-29,36,-45,21xm114,-362v-31,13,-50,-18,-52,-48v0,-10,2,-19,11,-21r117,-32v9,-3,16,-3,23,-2v-2,7,-6,13,-13,19xm279,-503v2,-7,6,-13,13,-19r86,-84v31,-13,50,18,52,48v0,10,-2,19,-11,21r-117,32v-9,3,-16,3,-23,2","w":493},"+":{"d":"36,-223r0,-55r196,0r0,-210r59,0r0,210r193,0r0,55r-193,0r0,223r-59,0r0,-223r-196,0","w":520},",":{"d":"55,-43r0,-35r77,-41v54,50,58,147,19,209v-17,26,-42,54,-75,81r-25,-26v82,-71,100,-131,4,-188","w":231},"-":{"d":"62,-217r0,-66r236,0r0,66r-236,0","w":360},".":{"d":"117,12v-32,0,-60,-28,-60,-60v0,-32,28,-60,60,-60v32,0,60,28,60,60v0,32,-28,60,-60,60","w":234},"\/":{"d":"-26,196r333,-863r64,0r-332,863r-65,0","w":352},"0":{"d":"143,-237v0,96,50,202,139,202v91,0,140,-107,140,-204v0,-92,-52,-196,-139,-196v-89,0,-140,104,-140,198xm275,12v-133,0,-217,-112,-217,-240v0,-136,89,-254,232,-254v132,0,217,107,217,234v0,136,-90,260,-232,260","w":565},"1":{"d":"142,-377v-2,-55,-26,-57,-89,-59r0,-34r262,0r-4,32r-89,11r0,334r-5,53r103,10r-4,30r-258,5r0,-34v58,-1,84,-11,84,-64r0,-284","w":369},"2":{"d":"297,-71v65,1,84,-37,101,-85r29,0r-31,156r-337,0r-8,-31r59,-53r31,-29v56,-56,101,-102,125,-181v20,-68,-15,-124,-82,-124v-39,0,-78,14,-115,42r-19,-22v35,-43,91,-83,171,-84v74,0,141,47,141,125v0,73,-70,168,-210,286r145,0","w":469},"3":{"d":"178,-184v93,8,174,56,174,145v0,127,-94,192,-197,219v-40,11,-78,16,-121,13r-6,-35v128,-4,229,-52,232,-182v2,-93,-84,-123,-177,-114r0,-47v72,-6,156,-73,156,-152v0,-51,-31,-89,-83,-88v-44,1,-89,28,-114,49r-19,-22v35,-41,87,-83,164,-84v79,-1,144,47,143,124v-1,80,-90,149,-152,174","w":402},"4":{"d":"29,-34r-7,-30r301,-404r53,-16r2,3v-16,105,-5,266,-8,388r110,0r-12,59r-98,0r-1,196v-1,13,-2,16,-4,24r-77,8r-4,-3v10,-62,3,-153,5,-225r-260,0xm94,-93r195,0r0,-202v0,-18,1,-40,4,-65","w":511},"5":{"d":"350,-105v74,169,-112,303,-273,299r-29,-1r-6,-35v121,3,238,-66,238,-175v0,-92,-78,-130,-150,-153v-34,-11,-50,-14,-83,-16r15,-284r211,0r70,-6r-14,77r-230,0r-8,142v116,21,218,57,259,152","w":410},"6":{"d":"475,-219v0,120,-82,234,-208,231v-98,-2,-162,-69,-189,-146v-31,-86,-29,-200,0,-290v46,-142,150,-253,334,-255r6,35v-146,9,-224,109,-256,232v-27,102,-18,228,22,310v25,53,57,80,97,80v145,0,135,-317,16,-351v-21,-7,-47,-5,-77,5r-7,-32v29,-17,60,-25,93,-25v111,-2,169,95,169,206","w":514},"7":{"d":"160,-390v-79,2,-79,3,-103,64r-29,0r29,-144r330,0r64,-4r5,27v-23,31,-39,58,-49,81r-237,532v-9,16,-14,27,-36,28v-42,4,-38,-46,-21,-70v89,-124,185,-341,264,-518v-73,8,-141,3,-217,4","w":474},"8":{"d":"246,12v-102,0,-192,-60,-192,-167v0,-43,12,-79,37,-109v25,-30,59,-59,102,-86v-37,-31,-65,-60,-85,-88v-20,-28,-30,-57,-30,-89v0,-92,88,-152,187,-152v113,0,196,85,155,195v-11,31,-49,65,-72,82v-11,8,-28,19,-49,32v51,41,61,48,103,92v31,32,50,63,51,115v2,97,-102,175,-207,175xm251,-23v60,1,123,-49,120,-113v-2,-50,-19,-73,-51,-106v-41,-42,-60,-54,-100,-87v-57,43,-85,97,-85,162v0,79,45,143,116,144xm258,-644v-49,-1,-98,42,-98,95v0,27,9,53,28,77v19,24,47,50,84,80v52,-39,78,-86,78,-141v0,-62,-37,-110,-92,-111","w":506},"9":{"d":"264,-482v191,0,250,246,190,428v-46,140,-152,246,-335,248r-6,-35v144,-9,225,-104,257,-224v27,-99,18,-225,-22,-305v-25,-52,-58,-78,-98,-78v-89,0,-119,143,-93,239v18,68,60,138,154,102r7,32v-29,17,-60,25,-93,25v-107,2,-164,-93,-164,-201v0,-118,81,-231,203,-231","w":527},":":{"d":"137,-330v-32,0,-60,-28,-60,-60v0,-32,28,-60,60,-60v32,0,60,28,60,60v0,32,-28,60,-60,60xm137,12v-32,0,-60,-28,-60,-60v0,-32,28,-60,60,-60v32,0,60,28,60,60v0,32,-28,60,-60,60","w":274},";":{"d":"77,-43r0,-35r77,-41v54,50,58,147,19,209v-17,26,-42,54,-75,81r-25,-26v82,-71,100,-131,4,-188xm135,-330v-32,0,-60,-28,-60,-60v0,-32,28,-60,60,-60v32,0,60,28,60,60v0,32,-28,60,-60,60","w":271},"<":{"d":"28,-226r0,-46r426,-229r15,58r-369,194r369,204r-15,57","w":520},"=":{"d":"36,-318r0,-55r448,0r0,55r-448,0xm36,-128r0,-55r448,0r0,55r-448,0","w":520},">":{"d":"50,-45r369,-204r-369,-194r15,-58r426,229r0,46r-426,238","w":520},"?":{"d":"121,-176v-19,-80,20,-163,57,-204v31,-34,92,-87,42,-136v-43,-43,-111,-74,-172,-97r16,-88v82,32,183,75,238,139v33,38,41,72,10,112v-61,79,-164,135,-166,274r-25,0xm137,12v-32,0,-60,-28,-60,-60v0,-32,28,-60,60,-60v32,0,60,28,60,60v0,32,-28,60,-60,60","w":351},"@":{"d":"309,-294v-34,79,-29,243,60,242v29,0,61,-18,98,-53r0,-309v-42,2,-88,28,-115,52v-16,14,-30,38,-43,68xm358,166v-179,-3,-326,-164,-323,-350v3,-161,91,-289,201,-354v63,-37,130,-57,203,-57v185,0,338,141,335,325v-2,137,-73,255,-204,268r-105,15r-2,-4v9,-32,8,-57,8,-93v-27,49,-70,96,-135,96v-83,0,-133,-81,-133,-177v0,-153,122,-292,270,-289v37,0,66,3,89,9v-9,32,-13,61,-13,88r0,268v-2,50,37,55,72,38v57,-27,84,-96,84,-186v0,-177,-103,-312,-280,-312v-190,0,-319,159,-319,351v0,173,111,315,262,324","w":818},"A":{"d":"-13,0r0,-29v34,-3,56,-18,67,-45r237,-590r41,-9r222,568v23,52,26,68,76,78r-4,27r-195,3r0,-34v29,-2,53,-7,42,-39r-61,-160r-239,0r-13,10r-69,180r85,12r-4,28r-185,0xm310,-500v-7,-19,-14,-39,-20,-61r-111,289r217,0","w":623},"B":{"d":"126,-569v-3,-64,-19,-56,-82,-73r0,-25r234,0v79,0,138,14,176,41v38,27,57,62,57,105v0,65,-40,120,-119,164v85,21,167,62,168,168v0,55,-24,99,-70,136v-61,49,-173,51,-291,53r-145,3r0,-32v48,-5,72,-26,72,-62r0,-478xm209,-39r64,0v124,0,186,-45,186,-135v0,-108,-89,-156,-235,-150r-10,10r0,220xm413,-502v-2,-75,-57,-129,-142,-126r-47,0r-10,10r0,255r103,0v51,-1,98,-82,96,-139","w":603},"C":{"d":"642,-104v-48,65,-133,116,-249,116v-137,0,-239,-63,-297,-156v-33,-53,-51,-113,-51,-182v0,-204,158,-353,366,-353v67,0,158,16,216,23r-30,152r-34,0v3,-96,-77,-136,-169,-137v-153,-3,-256,130,-256,286v0,170,123,301,289,301v77,0,148,-25,201,-71","w":679},"D":{"d":"699,-358v2,230,-180,361,-419,358r-81,0r-145,3r0,-32v48,-5,72,-26,72,-62r0,-478v-3,-64,-19,-56,-82,-73r0,-25r274,0v222,3,379,85,381,309xm600,-335v2,-179,-104,-295,-286,-293r-90,0r-10,10r0,523r-5,56r71,0v208,4,318,-105,320,-296","w":746},"E":{"d":"463,-504v4,-96,-18,-124,-108,-124r-131,0r-10,10r0,260r185,0r8,-57r37,-6r0,176r-47,0r0,-74r-173,0r-10,10r0,214r-5,56r157,0v41,0,70,-7,86,-21v16,-14,36,-48,62,-103r34,0r-37,163r-312,0r-145,3r0,-32v48,-5,72,-26,72,-62r0,-478v-3,-64,-19,-56,-82,-73r0,-25r412,0r72,-4r-31,167r-34,0","w":585},"F":{"d":"453,-504v4,-96,-18,-124,-108,-124r-121,0r-10,10r0,265r178,0r8,-57r37,-6r0,176r-47,0r0,-74r-166,0r-10,10r0,210r-5,54r110,9r-4,28r-261,6r0,-32v40,-4,71,-25,72,-65r0,-475v-3,-64,-19,-56,-82,-73r0,-25r402,0r72,-4r-31,167r-34,0","w":531},"G":{"d":"677,-272v-24,11,-39,55,-39,95r0,163v-113,17,-188,26,-227,26v-146,-1,-253,-58,-315,-152v-54,-83,-64,-207,-28,-312v54,-157,210,-250,434,-222r139,17r-30,153r-34,0v1,-99,-72,-135,-167,-137v-166,-3,-266,135,-266,298v0,213,179,358,407,300r0,-145v-3,-67,-22,-59,-92,-73r0,-25r213,0","w":712},"H":{"d":"523,-29v38,-4,71,-24,72,-62r0,-227r-372,0r-10,10r0,214r-5,54r90,9r-4,28r-241,6r0,-32v40,-4,71,-25,72,-65r0,-475v-2,-65,-12,-56,-74,-73r0,-25r78,0r112,-4r5,4v-51,56,-28,202,-33,307r372,0r10,-10r0,-199v-2,-65,-12,-56,-74,-73r0,-25r78,0r112,-3r5,4v-22,25,-33,65,-33,120r0,452r-5,54r90,9r-4,28r-241,6r0,-32","w":801},"I":{"d":"125,-569v-2,-65,-12,-56,-74,-73r0,-25r78,0r112,-4r5,4v-22,25,-33,66,-33,121r0,455r-5,51r95,9r-4,28r-246,6r0,-32v38,-4,71,-24,72,-62r0,-478","w":331},"J":{"d":"10,139v63,-10,106,-106,106,-189r0,-519v-2,-65,-12,-56,-74,-73r0,-25r78,0r112,-4r5,4v-22,25,-33,66,-33,121r0,444v0,83,-16,148,-49,195v-33,47,-77,70,-133,70","w":307},"K":{"d":"125,-569v-2,-65,-12,-56,-74,-73r0,-25r78,0r112,-4r5,4v-50,54,-29,194,-33,297r19,0v12,-7,23,-16,34,-27r195,-194v26,-23,9,-49,-28,-51r0,-25r187,0r5,14v-36,8,-79,37,-129,87r-189,188r0,10r242,278v39,41,38,53,96,58r-4,32r-147,0r-3,-3v-7,-20,-32,-55,-75,-106r-187,-217r-16,0r0,235r-5,51r90,9r-4,28r-241,6r0,-32v38,-4,71,-24,72,-62r0,-478","w":643},"L":{"d":"123,-569v-2,-65,-12,-56,-74,-73r0,-25r78,0r112,-4r5,4v-22,25,-33,66,-33,121r0,452r-5,55r167,0v41,0,70,-9,87,-27v17,-18,38,-56,65,-117r34,0r-41,183r-322,0r-140,3r0,-32v45,-5,67,-25,67,-62r0,-478","w":564},"M":{"d":"44,3r0,-32v46,-5,70,-26,72,-62r19,-478v1,-64,-19,-56,-81,-73r0,-25r80,0r110,-4r4,4v9,35,18,65,29,92r153,392v7,16,13,35,19,57r194,-472r22,-69r134,-4r5,4v-19,22,-34,78,-32,126r19,453r-3,51r88,6r-4,28r-239,6r0,-32v39,-5,74,-20,72,-59r-22,-493r-240,581r-31,-12r-231,-568r-3,39r-18,450r-7,54r92,6r-4,28","w":900},"N":{"d":"727,-653v-39,13,-69,48,-69,102r0,556r-26,0r-425,-502v-12,-14,-24,-30,-36,-48r0,454r-5,54r90,6r-4,28r-197,6r0,-32v48,-5,72,-26,72,-62r0,-450v-1,-74,-18,-87,-82,-101r0,-25r130,-4v8,15,20,33,37,52r362,418v15,19,29,37,40,53r0,-416v4,-60,-28,-70,-82,-75r0,-28r190,0","w":766},"O":{"d":"391,-639v-202,0,-299,244,-217,437v36,85,116,174,229,174v108,0,185,-79,219,-160v84,-198,-26,-451,-231,-451xm383,12v-193,0,-341,-150,-338,-337v2,-141,68,-244,167,-303v57,-34,121,-51,196,-51v196,0,344,134,342,322v-2,145,-75,257,-175,317v-57,34,-121,52,-192,52","w":795},"P":{"d":"439,-462v1,-119,-93,-169,-215,-166r-10,10r0,527r-5,51r95,9r-4,28r-246,6r0,-32v38,-4,71,-24,72,-62r0,-478v-3,-64,-19,-56,-82,-73r0,-25r248,0v137,2,245,46,245,184v0,144,-111,210,-259,203r0,-28v101,0,159,-60,161,-154","w":562},"Q":{"d":"750,-357v-1,171,-117,317,-260,354v29,24,77,79,108,111v37,37,108,84,185,65r0,26v-50,28,-104,37,-163,19v-97,-30,-143,-115,-206,-178v-25,-25,-64,-30,-106,-36v-149,-26,-264,-161,-263,-329v1,-141,68,-244,167,-303v57,-34,121,-51,196,-51v196,0,343,134,342,322xm391,-639v-202,0,-299,244,-217,437v36,85,116,174,229,174v108,0,185,-79,219,-160v84,-198,-26,-451,-231,-451","w":795},"R":{"d":"524,-506v2,87,-74,153,-132,183r0,13r144,211v19,28,40,50,64,62v8,3,24,4,36,5r-4,32r-145,0r-4,-3v-45,-100,-127,-201,-186,-293r-73,0r-10,10r0,195r-5,51r90,9r-4,28r-241,6r0,-32v38,-4,71,-24,72,-62r0,-478v-3,-64,-19,-56,-82,-73r0,-25v146,4,341,-18,420,45v39,31,60,69,60,116xm427,-480v-3,-93,-61,-151,-166,-148r-37,0r-10,10r0,283r84,0v72,-1,132,-63,129,-145","w":628},"S":{"d":"460,-164v6,167,-216,212,-357,150v-39,-18,-59,-44,-59,-77v0,-11,8,-40,23,-89r34,0v-3,102,55,154,145,154v70,0,129,-33,127,-105v-3,-85,-67,-120,-123,-156v-81,-53,-190,-90,-190,-218v0,-131,125,-189,276,-171v40,5,79,10,112,16r-31,156r-34,0v11,-79,-33,-137,-112,-137v-70,0,-126,34,-124,104v2,84,66,117,123,152v84,52,185,90,190,221","w":506},"T":{"d":"579,-504v4,-95,-17,-124,-106,-124r-99,0r-10,10r0,524r-5,54r100,9r-4,28r-251,6r0,-32v40,-4,71,-25,72,-65r0,-534v-66,2,-145,-9,-180,24v-18,17,-37,50,-56,100r-34,0r31,-169v17,4,40,6,67,6r468,0v27,0,51,-2,72,-6r-31,169r-34,0","w":645},"U":{"d":"640,-239v5,189,-184,290,-374,237v-100,-28,-168,-103,-167,-233r0,-334v-2,-65,-12,-56,-74,-73r0,-25r78,0r112,-4r5,4v-22,25,-33,66,-33,121r0,303v-4,128,83,209,199,210v111,1,205,-83,205,-203r0,-328v4,-60,-28,-70,-81,-75r0,-28r194,0r5,14v-39,13,-69,48,-69,102r0,312","w":735},"V":{"d":"285,-3r-230,-584v-11,-25,-33,-48,-59,-55r0,-25r61,0r103,-4r4,4v-15,33,-17,63,-6,92r147,395v9,25,15,46,19,62r180,-437v20,-54,-2,-74,-48,-87r0,-25r153,0r4,14v-19,13,-41,49,-65,107r-230,555","w":614},"W":{"d":"660,-3r-184,-475r-154,487r-39,-12r-230,-584v-11,-25,-33,-48,-59,-55r0,-25r61,0r103,-4r4,4v-15,33,-17,63,-6,92r144,386v5,14,12,35,19,64r132,-416v-14,-43,-32,-90,-76,-101r0,-25r61,0r103,-4r4,4v-15,33,-17,63,-6,92r141,388v6,19,12,39,18,61r136,-429v17,-55,-4,-74,-48,-87r0,-25r152,0r4,14v-28,18,-51,65,-65,107r-176,555","w":961},"X":{"d":"9,0r0,-29v37,-3,65,-17,82,-41r180,-257r-183,-271v-14,-21,-41,-39,-67,-44r0,-25r62,0r99,-4r4,4v-10,26,-8,50,7,72r136,204r131,-191v23,-33,0,-55,-39,-60r0,-25r170,0r5,16v-24,5,-50,24,-74,59r-168,240r215,316r51,8r-4,28r-204,4r0,-32v36,-6,52,-9,31,-40r-146,-219r-171,244r92,12r-4,31r-205,0","w":623},"Y":{"d":"177,-29v38,-4,71,-24,72,-62r0,-204r-192,-303v-13,-19,-30,-40,-53,-44r0,-25r48,0r102,-4r4,4v-13,25,-12,49,2,72r124,200v7,11,17,30,29,56r149,-241v21,-34,-2,-57,-40,-62r0,-25r163,0r4,14v-26,9,-49,29,-69,61r-183,295r0,206r-5,51r90,9r-4,28r-241,6r0,-32","w":585},"Z":{"d":"34,4r-6,-36v14,-15,32,-38,55,-71r334,-476v13,-17,26,-34,39,-49r-220,0v-41,0,-71,8,-90,24v-19,16,-38,49,-57,100r-34,0r25,-163r410,0r64,-4r4,36r-381,547v-11,15,-24,32,-40,49r252,0v41,0,70,-9,87,-27v17,-18,38,-56,65,-117r34,0r-41,183r-436,0","w":610},"[":{"d":"85,155r0,-822r183,0r0,45r-118,0r0,732r118,0r0,45r-183,0","w":288},"\\":{"d":"313,196r-332,-863r64,0r333,863r-65,0","w":352},"]":{"d":"20,110r118,0r0,-732r-118,0r0,-45r183,0r0,822r-183,0r0,-45","w":288},"^":{"d":"36,-250r214,-429r50,0r214,429r-66,0r-174,-350r-174,350r-64,0","w":550},"_":{"d":"12,37r500,0r0,49r-500,0r0,-49","w":524},"`":{"d":"169,-675r0,-27r87,9r85,171r-31,17","w":500},"a":{"d":"132,12v-61,2,-104,-44,-104,-101v0,-44,22,-80,66,-107v52,-33,116,-51,191,-60v2,-45,0,-80,-4,-107v-10,-70,-75,-81,-119,-40v-26,23,-36,43,-50,72r-32,0r-17,-75v34,-28,117,-56,185,-56v99,2,119,40,119,143r0,230v1,30,1,47,27,47v20,0,43,-10,55,-20r13,21v-17,23,-65,52,-106,53v-50,0,-74,-37,-68,-95v-30,47,-79,93,-156,95xm116,-107v-1,36,22,62,56,62v28,0,66,-20,113,-60r0,-118v-50,7,-91,17,-127,41v-28,18,-42,43,-42,75"},"b":{"d":"258,-404v-38,0,-81,20,-100,37r0,327v21,9,45,14,73,14v101,1,163,-83,163,-189v0,-93,-46,-189,-136,-189xm223,12v-26,0,-131,-12,-153,-12r-3,-3v6,-29,9,-63,9,-100r0,-496v-1,-38,2,-68,-30,-68r-42,0r0,-27v58,-12,118,-29,161,-45r3,3v-20,85,-2,243,-14,348v41,-49,88,-74,142,-74v116,0,186,104,185,218v0,143,-104,256,-258,256","w":519},"c":{"d":"250,12v-128,3,-212,-105,-212,-228v0,-126,85,-246,214,-246v37,0,72,6,106,20v34,14,52,33,52,56v1,34,-45,47,-70,24v-27,-25,-43,-66,-95,-66v-84,0,-126,93,-125,183v1,105,56,190,165,190v47,0,93,-19,116,-41r11,21v-29,48,-84,85,-162,87","w":441},"d":{"d":"225,12v-115,0,-188,-104,-188,-217v0,-141,104,-263,256,-257r71,6r0,-143v-1,-38,2,-68,-30,-68r-42,0r0,-27v58,-12,118,-29,161,-45r3,3v-7,25,-10,63,-10,114r0,527v-5,61,30,57,84,57r-3,27r-160,19r-3,-3v4,-26,4,-47,4,-74v-37,54,-84,81,-143,81xm124,-235v0,93,46,190,136,189v40,0,75,-15,104,-44r0,-281v0,-35,-24,-53,-72,-53v-106,-1,-168,79,-168,189","w":539},"e":{"d":"250,12v-131,3,-212,-103,-212,-228v0,-128,88,-246,211,-246v94,0,175,68,174,166v-17,7,-33,11,-46,13r-249,36r-10,12v4,98,58,180,162,180v51,0,96,-16,130,-48r11,21v-32,50,-88,92,-171,94xm330,-310v-7,-58,-32,-114,-96,-114v-71,0,-106,71,-114,141"},"f":{"d":"410,-669v0,21,-19,39,-42,38v-11,0,-28,-8,-50,-25v-44,-35,-94,-37,-119,15v-16,33,-19,123,-18,191r141,0r-8,48r-123,0r-10,10r0,301r-5,54r105,9r-4,25r-240,6r0,-29v41,-5,62,-26,62,-65r0,-308r-63,0r0,-30r63,-22v-8,-158,60,-276,204,-277v46,0,107,16,107,59","w":327},"g":{"d":"24,116v3,-78,66,-102,126,-125v-65,-19,-99,-40,-78,-87v14,-30,60,-42,89,-58v-66,-18,-120,-66,-120,-147v0,-100,87,-161,187,-161v35,0,99,20,132,20v42,0,84,0,114,-13r-9,65r-53,0r-35,-3v20,15,41,59,41,98v0,109,-120,167,-239,146v-34,33,-32,60,7,69r106,23v65,14,106,23,146,61v19,18,28,40,28,65v1,102,-143,168,-254,168v-89,0,-191,-37,-188,-121xm229,199v67,0,155,-38,154,-101v0,-23,-11,-41,-33,-54v-37,-22,-120,-37,-176,-48v-47,31,-71,67,-71,108v-1,62,62,95,126,95xm128,-303v0,68,34,123,103,123v67,0,100,-50,100,-115v0,-67,-36,-132,-105,-132v-67,0,-98,58,-98,124","w":483},"h":{"d":"321,-401v-56,0,-116,36,-149,68r0,242r-5,54r80,9r-4,25r-215,6r0,-29v41,-5,62,-26,62,-65r0,-508v-1,-38,2,-68,-30,-68r-42,0r0,-27v58,-12,118,-29,161,-45r3,3v-21,97,-2,266,-14,382v37,-52,106,-108,190,-108v76,0,114,45,114,135r0,236r-5,54r85,9r-4,25r-215,6r0,-29v38,-5,57,-26,57,-65r0,-214v0,-62,-17,-96,-69,-96","w":562},"i":{"d":"100,-334v-1,-38,2,-68,-30,-68r-45,0r0,-27v43,-10,79,-18,107,-27r60,-20r1,3v-7,22,-11,60,-11,114r0,268r-5,54r85,9r-4,25r-220,6r0,-29v41,-5,62,-26,62,-65r0,-243xm186,-618v0,28,-26,54,-54,54v-28,0,-54,-26,-54,-54v0,-28,26,-54,54,-54v28,0,54,26,54,54","w":277},"j":{"d":"-14,213v63,-10,106,-106,106,-189r0,-358v-1,-38,2,-68,-30,-68r-45,0r0,-27v43,-10,78,-18,106,-27r61,-20r1,3v-7,19,-11,56,-11,110r0,335v0,84,-15,150,-46,196v-31,46,-74,69,-130,69xm178,-618v0,28,-26,54,-54,54v-28,0,-54,-26,-54,-54v0,-28,26,-54,54,-54v28,0,54,26,54,54","w":251},"k":{"d":"90,-599v-1,-38,2,-68,-30,-68r-42,0r0,-27v58,-12,118,-29,161,-45r3,3v-7,25,-10,63,-10,114r0,355r12,0r122,-104v8,-8,16,-14,17,-29v0,-11,-11,-19,-33,-25r0,-25r183,0r5,16v-39,10,-74,28,-105,55r-116,99v-2,17,11,24,16,30r148,160v23,25,39,40,49,47v11,8,31,12,52,13r-4,30r-144,3v-9,-24,-22,-47,-41,-69r-149,-168r-12,0r0,143r-5,54r80,9r-4,25r-215,6r0,-29v41,-5,62,-26,62,-65r0,-508","w":517},"l":{"d":"90,-599v-1,-38,2,-68,-30,-68r-42,0r0,-27v58,-12,118,-29,161,-45r3,3v-7,25,-10,63,-10,114r0,531r-5,54r85,9r-4,25r-220,6r0,-29v41,-5,62,-26,62,-65r0,-508","w":267},"m":{"d":"384,-305v-1,-61,-9,-96,-59,-96v-49,0,-97,23,-144,70r0,240r-5,54r80,9r-4,25r-215,6r0,-29v41,-5,62,-26,62,-65r0,-243v-1,-38,2,-68,-30,-68r-43,0r0,-27v65,-13,119,-29,160,-47r3,3v-6,21,-10,62,-12,121v38,-53,97,-110,181,-110v70,0,106,41,105,115v36,-56,99,-114,183,-115v71,0,107,45,107,135r0,236r-5,54r85,9r-4,25r-215,6r0,-29v38,-4,57,-26,57,-65r0,-214v-1,-61,-8,-93,-58,-96v-48,-3,-147,48,-147,99r0,211r-5,54r80,9r-4,25r-210,6r0,-29v38,-4,57,-26,57,-65r0,-214","w":844},"n":{"d":"331,-401v-57,0,-117,35,-149,70r0,240r-5,53r80,10r-4,25r-215,6r0,-29v41,-5,62,-26,62,-65r0,-243v-1,-38,2,-68,-30,-68r-45,0r0,-27v65,-13,119,-29,160,-47r3,3v-6,22,-9,63,-10,122v35,-54,106,-111,190,-111v76,0,114,45,114,135r0,236r-5,53r85,10r-4,25r-215,6r0,-29v38,-4,57,-26,57,-65r0,-214v0,-62,-17,-96,-69,-96","w":572},"o":{"d":"257,12v-165,6,-255,-153,-205,-316v29,-92,99,-157,221,-158v136,-2,222,89,221,219v-1,148,-89,250,-237,255xm261,-428v-92,-1,-131,95,-131,190v-1,101,43,216,141,216v157,0,163,-285,71,-372v-23,-21,-49,-34,-81,-34","w":532},"p":{"d":"496,-244v0,143,-102,262,-257,256v-19,0,-42,-2,-67,-6r0,115r-5,57r105,0r-4,24v-105,13,-182,27,-230,43r0,-29v40,-23,52,-37,52,-94r0,-456v-1,-38,2,-68,-30,-68r-40,0r0,-27v65,-13,118,-29,157,-47r3,3v-4,17,-7,46,-10,89v32,-44,72,-76,144,-78v115,-4,183,104,182,218xm409,-215v0,-94,-42,-190,-131,-189v-35,0,-70,14,-106,42r0,282v0,36,24,54,72,54v106,1,165,-80,165,-189","w":534},"q":{"d":"225,12v-114,0,-188,-105,-188,-217v0,-142,110,-257,263,-257v27,0,126,13,151,12r3,3v-6,25,-9,58,-9,100r0,472r-5,56r75,0r-4,24v-72,9,-154,25,-210,42r0,-29v40,-23,62,-41,62,-96r1,-146r3,-38v-37,49,-85,74,-142,74xm290,-424v-98,-1,-166,86,-166,191v0,92,49,188,137,187v38,0,72,-12,102,-37r0,-327v-21,-9,-46,-14,-73,-14","w":519},"r":{"d":"320,-367v-15,0,-34,-17,-49,-17v-25,0,-55,19,-89,58r0,235r-5,54r95,9r-4,25r-230,6r0,-29v41,-5,62,-26,62,-65r0,-243v-1,-38,2,-68,-30,-68r-45,0r0,-27v55,-12,120,-28,162,-47r3,3v-6,22,-10,64,-12,127v26,-49,74,-116,135,-116v28,0,54,16,54,46v0,28,-20,49,-47,49","w":375},"s":{"d":"189,12v-58,-1,-150,-13,-150,-68v0,-13,4,-39,13,-76r30,0v2,70,48,108,113,110v46,1,86,-25,83,-68v-5,-76,-93,-93,-148,-126v-39,-24,-81,-60,-81,-119v0,-103,106,-142,221,-123r67,14r-20,103r-31,0v1,-59,-36,-84,-90,-87v-70,-5,-99,73,-52,114v68,61,203,67,205,195v0,85,-71,132,-160,131","w":386},"t":{"d":"342,-50v-31,32,-80,61,-144,62v-74,0,-111,-44,-111,-131r0,-215r3,-65r-66,0r0,-30v29,-6,52,-16,68,-31r37,-109r45,1r3,3v-7,19,-10,69,-9,115r156,0r-7,48r-138,0r-10,10r0,254v1,58,15,89,70,90v32,0,68,-11,90,-21","w":347},"u":{"d":"385,-100v-37,54,-101,112,-186,112v-75,0,-113,-45,-113,-134r0,-212v-1,-38,2,-68,-30,-68r-35,0r0,-28v65,-11,115,-24,152,-37r4,3v-16,73,-7,224,-9,319v-1,63,15,96,68,96v59,0,111,-35,145,-71r0,-214v-1,-38,2,-68,-30,-68r-33,0r0,-28v64,-11,114,-24,150,-37r4,3v-6,19,-9,54,-9,105r0,264v1,50,10,55,56,57r28,0r-3,27v-73,7,-127,14,-164,20r-4,-3v12,-34,9,-65,9,-106","w":559},"v":{"d":"200,0r-143,-367v-13,-31,-32,-51,-55,-58r0,-25r46,0r100,-4r4,4v-13,29,-13,59,-1,92r76,211v5,16,11,37,18,62r118,-267v16,-37,-1,-61,-50,-73r0,-25r135,0r5,16v-10,4,-22,21,-36,52r-175,395","w":457},"w":{"d":"200,0r-143,-367v-13,-31,-32,-51,-55,-58r0,-25r46,0r98,-4v6,4,2,9,0,17v-4,17,-10,62,3,79r78,211r16,54r93,-221v9,-22,10,-37,4,-53v-13,-31,-31,-51,-55,-58r0,-25r46,0r98,-4v6,4,2,9,0,17v-4,17,-10,62,3,79r77,207r17,57r109,-259v18,-44,-15,-64,-50,-72r0,-25r134,0r5,16v-11,5,-23,23,-36,53r-168,394r-37,-13r-115,-294r-131,307","w":730},"x":{"d":"283,3r0,-31v39,0,51,-8,31,-37r-85,-123r-119,151r76,9r-4,25r-166,6r0,-29v25,-3,49,-15,69,-40r123,-154r-107,-152v-22,-31,-47,-49,-75,-53r0,-25r48,0r103,-4r4,4v-8,23,-3,47,14,72r67,99r78,-99v18,-25,4,-40,-41,-47r0,-25r157,0r5,16v-23,4,-46,21,-69,50r-109,137r152,216r45,4r-4,24","w":489},"y":{"d":"22,195v1,-26,19,-41,49,-41v49,0,84,-25,106,-75r32,-75v-10,-29,-18,-50,-24,-65r-128,-306v-14,-31,-33,-51,-56,-58r0,-25r47,0r102,-4r4,4v-12,23,-11,67,-1,92r81,203v7,21,14,41,19,60r113,-258v15,-34,-4,-58,-55,-72r0,-25r139,0r5,16v-12,7,-24,24,-36,53r-211,479v-30,55,-63,134,-142,139v-26,2,-44,-17,-44,-42","w":461},"z":{"d":"165,-417v-54,-2,-84,46,-96,85r-29,0r18,-118r263,0r68,-4r8,26v-3,1,-14,17,-34,48r-189,296v-7,11,-20,28,-37,50v77,-2,169,12,206,-36v15,-19,29,-40,35,-64r29,0r-27,134r-272,0r-68,4r-8,-26v7,-7,19,-23,36,-48r194,-299v7,-10,19,-26,36,-48r-133,0","w":439},"{":{"d":"206,13v0,133,14,164,137,177r-5,36v-142,-1,-209,-55,-204,-174r0,-50v-5,-116,-15,-238,-127,-247r0,-35v56,-6,86,-34,103,-82v22,-60,24,-138,24,-219v-1,-113,88,-160,204,-160r5,36v-123,11,-137,45,-137,177v0,147,-37,235,-111,264r0,2v31,12,57,40,79,84v22,44,32,107,32,191","w":348},"|":{"d":"84,225r0,-974r65,0r0,974r-65,0","w":233},"}":{"d":"5,190v123,-12,137,-44,137,-177v0,-84,10,-147,32,-191v22,-44,48,-72,79,-84r0,-2v-74,-29,-111,-117,-111,-264v0,-132,-14,-166,-137,-177r5,-36v122,1,210,49,204,174r0,50v4,113,16,230,127,237r0,35v-57,6,-86,37,-103,86v-22,62,-24,142,-24,225v0,107,-68,160,-204,160","w":348},"~":{"d":"196,-275v-53,0,-70,50,-71,100r-59,0v-1,-96,40,-153,127,-155v64,-1,99,35,129,68v17,18,38,35,70,36v53,2,70,-50,71,-100r59,0v1,96,-40,153,-127,155v-49,2,-93,-27,-114,-52v-18,-21,-48,-52,-85,-52","w":589},"\u00a0":{"w":225},"\u00a1":{"d":"150,-274r44,480v-59,16,-98,28,-116,36r-3,-3v7,-21,13,-57,17,-108r33,-405r25,0xm139,-462v32,0,60,28,60,60v0,32,-28,60,-60,60v-32,0,-60,-28,-60,-60v0,-32,28,-60,60,-60","w":273},"\u00a2":{"d":"205,-71v-101,-10,-166,-97,-167,-203v0,-112,76,-210,188,-213r5,-90r40,0r-5,90v33,3,63,12,90,25v27,13,41,29,41,48v0,25,-13,38,-39,38v-28,0,-74,-67,-94,-71r-15,307v64,8,103,-7,147,-42r11,21v-29,49,-84,89,-162,92r-4,91r-40,0xm225,-453v-96,6,-132,152,-83,239v16,28,38,49,67,62","w":432},"\u00a3":{"d":"487,-159v-11,103,-45,184,-158,184v-91,1,-187,-66,-276,-25r-12,-29v30,-16,55,-48,60,-90r15,-125r-62,0r0,-40r67,0r11,-88v16,-129,77,-193,184,-193v49,0,116,13,117,56v0,24,-17,41,-41,41v-13,0,-30,-9,-49,-28v-35,-35,-87,-38,-109,4v-16,30,-25,147,-32,208r185,0r-5,40r-184,0v-4,60,-19,126,-37,166v53,23,105,35,157,35v75,0,119,-28,131,-84r7,-32r31,0","w":509},"\u00a5":{"d":"71,-270r0,-40r119,0r-117,-185v-12,-19,-27,-30,-44,-33r0,-25r132,-3r3,3v-9,19,-8,37,2,54v37,64,76,117,109,188r105,-169v17,-27,6,-43,-32,-48r0,-25r128,0r4,16v-14,2,-29,16,-45,41r-119,186r131,0r0,40r-150,0r0,68r150,0r0,40r-150,0v1,44,0,87,-5,125r85,9r-4,25r-220,6r0,-29v41,-5,62,-26,62,-65r0,-71r-144,0r0,-40r144,0r0,-68r-144,0","w":511},"\u00a6":{"d":"90,-328r0,-358r72,0r0,358r-72,0xm90,-173r72,0r0,358r-72,0r0,-358","w":252},"\u00a7":{"d":"33,146v21,21,78,38,126,38v115,0,154,-103,133,-222r-58,-324v-10,-55,-11,-141,22,-174v10,-11,21,-19,35,-24r5,5v-14,41,-15,92,-4,154r63,355v18,106,-4,188,-59,240v-48,45,-133,54,-202,27v-39,-15,-55,-27,-77,-48xm410,-588v-21,-21,-78,-38,-126,-38v-115,0,-154,103,-133,222r59,324v10,55,11,141,-22,174v-10,11,-22,19,-36,24r-5,-5v14,-41,15,-92,4,-154r-63,-355v-18,-106,5,-188,60,-240v48,-45,133,-54,202,-27v39,15,54,27,76,48","w":468},"\u00a8":{"d":"213,-618v0,28,-26,54,-54,54v-28,0,-54,-26,-54,-54v0,-28,26,-54,54,-54v28,0,54,26,54,54xm394,-618v0,28,-26,54,-54,54v-28,0,-54,-26,-54,-54v0,-28,26,-54,54,-54v28,0,54,26,54,54","w":500},"\u00a9":{"d":"380,12v-184,0,-345,-160,-345,-345v0,-185,161,-345,345,-345v184,0,345,160,345,345v0,185,-161,345,-345,345xm380,-637v-164,0,-299,141,-299,304v0,163,135,304,299,304v164,0,299,-141,299,-304v0,-163,-135,-304,-299,-304xm390,-133v-111,2,-210,-82,-208,-196v2,-131,110,-241,261,-208v22,4,62,17,79,22r-17,106r-31,0v0,-65,-31,-98,-93,-98v-75,-1,-122,76,-122,154v0,118,96,202,209,157v29,-12,41,-21,59,-36r11,29v-22,37,-93,70,-148,70","w":760},"\u00aa":{"d":"221,-406v-14,25,-58,58,-98,59v-46,1,-79,-29,-79,-72v0,-76,94,-109,174,-117r0,-29v0,-58,-13,-87,-39,-87v-26,0,-52,29,-71,70r-28,0r-12,-57v35,-27,79,-40,132,-40v72,1,87,27,87,101r0,159v0,49,25,31,52,13r13,19v-24,27,-50,40,-78,40v-35,0,-53,-20,-53,-59xm117,-432v0,24,10,41,31,42v21,0,44,-13,70,-40r0,-79v-48,6,-100,29,-101,77","w":388},"\u00ab":{"d":"37,-249r0,-4v21,-15,92,-84,213,-209r29,10r-131,201r131,201r-29,10v-120,-123,-191,-193,-213,-209xm232,-249r0,-4v21,-15,92,-84,213,-209r29,10r-131,201r131,201r-29,10v-120,-123,-191,-193,-213,-209","w":519},"\u00ac":{"d":"24,-334r0,-55r448,0r0,278r-59,0r0,-223r-389,0","w":520},"\u00ad":{"d":"62,-217r0,-66r236,0r0,66r-236,0","w":360},"\u00ae":{"d":"382,-531v0,92,-81,173,-173,173v-92,0,-173,-81,-173,-173v0,-92,81,-173,173,-173v92,0,173,81,173,173xm70,-531v0,76,64,144,139,144v73,0,139,-70,139,-144v0,-74,-66,-143,-139,-143v-76,0,-139,67,-139,143xm147,-587v-1,-16,-6,-13,-21,-19r0,-12r74,0v80,-4,94,55,39,86v9,16,25,39,36,55v7,9,15,15,26,16r-1,14r-53,1v-9,-23,-29,-49,-43,-70r-17,0v0,18,1,37,-2,52r25,3r-1,13r-80,2r0,-15v12,-1,18,-6,18,-15r0,-111xm187,-533v29,4,43,-9,43,-35v0,-25,-16,-35,-43,-33r0,68","w":418},"\u00af":{"d":"136,-589r0,-59r228,0r0,59r-228,0","w":500},"\u00b0":{"d":"89,-559v0,40,33,74,72,74v39,0,72,-34,72,-74v0,-40,-33,-74,-72,-74v-39,0,-72,34,-72,74xm283,-559v0,65,-56,120,-122,120v-66,0,-122,-55,-122,-120v0,-65,56,-120,122,-120v66,0,122,55,122,120","w":322},"\u00b1":{"d":"36,-318r0,-55r196,0r0,-185r59,0r0,185r193,0r0,55r-193,0r0,198r-59,0r0,-198r-196,0xm36,0r0,-55r448,0r0,55r-448,0","w":520},"\u00b2":{"d":"217,-432v43,-1,46,-18,59,-54r28,0r-17,110r-258,0r-8,-26v74,-67,122,-118,145,-155v25,-39,37,-75,37,-108v1,-84,-113,-77,-157,-31r-19,-21v29,-34,71,-69,134,-70v61,0,117,37,117,100v0,54,-53,130,-82,159r-94,96r115,0","w":331},"\u00b3":{"d":"290,-495v2,72,-87,126,-162,126v-40,0,-107,-13,-108,-48v0,-16,10,-24,29,-24v26,0,60,52,89,47v37,1,71,-54,71,-94v0,-58,-56,-89,-121,-78r0,-35v49,-2,98,-41,98,-88v0,-31,-16,-47,-49,-47v-28,0,-54,8,-77,24r-19,-21v19,-26,73,-54,121,-54v52,0,103,29,101,83v-3,47,-59,84,-96,105v61,8,121,44,123,104","w":320},"\u00b4":{"d":"190,-505r-31,-17r85,-171r87,-9r0,27","w":500},"\u00b5":{"d":"69,165r4,-108r0,-393v0,-42,-2,-77,-7,-105r92,-21r4,3v-13,73,-7,221,-7,314v0,64,21,96,63,96v49,0,98,-24,145,-71r0,-216v0,-42,-2,-77,-7,-105r92,-21r4,3v-14,91,-7,254,-7,364v0,40,-1,57,36,57r38,0r3,24v-39,17,-70,26,-91,26v-43,0,-64,-20,-64,-60r0,-52v-50,75,-107,112,-171,112v-32,0,-59,-11,-80,-32v-2,41,38,174,39,207v1,27,-17,50,-41,50v-39,-1,-47,-29,-45,-72","w":540},"\u00b6":{"d":"224,237v-27,1,-46,-18,-47,-41v-1,-27,20,-42,43,-43v9,-1,38,9,46,8v24,0,40,-15,48,-43v16,-58,10,-192,11,-277v-182,9,-305,-95,-305,-253v0,-69,26,-128,76,-179v50,-51,120,-76,210,-76r216,0v39,0,66,-1,79,-4r-9,56r-74,0r0,615r-57,0r0,-615r-75,0r0,530v0,83,-3,138,-10,165v-18,77,-66,156,-152,157","w":643},"\u00b7":{"d":"186,-254v0,32,-28,60,-60,60v-32,0,-60,-28,-60,-60v0,-32,28,-60,60,-60v32,0,60,28,60,60","w":252},"\u00b8":{"d":"294,158v0,-40,-77,-34,-77,-77v0,-29,25,-62,39,-81r31,0v-10,34,-23,48,1,65v28,19,72,27,71,74v0,68,-86,121,-159,89v-22,-9,-29,-16,-43,-27r15,-32v23,17,46,25,70,25v27,1,52,-12,52,-36","w":500},"\u00b9":{"d":"31,-374r0,-28v35,-3,78,6,78,-37r0,-261v0,-21,-1,-31,-21,-27r-63,14r-4,-30r167,-48r3,4v-5,14,-8,37,-8,68r0,280r-2,30r79,5r-3,26","w":268},"\u00ba":{"d":"370,-526v0,97,-68,179,-171,179v-96,0,-157,-67,-157,-159v1,-97,61,-173,168,-173v97,0,160,61,160,153xm117,-523v0,68,27,147,92,147v59,0,85,-66,84,-130v0,-69,-25,-146,-91,-145v-60,0,-85,65,-85,128","w":411},"\u00bb":{"d":"240,-50r131,-201r-131,-201r29,-10v121,125,192,194,213,209r0,4v-22,16,-93,86,-213,209xm45,-50r131,-201r-131,-201r29,-10v121,125,192,194,213,209r0,4v-22,16,-93,86,-213,209","w":519},"\u00bc":{"d":"467,-114r-6,-35r193,-252r57,-11v-8,73,-2,174,-4,256r68,0r-11,42r-57,0r0,54r-2,30r54,5r-2,23r-168,4r0,-24v30,-3,45,-16,45,-38r0,-54r-167,0xm507,-156r127,0r0,-161xm43,-266r0,-28v35,-3,78,6,78,-37r0,-261v0,-21,-1,-31,-21,-27r-63,14r-4,-30r167,-48r3,4v-5,14,-8,37,-8,68r0,280r-2,30r79,5r-3,26xm252,0r-57,0r393,-682r47,16","w":804},"\u00bd":{"d":"41,-266r0,-28v35,-3,78,6,78,-37r0,-261v0,-21,-1,-31,-21,-27r-63,14r-4,-30r167,-48r3,4v-5,14,-8,37,-8,68r0,280r-2,30r79,5r-3,26xm744,-56v43,-1,46,-18,59,-54r28,0r-17,110r-258,0r-8,-26v74,-67,122,-118,145,-155v25,-39,37,-75,37,-108v1,-84,-113,-77,-157,-31r-19,-21v29,-34,71,-69,134,-70v61,0,117,37,117,100v0,54,-54,130,-83,159r-93,96r115,0xm251,0r-57,0r393,-682r47,16","w":862},"\u00be":{"d":"458,-114r-6,-35r193,-252r57,-11v-8,73,-2,174,-4,256r68,0r-11,42r-57,0r0,54r-2,30r54,5r-2,23r-168,4r0,-24v30,-3,45,-16,45,-38r0,-54r-167,0xm301,-387v2,72,-87,126,-162,126v-40,0,-107,-13,-108,-48v0,-16,10,-24,29,-24v26,0,60,52,89,47v37,1,71,-54,71,-94v0,-58,-56,-89,-121,-78r0,-35v49,-2,98,-41,98,-88v0,-31,-16,-47,-49,-47v-28,0,-54,8,-77,24r-19,-21v19,-26,73,-54,121,-54v52,0,103,29,101,83v-3,47,-59,84,-96,105v61,8,121,44,123,104xm243,0r-57,0r393,-682r47,16xm498,-156r127,0r0,-161","w":797},"\u00bf":{"d":"221,-274v19,80,-20,163,-57,204v-31,34,-92,87,-42,136v43,43,111,74,172,97r-16,88v-82,-32,-183,-75,-238,-139v-33,-38,-41,-72,-10,-112v61,-79,164,-135,166,-274r25,0xm205,-462v32,0,60,28,60,60v0,32,-28,60,-60,60v-32,0,-60,-28,-60,-60v0,-32,28,-60,60,-60","w":327},"\u00c0":{"d":"-13,0r0,-29v34,-3,56,-18,67,-45r237,-590r41,-9r222,568v23,52,26,68,76,78r-4,27r-195,3r0,-34v29,-2,53,-7,42,-39r-61,-160r-239,0r-13,10r-69,180r85,12r-4,28r-185,0xm310,-500v-7,-19,-14,-39,-20,-61r-111,289r217,0xm183,-784r0,-25r33,-52r5,0r177,105r-13,33","w":623},"\u00c1":{"d":"-13,0r0,-29v34,-3,56,-18,67,-45r237,-590r41,-9r222,568v23,52,26,68,76,78r-4,27r-195,3r0,-34v29,-2,53,-7,42,-39r-61,-160r-239,0r-13,10r-69,180r85,12r-4,28r-185,0xm310,-500v-7,-19,-14,-39,-20,-61r-111,289r217,0xm226,-756r177,-105r5,0r33,52r0,25r-202,61","w":623},"\u00c2":{"d":"-13,0r0,-29v34,-3,56,-18,67,-45r237,-590r41,-9r222,568v23,52,26,68,76,78r-4,27r-195,3r0,-34v29,-2,53,-7,42,-39r-61,-160r-239,0r-13,10r-69,180r85,12r-4,28r-185,0xm310,-500v-7,-19,-14,-39,-20,-61r-111,289r217,0xm155,-741r131,-130r53,0r130,130r-27,23r-128,-81r-4,0r-128,81","w":623},"\u00c3":{"d":"-13,0r0,-29v34,-3,56,-18,67,-45r237,-590r41,-9r222,568v23,52,26,68,76,78r-4,27r-195,3r0,-34v29,-2,53,-7,42,-39r-61,-160r-239,0r-13,10r-69,180r85,12r-4,28r-185,0xm310,-500v-7,-19,-14,-39,-20,-61r-111,289r217,0xm225,-792v-26,-2,-46,24,-56,59r-34,-7v6,-58,34,-107,98,-113v33,-3,140,61,167,59v31,-2,52,-30,55,-59r35,3v-6,63,-38,116,-107,117v-25,0,-53,-9,-87,-29v-34,-20,-58,-30,-71,-30","w":623},"\u00c4":{"d":"-13,0r0,-29v34,-3,56,-18,67,-45r237,-590r41,-9r222,568v23,52,26,68,76,78r-4,27r-195,3r0,-34v29,-2,53,-7,42,-39r-61,-160r-239,0r-13,10r-69,180r85,12r-4,28r-185,0xm310,-500v-7,-19,-14,-39,-20,-61r-111,289r217,0xm196,-739v-28,0,-54,-26,-54,-54v0,-28,26,-54,54,-54v28,0,54,26,54,54v0,28,-26,54,-54,54xm427,-739v-28,0,-54,-26,-54,-54v0,-28,26,-54,54,-54v28,0,54,26,54,54v0,28,-26,54,-54,54","w":623},"\u00c5":{"d":"-13,0r0,-29v34,-3,56,-18,67,-45r237,-590r41,-9r222,568v23,52,26,68,76,78r-4,27r-195,3r0,-34v29,-2,53,-7,42,-39r-61,-160r-239,0r-13,10r-69,180r85,12r-4,28r-185,0xm310,-500v-7,-19,-14,-39,-20,-61r-111,289r217,0xm406,-792v0,48,-40,81,-94,81v-54,0,-94,-33,-94,-81v0,-47,40,-79,94,-79v54,0,94,32,94,79xm265,-791v0,26,18,46,47,46v27,0,48,-21,48,-46v0,-26,-19,-46,-48,-46v-30,0,-47,19,-47,46","w":623},"\u00c6":{"d":"758,-504v4,-96,-18,-124,-108,-124r-131,0r-10,10r0,270r185,0r8,-67r37,-6r0,176r-47,0r0,-64r-173,0r-10,10r0,204r-5,56r157,0v41,0,69,-7,85,-21v16,-14,37,-48,63,-103r34,0r-37,163r-312,0r-145,3r0,-32v48,-5,72,-26,72,-62r0,-218r-181,0r-15,10r-143,259r85,12r-4,28r-182,0r0,-29v35,-4,54,-20,67,-45r284,-511v20,-41,-8,-45,-48,-57r0,-25r467,0r72,-4r-31,167r-34,0xm381,-580r-129,232r169,0r0,-274v-15,6,-28,20,-40,42","w":880},"\u00c7":{"d":"391,158v0,-40,-77,-34,-77,-77v0,-17,11,-41,32,-72v-165,-18,-301,-149,-301,-335v0,-204,158,-353,366,-353v67,0,158,16,216,23r-30,152r-34,0v3,-96,-77,-136,-169,-137v-153,-3,-256,130,-256,286v0,170,123,301,289,301v77,0,148,-25,201,-71r14,21v-50,67,-139,119,-263,116v-7,28,-15,39,6,53v28,19,72,27,71,74v0,68,-85,120,-158,89v-23,-10,-31,-15,-44,-27r15,-32v23,17,46,25,70,25v27,1,52,-12,52,-36","w":679},"\u00c8":{"d":"463,-504v4,-96,-18,-124,-108,-124r-131,0r-10,10r0,260r185,0r8,-57r37,-6r0,176r-47,0r0,-74r-173,0r-10,10r0,214r-5,56r157,0v41,0,70,-7,86,-21v16,-14,36,-48,62,-103r34,0r-37,163r-312,0r-145,3r0,-32v48,-5,72,-26,72,-62r0,-478v-3,-64,-19,-56,-82,-73r0,-25r412,0r72,-4r-31,167r-34,0xm178,-784r0,-25r33,-52r5,0r177,105r-13,33","w":585},"\u00c9":{"d":"463,-504v4,-96,-18,-124,-108,-124r-131,0r-10,10r0,260r185,0r8,-57r37,-6r0,176r-47,0r0,-74r-173,0r-10,10r0,214r-5,56r157,0v41,0,70,-7,86,-21v16,-14,36,-48,62,-103r34,0r-37,163r-312,0r-145,3r0,-32v48,-5,72,-26,72,-62r0,-478v-3,-64,-19,-56,-82,-73r0,-25r412,0r72,-4r-31,167r-34,0xm221,-756r177,-105r5,0r33,52r0,25r-202,61","w":585},"\u00ca":{"d":"463,-504v4,-96,-18,-124,-108,-124r-131,0r-10,10r0,260r185,0r8,-57r37,-6r0,176r-47,0r0,-74r-173,0r-10,10r0,214r-5,56r157,0v41,0,70,-7,86,-21v16,-14,36,-48,62,-103r34,0r-37,163r-312,0r-145,3r0,-32v48,-5,72,-26,72,-62r0,-478v-3,-64,-19,-56,-82,-73r0,-25r412,0r72,-4r-31,167r-34,0xm150,-741r131,-130r53,0r130,130r-27,23r-128,-81r-4,0r-128,81","w":585},"\u00cb":{"d":"463,-504v4,-96,-18,-124,-108,-124r-131,0r-10,10r0,260r185,0r8,-57r37,-6r0,176r-47,0r0,-74r-173,0r-10,10r0,214r-5,56r157,0v41,0,70,-7,86,-21v16,-14,36,-48,62,-103r34,0r-37,163r-312,0r-145,3r0,-32v48,-5,72,-26,72,-62r0,-478v-3,-64,-19,-56,-82,-73r0,-25r412,0r72,-4r-31,167r-34,0xm191,-739v-28,0,-54,-26,-54,-54v0,-28,26,-54,54,-54v28,0,54,26,54,54v0,28,-26,54,-54,54xm422,-739v-28,0,-54,-26,-54,-54v0,-28,26,-54,54,-54v28,0,54,26,54,54v0,28,-26,54,-54,54","w":585},"\u00cc":{"d":"125,-569v-2,-65,-12,-56,-74,-73r0,-25r78,0r112,-4r5,4v-22,25,-33,66,-33,121r0,455r-5,51r95,9r-4,28r-246,6r0,-32v38,-4,71,-24,72,-62r0,-478xm33,-784r0,-25r33,-52r5,0r177,105r-13,33","w":331},"\u00cd":{"d":"125,-569v-2,-65,-12,-56,-74,-73r0,-25r78,0r112,-4r5,4v-22,25,-33,66,-33,121r0,455r-5,51r95,9r-4,28r-246,6r0,-32v38,-4,71,-24,72,-62r0,-478xm76,-756r177,-105r5,0r33,52r0,25r-202,61","w":331},"\u00ce":{"d":"125,-569v-2,-65,-12,-56,-74,-73r0,-25r78,0r112,-4r5,4v-22,25,-33,66,-33,121r0,455r-5,51r95,9r-4,28r-246,6r0,-32v38,-4,71,-24,72,-62r0,-478xm5,-741r131,-130r53,0r130,130r-27,23r-128,-81r-4,0r-128,81","w":331},"\u00cf":{"d":"71,-739v-28,0,-54,-26,-54,-54v0,-28,26,-54,54,-54v28,0,54,26,54,54v0,28,-26,54,-54,54xm252,-739v-28,0,-54,-26,-54,-54v0,-28,26,-54,54,-54v28,0,54,26,54,54v0,28,-26,54,-54,54xm125,-569v-2,-65,-12,-56,-74,-73r0,-25r78,0r112,-4r5,4v-22,25,-33,66,-33,121r0,455r-5,51r95,9r-4,28r-246,6r0,-32v38,-4,71,-24,72,-62r0,-478","w":331},"\u00d0":{"d":"699,-358v2,230,-180,361,-419,358r-81,0r-145,3r0,-32v48,-5,72,-26,72,-62r0,-227r-91,0r0,-42r91,0r0,-209v-3,-64,-19,-56,-82,-73r0,-25r274,0v222,3,379,85,381,309xm600,-335v2,-179,-104,-295,-286,-293r-90,0r-10,10r0,258r166,0r0,42r-166,0r0,223r-5,56r71,0v208,4,318,-105,320,-296","w":746},"\u00d1":{"d":"727,-653v-39,13,-69,48,-69,102r0,556r-26,0r-425,-502v-12,-14,-24,-30,-36,-48r0,454r-5,54r90,6r-4,28r-197,6r0,-32v48,-5,72,-26,72,-62r0,-450v-1,-74,-18,-87,-82,-101r0,-25r130,-4v8,15,20,33,37,52r362,418v15,19,29,37,40,53r0,-416v4,-60,-28,-70,-82,-75r0,-28r190,0xm307,-792v-26,-2,-46,24,-56,59r-34,-7v6,-58,34,-107,98,-113v33,-3,140,61,167,59v31,-2,52,-30,55,-59r35,3v-6,63,-38,116,-107,117v-25,0,-53,-9,-87,-29v-34,-20,-58,-30,-71,-30","w":766},"\u00d2":{"d":"391,-639v-202,0,-299,244,-217,437v36,85,116,174,229,174v108,0,185,-79,219,-160v84,-198,-26,-451,-231,-451xm383,12v-193,0,-341,-150,-338,-337v2,-141,68,-244,167,-303v57,-34,121,-51,196,-51v196,0,344,134,342,322v-2,145,-75,257,-175,317v-57,34,-121,52,-192,52xm266,-784r0,-25r33,-52r5,0r177,105r-13,33","w":795},"\u00d3":{"d":"391,-639v-202,0,-299,244,-217,437v36,85,116,174,229,174v108,0,185,-79,219,-160v84,-198,-26,-451,-231,-451xm383,12v-193,0,-341,-150,-338,-337v2,-141,68,-244,167,-303v57,-34,121,-51,196,-51v196,0,344,134,342,322v-2,145,-75,257,-175,317v-57,34,-121,52,-192,52xm309,-756r177,-105r5,0r33,52r0,25r-202,61","w":795},"\u00d4":{"d":"391,-639v-202,0,-299,244,-217,437v36,85,116,174,229,174v108,0,185,-79,219,-160v84,-198,-26,-451,-231,-451xm383,12v-193,0,-341,-150,-338,-337v2,-141,68,-244,167,-303v57,-34,121,-51,196,-51v196,0,344,134,342,322v-2,145,-75,257,-175,317v-57,34,-121,52,-192,52xm238,-741r131,-130r53,0r130,130r-27,23r-128,-81r-4,0r-128,81","w":795},"\u00d5":{"d":"391,-639v-202,0,-299,244,-217,437v36,85,116,174,229,174v108,0,185,-79,219,-160v84,-198,-26,-451,-231,-451xm383,12v-193,0,-341,-150,-338,-337v2,-141,68,-244,167,-303v57,-34,121,-51,196,-51v196,0,344,134,342,322v-2,145,-75,257,-175,317v-57,34,-121,52,-192,52xm308,-792v-26,-2,-46,24,-56,59r-34,-7v6,-58,34,-107,98,-113v33,-3,140,61,167,59v32,-2,50,-31,55,-59r35,3v-6,63,-38,116,-107,117v-25,0,-54,-9,-88,-29v-34,-20,-57,-30,-70,-30","w":795},"\u00d6":{"d":"391,-639v-202,0,-299,244,-217,437v36,85,116,174,229,174v108,0,185,-79,219,-160v84,-198,-26,-451,-231,-451xm383,12v-193,0,-341,-150,-338,-337v2,-141,68,-244,167,-303v57,-34,121,-51,196,-51v196,0,344,134,342,322v-2,145,-75,257,-175,317v-57,34,-121,52,-192,52xm279,-739v-28,0,-54,-26,-54,-54v0,-28,26,-54,54,-54v28,0,54,26,54,54v0,28,-26,54,-54,54xm510,-739v-28,0,-54,-26,-54,-54v0,-28,26,-54,54,-54v28,0,54,26,54,54v0,28,-26,54,-54,54","w":795},"\u00d7":{"d":"35,-436r39,-41r186,187r186,-187r39,41r-185,186r185,185r-40,41r-185,-186r-185,186r-40,-41r185,-185","w":520},"\u00d8":{"d":"45,-325v0,-141,69,-243,167,-303v106,-64,273,-69,382,-5r49,-64r56,0r-68,89v79,61,119,144,119,251v0,145,-76,256,-175,317v-107,67,-271,70,-377,2r-52,68r-57,0r72,-95v-77,-66,-116,-153,-116,-260xm622,-188v50,-120,34,-264,-40,-355r-339,447v75,80,205,92,293,22v39,-31,67,-68,86,-114xm391,-639v-149,0,-247,139,-247,288v0,81,23,154,68,219r339,-444v-47,-42,-100,-63,-160,-63","w":795},"\u00d9":{"d":"640,-239v5,189,-184,290,-374,237v-100,-28,-168,-103,-167,-233r0,-334v-2,-65,-12,-56,-74,-73r0,-25r78,0r112,-4r5,4v-22,25,-33,66,-33,121r0,303v-4,128,83,209,199,210v111,1,205,-83,205,-203r0,-328v4,-60,-28,-70,-81,-75r0,-28r194,0r5,14v-39,13,-69,48,-69,102r0,312xm250,-784r0,-25r33,-52r5,0r177,105r-13,33","w":735},"\u00da":{"d":"640,-239v5,189,-184,290,-374,237v-100,-28,-168,-103,-167,-233r0,-334v-2,-65,-12,-56,-74,-73r0,-25r78,0r112,-4r5,4v-22,25,-33,66,-33,121r0,303v-4,128,83,209,199,210v111,1,205,-83,205,-203r0,-328v4,-60,-28,-70,-81,-75r0,-28r194,0r5,14v-39,13,-69,48,-69,102r0,312xm293,-756r177,-105r5,0r33,52r0,25r-202,61","w":735},"\u00db":{"d":"640,-239v5,189,-184,290,-374,237v-100,-28,-168,-103,-167,-233r0,-334v-2,-65,-12,-56,-74,-73r0,-25r78,0r112,-4r5,4v-22,25,-33,66,-33,121r0,303v-4,128,83,209,199,210v111,1,205,-83,205,-203r0,-328v4,-60,-28,-70,-81,-75r0,-28r194,0r5,14v-39,13,-69,48,-69,102r0,312xm222,-741r131,-130r53,0r130,130r-27,23r-128,-81r-4,0r-128,81","w":735},"\u00dc":{"d":"640,-239v5,189,-184,290,-374,237v-100,-28,-168,-103,-167,-233r0,-334v-2,-65,-12,-56,-74,-73r0,-25r78,0r112,-4r5,4v-22,25,-33,66,-33,121r0,303v-4,128,83,209,199,210v111,1,205,-83,205,-203r0,-328v4,-60,-28,-70,-81,-75r0,-28r194,0r5,14v-39,13,-69,48,-69,102r0,312xm263,-739v-28,0,-54,-26,-54,-54v0,-28,26,-54,54,-54v28,0,54,26,54,54v0,28,-26,54,-54,54xm494,-739v-28,0,-54,-26,-54,-54v0,-28,26,-54,54,-54v28,0,54,26,54,54v0,28,-26,54,-54,54","w":735},"\u00dd":{"d":"177,-29v38,-4,71,-24,72,-62r0,-204r-192,-303v-13,-19,-30,-40,-53,-44r0,-25r48,0r102,-4r4,4v-13,25,-12,49,2,72r124,200v7,11,17,30,29,56r149,-241v21,-34,-2,-57,-40,-62r0,-25r163,0r4,14v-26,9,-49,29,-69,61r-183,295r0,206r-5,51r90,9r-4,28r-241,6r0,-32xm212,-756r177,-105r5,0r33,52r0,25r-202,61","w":585},"\u00de":{"d":"125,-569v-2,-65,-12,-56,-74,-73r0,-25r78,0r112,-4r5,4v-27,29,-35,88,-33,153v101,-2,183,3,250,42v48,28,73,70,73,127v0,94,-72,159,-144,179v-38,10,-76,13,-115,9r0,-28v98,0,160,-52,161,-139v2,-111,-98,-154,-215,-151r-10,10r0,374r-5,51r95,9r-4,28r-246,6r0,-32v38,-4,71,-24,72,-62r0,-478","w":561},"\u00df":{"d":"383,-575v2,-60,-39,-101,-96,-101v-71,0,-106,62,-106,185r0,438r4,48r-3,3r-145,5r0,-29v41,-5,62,-25,62,-62r0,-311r-63,0r0,-30r63,-22v-2,-107,27,-177,91,-228v82,-66,276,-49,271,75v-4,92,-102,123,-111,211v8,70,76,100,119,139v31,28,65,70,65,126v2,107,-110,159,-220,134v-33,-7,-77,-29,-77,-67v0,-20,9,-42,14,-56r30,0v9,63,39,95,90,95v44,0,95,-26,90,-73v-13,-121,-176,-123,-176,-258v0,-97,95,-127,98,-222","w":555},"\u00e0":{"d":"132,12v-61,2,-104,-44,-104,-101v0,-44,22,-80,66,-107v52,-33,116,-51,191,-60v2,-45,0,-80,-4,-107v-10,-70,-75,-81,-119,-40v-26,23,-36,43,-50,72r-32,0r-17,-75v34,-28,117,-56,185,-56v99,2,119,40,119,143r0,230v1,30,1,47,27,47v20,0,43,-10,55,-20r13,21v-17,23,-65,52,-106,53v-50,0,-74,-37,-68,-95v-30,47,-79,93,-156,95xm116,-107v-1,36,22,62,56,62v28,0,66,-20,113,-60r0,-118v-50,7,-91,17,-127,41v-28,18,-42,43,-42,75xm88,-675r0,-27r87,9r85,171r-31,17"},"\u00e1":{"d":"132,12v-61,2,-104,-44,-104,-101v0,-44,22,-80,66,-107v52,-33,116,-51,191,-60v2,-45,0,-80,-4,-107v-10,-70,-75,-81,-119,-40v-26,23,-36,43,-50,72r-32,0r-17,-75v34,-28,117,-56,185,-56v99,2,119,40,119,143r0,230v1,30,1,47,27,47v20,0,43,-10,55,-20r13,21v-17,23,-65,52,-106,53v-50,0,-74,-37,-68,-95v-30,47,-79,93,-156,95xm116,-107v-1,36,22,62,56,62v28,0,66,-20,113,-60r0,-118v-50,7,-91,17,-127,41v-28,18,-42,43,-42,75xm211,-505r-31,-17r85,-171r87,-9r0,27"},"\u00e2":{"d":"132,12v-61,2,-104,-44,-104,-101v0,-44,22,-80,66,-107v52,-33,116,-51,191,-60v2,-45,0,-80,-4,-107v-10,-70,-75,-81,-119,-40v-26,23,-36,43,-50,72r-32,0r-17,-75v34,-28,117,-56,185,-56v99,2,119,40,119,143r0,230v1,30,1,47,27,47v20,0,43,-10,55,-20r13,21v-17,23,-65,52,-106,53v-50,0,-74,-37,-68,-95v-30,47,-79,93,-156,95xm116,-107v-1,36,22,62,56,62v28,0,66,-20,113,-60r0,-118v-50,7,-91,17,-127,41v-28,18,-42,43,-42,75xm85,-522r116,-176r39,0r115,176r-30,19r-105,-116r-105,116"},"\u00e3":{"d":"132,12v-61,2,-104,-44,-104,-101v0,-44,22,-80,66,-107v52,-33,116,-51,191,-60v2,-45,0,-80,-4,-107v-10,-70,-75,-81,-119,-40v-26,23,-36,43,-50,72r-32,0r-17,-75v34,-28,117,-56,185,-56v99,2,119,40,119,143r0,230v1,30,1,47,27,47v20,0,43,-10,55,-20r13,21v-17,23,-65,52,-106,53v-50,0,-74,-37,-68,-95v-30,47,-79,93,-156,95xm116,-107v-1,36,22,62,56,62v28,0,66,-20,113,-60r0,-118v-50,7,-91,17,-127,41v-28,18,-42,43,-42,75xm365,-678v0,66,-21,126,-87,126v-49,0,-68,-39,-96,-62v-35,-29,-69,2,-70,52r-37,0v-2,-59,20,-123,85,-122v50,0,68,39,96,62v19,16,47,15,60,-6v10,-16,11,-29,12,-50r37,0"},"\u00e4":{"d":"132,12v-61,2,-104,-44,-104,-101v0,-44,22,-80,66,-107v52,-33,116,-51,191,-60v2,-45,0,-80,-4,-107v-10,-70,-75,-81,-119,-40v-26,23,-36,43,-50,72r-32,0r-17,-75v34,-28,117,-56,185,-56v99,2,119,40,119,143r0,230v1,30,1,47,27,47v20,0,43,-10,55,-20r13,21v-17,23,-65,52,-106,53v-50,0,-74,-37,-68,-95v-30,47,-79,93,-156,95xm116,-107v-1,36,22,62,56,62v28,0,66,-20,113,-60r0,-118v-50,7,-91,17,-127,41v-28,18,-42,43,-42,75xm183,-618v0,28,-26,54,-54,54v-28,0,-54,-26,-54,-54v0,-28,26,-54,54,-54v28,0,54,26,54,54xm364,-618v0,28,-26,54,-54,54v-28,0,-54,-26,-54,-54v0,-28,26,-54,54,-54v28,0,54,26,54,54"},"\u00e5":{"d":"132,12v-61,2,-104,-44,-104,-101v0,-44,22,-80,66,-107v52,-33,116,-51,191,-60v2,-45,0,-80,-4,-107v-10,-70,-75,-81,-119,-40v-26,23,-36,43,-50,72r-32,0r-17,-75v34,-28,117,-56,185,-56v99,2,119,40,119,143r0,230v1,30,1,47,27,47v20,0,43,-10,55,-20r13,21v-17,23,-65,52,-106,53v-50,0,-74,-37,-68,-95v-30,47,-79,93,-156,95xm314,-620v0,49,-39,84,-94,84v-55,0,-94,-35,-94,-84v0,-48,40,-81,94,-81v54,0,94,33,94,81xm116,-107v-1,36,22,62,56,62v28,0,66,-20,113,-60r0,-118v-50,7,-91,17,-127,41v-28,18,-42,43,-42,75xm173,-619v0,27,18,49,47,49v28,0,48,-22,48,-49v0,-27,-19,-48,-48,-48v-30,0,-47,20,-47,48"},"\u00e6":{"d":"146,12v-69,0,-119,-40,-120,-103v0,-45,24,-82,72,-111v48,-29,113,-50,194,-63v-1,-79,4,-159,-67,-162v-44,-2,-84,42,-107,96r-32,0r-17,-75v34,-28,116,-56,184,-56v64,0,93,19,108,67v58,-80,183,-89,257,-24v33,29,50,69,51,120v-97,26,-199,37,-300,57v1,102,56,187,162,187v51,0,96,-16,130,-48r11,21v-34,50,-95,94,-180,94v-93,0,-155,-53,-177,-130v-22,66,-85,130,-169,130xm114,-107v0,36,21,63,57,62v66,-2,125,-66,120,-148r0,-36v-118,21,-177,61,-177,122xm576,-315v-6,-55,-31,-109,-92,-109v-70,0,-108,75,-114,145","w":709},"\u00e7":{"d":"255,159v0,-40,-77,-34,-77,-77v0,-14,11,-39,33,-74v-104,-13,-173,-111,-173,-224v0,-126,85,-246,214,-246v37,0,72,6,106,20v34,14,52,33,52,56v1,34,-45,47,-70,24v-27,-25,-43,-66,-95,-66v-84,0,-126,93,-125,183v1,105,56,190,165,190v47,0,93,-19,116,-41r11,21v-30,49,-86,88,-168,87v-8,24,-16,41,5,54v28,18,72,27,71,74v0,68,-85,120,-158,89v-23,-10,-31,-15,-44,-27r15,-32v23,17,46,25,70,25v27,1,52,-12,52,-36","w":441},"\u00e8":{"d":"250,12v-131,3,-212,-103,-212,-228v0,-128,88,-246,211,-246v94,0,175,68,174,166v-17,7,-33,11,-46,13r-249,36r-10,12v4,98,58,180,162,180v51,0,96,-16,130,-48r11,21v-32,50,-88,92,-171,94xm330,-310v-7,-58,-32,-114,-96,-114v-71,0,-106,71,-114,141xm107,-675r0,-27r87,9r85,171r-31,17"},"\u00e9":{"d":"250,12v-131,3,-212,-103,-212,-228v0,-128,88,-246,211,-246v94,0,175,68,174,166v-17,7,-33,11,-46,13r-249,36r-10,12v4,98,58,180,162,180v51,0,96,-16,130,-48r11,21v-32,50,-88,92,-171,94xm330,-310v-7,-58,-32,-114,-96,-114v-71,0,-106,71,-114,141xm230,-505r-31,-17r85,-171r87,-9r0,27"},"\u00ea":{"d":"250,12v-131,3,-212,-103,-212,-228v0,-128,88,-246,211,-246v94,0,175,68,174,166v-17,7,-33,11,-46,13r-249,36r-10,12v4,98,58,180,162,180v51,0,96,-16,130,-48r11,21v-32,50,-88,92,-171,94xm330,-310v-7,-58,-32,-114,-96,-114v-71,0,-106,71,-114,141xm104,-522r116,-176r39,0r115,176r-30,19r-105,-116r-105,116"},"\u00eb":{"d":"250,12v-131,3,-212,-103,-212,-228v0,-128,88,-246,211,-246v94,0,175,68,174,166v-17,7,-33,11,-46,13r-249,36r-10,12v4,98,58,180,162,180v51,0,96,-16,130,-48r11,21v-32,50,-88,92,-171,94xm330,-310v-7,-58,-32,-114,-96,-114v-71,0,-106,71,-114,141xm202,-618v0,28,-26,54,-54,54v-28,0,-54,-26,-54,-54v0,-28,26,-54,54,-54v28,0,54,26,54,54xm383,-618v0,28,-26,54,-54,54v-28,0,-54,-26,-54,-54v0,-28,26,-54,54,-54v28,0,54,26,54,54"},"\u00ec":{"d":"100,-334v-1,-38,2,-68,-30,-68r-45,0r0,-27v43,-10,79,-18,107,-27r60,-20r1,3v-7,22,-11,60,-11,114r0,268r-5,54r85,9r-4,25r-220,6r0,-29v41,-5,62,-26,62,-65r0,-243xm0,-675r0,-27r87,9r85,171r-31,17","w":277},"\u00ed":{"d":"100,-334v-1,-38,2,-68,-30,-68r-45,0r0,-27v43,-10,79,-18,107,-27r60,-20r1,3v-7,22,-11,60,-11,114r0,268r-5,54r85,9r-4,25r-220,6r0,-29v41,-5,62,-26,62,-65r0,-243xm123,-505r-31,-17r85,-171r87,-9r0,27","w":277},"\u00ee":{"d":"100,-334v-1,-38,2,-68,-30,-68r-45,0r0,-27v43,-10,79,-18,107,-27r60,-20r1,3v-7,22,-11,60,-11,114r0,268r-5,54r85,9r-4,25r-220,6r0,-29v41,-5,62,-26,62,-65r0,-243xm-3,-522r116,-176r39,0r115,176r-30,19r-105,-116r-105,116","w":277},"\u00ef":{"d":"46,-564v-28,0,-54,-26,-54,-54v0,-28,26,-54,54,-54v28,0,54,26,54,54v0,28,-26,54,-54,54xm217,-564v-28,0,-54,-26,-54,-54v0,-28,26,-54,54,-54v28,0,54,26,54,54v0,28,-26,54,-54,54xm100,-334v-1,-38,2,-68,-30,-68r-45,0r0,-27v43,-10,79,-18,107,-27r60,-20r1,3v-7,22,-11,60,-11,114r0,268r-5,54r85,9r-4,25r-220,6r0,-29v41,-5,62,-26,62,-65r0,-243","w":277},"\u00f0":{"d":"37,-208v0,-130,94,-254,228,-254v33,0,63,6,91,17v-21,-57,-51,-107,-89,-150r-135,82r-20,-35r126,-76v-46,-41,-98,-71,-155,-90r10,-26v73,15,139,43,197,84r133,-81r19,35r-119,73v86,77,152,199,154,347v2,159,-82,294,-233,294v-127,0,-207,-99,-207,-220xm276,-426v-97,0,-152,94,-152,199v0,91,42,206,128,205v39,0,70,-21,98,-62v36,-53,50,-164,32,-249v-9,-45,-48,-93,-106,-93","w":526},"\u00f1":{"d":"331,-401v-57,0,-117,35,-149,70r0,240r-5,53r80,10r-4,25r-215,6r0,-29v41,-5,62,-26,62,-65r0,-243v-1,-38,2,-68,-30,-68r-45,0r0,-27v65,-13,119,-29,160,-47r3,3v-6,22,-9,63,-10,122v35,-54,106,-111,190,-111v76,0,114,45,114,135r0,236r-5,53r85,10r-4,25r-215,6r0,-29v38,-4,57,-26,57,-65r0,-214v0,-62,-17,-96,-69,-96xm436,-678v0,66,-21,126,-87,126v-49,0,-68,-39,-96,-62v-35,-29,-69,2,-70,52r-37,0v-2,-59,20,-123,85,-122v50,0,69,39,97,62v19,16,45,15,58,-6v10,-16,12,-29,13,-50r37,0","w":572},"\u00f2":{"d":"257,12v-165,6,-255,-153,-205,-316v29,-92,99,-157,221,-158v136,-2,222,89,221,219v-1,148,-89,250,-237,255xm261,-428v-92,-1,-131,95,-131,190v-1,101,43,216,141,216v157,0,163,-285,71,-372v-23,-21,-49,-34,-81,-34xm132,-675r0,-27r87,9r85,171r-31,17","w":532},"\u00f3":{"d":"257,12v-165,6,-255,-153,-205,-316v29,-92,99,-157,221,-158v136,-2,222,89,221,219v-1,148,-89,250,-237,255xm261,-428v-92,-1,-131,95,-131,190v-1,101,43,216,141,216v157,0,163,-285,71,-372v-23,-21,-49,-34,-81,-34xm255,-505r-31,-17r85,-171r87,-9r0,27","w":532},"\u00f4":{"d":"257,12v-165,6,-255,-153,-205,-316v29,-92,99,-157,221,-158v136,-2,222,89,221,219v-1,148,-89,250,-237,255xm261,-428v-92,-1,-131,95,-131,190v-1,101,43,216,141,216v157,0,163,-285,71,-372v-23,-21,-49,-34,-81,-34xm129,-522r116,-176r39,0r115,176r-30,19r-105,-116r-105,116","w":532},"\u00f5":{"d":"257,12v-165,6,-255,-153,-205,-316v29,-92,99,-157,221,-158v136,-2,222,89,221,219v-1,148,-89,250,-237,255xm261,-428v-92,-1,-131,95,-131,190v-1,101,43,216,141,216v157,0,163,-285,71,-372v-23,-21,-49,-34,-81,-34xm409,-678v0,66,-21,126,-87,126v-49,0,-68,-39,-96,-62v-35,-29,-69,2,-70,52r-37,0v-2,-59,20,-123,85,-122v50,0,68,39,96,62v19,16,47,15,60,-6v10,-16,11,-29,12,-50r37,0","w":532},"\u00f6":{"d":"257,12v-165,6,-255,-153,-205,-316v29,-92,99,-157,221,-158v136,-2,222,89,221,219v-1,148,-89,250,-237,255xm261,-428v-92,-1,-131,95,-131,190v-1,101,43,216,141,216v157,0,163,-285,71,-372v-23,-21,-49,-34,-81,-34xm227,-618v0,28,-26,54,-54,54v-28,0,-54,-26,-54,-54v0,-28,26,-54,54,-54v28,0,54,26,54,54xm408,-618v0,28,-26,54,-54,54v-28,0,-54,-26,-54,-54v0,-28,26,-54,54,-54v28,0,54,26,54,54","w":532},"\u00f7":{"d":"36,-223r0,-55r448,0r0,55r-448,0xm260,1v-32,0,-60,-28,-60,-60v0,-32,28,-60,60,-60v32,0,60,28,60,60v0,32,-28,60,-60,60xm320,-442v0,32,-28,60,-60,60v-32,0,-60,-28,-60,-60v0,-32,28,-60,60,-60v32,0,60,28,60,60","w":520},"\u00f8":{"d":"50,30r55,-73v-63,-55,-83,-163,-53,-261v29,-92,99,-158,221,-158v47,0,87,10,121,30r36,-48r52,0r-54,72v72,60,84,190,41,286v-31,72,-109,135,-212,134v-45,0,-84,-10,-119,-30r-35,48r-53,0xm261,-428v-136,-2,-156,207,-107,318r201,-270v-24,-32,-55,-48,-94,-48xm271,-22v133,0,157,-203,107,-318r-201,270v23,32,55,48,94,48","w":532},"\u00f9":{"d":"385,-100v-37,54,-101,112,-186,112v-75,0,-113,-45,-113,-134r0,-212v-1,-38,2,-68,-30,-68r-35,0r0,-28v65,-11,115,-24,152,-37r4,3v-16,73,-7,224,-9,319v-1,63,15,96,68,96v59,0,111,-35,145,-71r0,-214v-1,-38,2,-68,-30,-68r-33,0r0,-28v64,-11,114,-24,150,-37r4,3v-6,19,-9,54,-9,105r0,264v1,50,10,55,56,57r28,0r-3,27v-73,7,-127,14,-164,20r-4,-3v12,-34,9,-65,9,-106xm142,-675r0,-27r87,9r85,171r-31,17","w":559},"\u00fa":{"d":"385,-100v-37,54,-101,112,-186,112v-75,0,-113,-45,-113,-134r0,-212v-1,-38,2,-68,-30,-68r-35,0r0,-28v65,-11,115,-24,152,-37r4,3v-16,73,-7,224,-9,319v-1,63,15,96,68,96v59,0,111,-35,145,-71r0,-214v-1,-38,2,-68,-30,-68r-33,0r0,-28v64,-11,114,-24,150,-37r4,3v-6,19,-9,54,-9,105r0,264v1,50,10,55,56,57r28,0r-3,27v-73,7,-127,14,-164,20r-4,-3v12,-34,9,-65,9,-106xm265,-505r-31,-17r85,-171r87,-9r0,27","w":559},"\u00fb":{"d":"385,-100v-37,54,-101,112,-186,112v-75,0,-113,-45,-113,-134r0,-212v-1,-38,2,-68,-30,-68r-35,0r0,-28v65,-11,115,-24,152,-37r4,3v-16,73,-7,224,-9,319v-1,63,15,96,68,96v59,0,111,-35,145,-71r0,-214v-1,-38,2,-68,-30,-68r-33,0r0,-28v64,-11,114,-24,150,-37r4,3v-6,19,-9,54,-9,105r0,264v1,50,10,55,56,57r28,0r-3,27v-73,7,-127,14,-164,20r-4,-3v12,-34,9,-65,9,-106xm139,-522r116,-176r39,0r115,176r-30,19r-105,-116r-105,116","w":559},"\u00fc":{"d":"385,-100v-37,54,-101,112,-186,112v-75,0,-113,-45,-113,-134r0,-212v-1,-38,2,-68,-30,-68r-35,0r0,-28v65,-11,115,-24,152,-37r4,3v-16,73,-7,224,-9,319v-1,63,15,96,68,96v59,0,111,-35,145,-71r0,-214v-1,-38,2,-68,-30,-68r-33,0r0,-28v64,-11,114,-24,150,-37r4,3v-6,19,-9,54,-9,105r0,264v1,50,10,55,56,57r28,0r-3,27v-73,7,-127,14,-164,20r-4,-3v12,-34,9,-65,9,-106xm237,-618v0,28,-26,54,-54,54v-28,0,-54,-26,-54,-54v0,-28,26,-54,54,-54v28,0,54,26,54,54xm418,-618v0,28,-26,54,-54,54v-28,0,-54,-26,-54,-54v0,-28,26,-54,54,-54v28,0,54,26,54,54","w":559},"\u00fd":{"d":"22,195v1,-26,19,-41,49,-41v49,0,84,-25,106,-75r32,-75v-10,-29,-18,-50,-24,-65r-128,-306v-14,-31,-33,-51,-56,-58r0,-25r47,0r102,-4r4,4v-12,23,-11,67,-1,92r81,203v7,21,14,41,19,60r113,-258v15,-34,-4,-58,-55,-72r0,-25r139,0r5,16v-12,7,-24,24,-36,53r-211,479v-30,55,-63,134,-142,139v-26,2,-44,-17,-44,-42xm232,-505r-31,-17r85,-171r87,-9r0,27","w":461},"\u00fe":{"d":"395,-215v0,-94,-42,-190,-131,-189v-35,0,-70,14,-106,42r0,282v0,36,24,54,72,54v106,1,165,-80,165,-189xm24,216v40,-23,52,-37,52,-94r0,-721v-1,-38,2,-68,-30,-68r-42,0r0,-27v58,-12,118,-29,161,-45r3,3v-19,87,-5,243,-12,352v32,-44,72,-76,144,-78v115,-4,183,104,182,218v0,143,-102,262,-257,256v-19,0,-42,-2,-67,-6r0,115r-5,57r105,0r-4,24v-105,13,-182,27,-230,43r0,-29","w":520},"\u00ff":{"d":"22,195v1,-26,19,-41,49,-41v49,0,84,-25,106,-75r32,-75v-10,-29,-18,-50,-24,-65r-128,-306v-14,-31,-33,-51,-56,-58r0,-25r47,0r102,-4r4,4v-12,23,-11,67,-1,92r81,203v7,21,14,41,19,60r113,-258v15,-34,-4,-58,-55,-72r0,-25r139,0r5,16v-12,7,-24,24,-36,53r-211,479v-30,55,-63,134,-142,139v-26,2,-44,-17,-44,-42xm385,-618v0,28,-26,54,-54,54v-28,0,-54,-26,-54,-54v0,-28,26,-54,54,-54v28,0,54,26,54,54xm204,-618v0,28,-26,54,-54,54v-28,0,-54,-26,-54,-54v0,-28,26,-54,54,-54v28,0,54,26,54,54","w":461},"\u0152":{"d":"398,12v-201,0,-354,-145,-353,-335v0,-95,33,-178,100,-249v67,-71,155,-107,266,-107v34,0,128,13,159,12r293,0r72,-4r-31,167r-34,0v4,-96,-18,-124,-108,-124r-131,0r-10,10r0,260r185,0r8,-57r37,-6r0,176r-47,0r0,-74r-173,0r-10,10r0,214r-5,56r157,0v41,0,69,-7,85,-21v16,-14,37,-48,63,-103r34,0r-37,163r-352,0v-43,-1,-127,12,-168,12xm423,-639v-214,0,-324,195,-261,401v35,115,116,208,264,210v71,0,107,-21,107,-63r0,-488v0,-40,-37,-60,-110,-60","w":992},"\u0153":{"d":"257,12v-165,0,-255,-153,-205,-316v29,-92,99,-158,221,-158v85,0,144,32,179,96v41,-64,98,-96,169,-96v94,0,175,68,174,166v-17,7,-33,11,-46,13r-248,37r-11,12v4,99,58,179,162,179v51,0,96,-16,130,-48r11,21v-34,50,-94,93,-179,94v-75,0,-130,-32,-167,-97v-44,65,-107,97,-190,97xm261,-428v-92,-1,-131,95,-131,190v-1,101,43,216,141,216v157,0,163,-285,71,-372v-23,-21,-49,-34,-81,-34xm702,-310v-7,-58,-32,-114,-96,-114v-71,0,-106,71,-114,141","w":832},"\u0178":{"d":"177,-29v38,-4,71,-24,72,-62r0,-204r-192,-303v-13,-19,-30,-40,-53,-44r0,-25r48,0r102,-4r4,4v-13,25,-12,49,2,72r124,200v7,11,17,30,29,56r149,-241v21,-34,-2,-57,-40,-62r0,-25r163,0r4,14v-26,9,-49,29,-69,61r-183,295r0,206r-5,51r90,9r-4,28r-241,6r0,-32xm413,-739v-28,0,-54,-26,-54,-54v0,-28,26,-54,54,-54v28,0,54,26,54,54v0,28,-26,54,-54,54xm182,-739v-28,0,-54,-26,-54,-54v0,-28,26,-54,54,-54v28,0,54,26,54,54v0,28,-26,54,-54,54","w":585},"\u02c6":{"d":"115,-522r116,-176r39,0r115,176r-30,19r-105,-116r-105,116","w":500},"\u02dc":{"d":"395,-678v0,66,-21,126,-87,126v-49,0,-68,-39,-96,-62v-35,-29,-69,2,-70,52r-37,0v-2,-59,20,-123,85,-122v50,0,68,39,96,62v19,16,47,15,60,-6v10,-16,11,-29,12,-50r37,0","w":500},"\u2013":{"d":"63,-226r0,-55r410,0r0,55r-410,0","w":536},"\u2014":{"d":"63,-226r0,-55r800,0r0,55r-800,0","w":926},"\u2018":{"d":"43,-577v0,-59,33,-110,99,-154r22,24v-80,65,-94,106,2,155r0,35r-77,41v-31,-29,-46,-62,-46,-101","w":202},"\u2019":{"d":"44,-656r0,-35r77,-41v31,29,46,62,46,101v0,59,-33,110,-99,154r-22,-24v80,-65,94,-106,-2,-155","w":201},"\u201a":{"d":"55,-43r0,-35r77,-41v31,29,46,62,46,101v0,59,-33,110,-99,154r-22,-24v80,-65,94,-106,-2,-155","w":233},"\u201c":{"d":"205,-577v0,-59,33,-110,99,-154r22,24v-80,65,-94,106,2,155r0,35r-77,41v-31,-29,-46,-62,-46,-101xm43,-577v0,-59,33,-110,99,-154r22,24v-80,65,-94,106,2,155r0,35r-77,41v-31,-29,-46,-62,-46,-101","w":364},"\u201d":{"d":"44,-656r0,-35r77,-41v31,29,46,62,46,101v0,59,-33,110,-99,154r-22,-24v80,-65,94,-106,-2,-155xm206,-656r0,-35r77,-41v31,29,46,62,46,101v0,59,-33,110,-99,154r-22,-24v80,-65,94,-106,-2,-155","w":363},"\u201e":{"d":"55,-43r0,-35r77,-41v31,29,46,62,46,101v0,59,-33,110,-99,154r-22,-24v80,-65,94,-106,-2,-155xm215,-43r0,-35r77,-41v31,29,46,62,46,101v0,59,-33,110,-99,154r-22,-24v80,-65,94,-106,-2,-155","w":393},"\u2022":{"d":"327,-256v0,76,-62,138,-138,138v-77,0,-138,-62,-138,-138v0,-76,62,-138,138,-138v77,0,138,62,138,138","w":378},"\u2026":{"d":"117,12v-32,0,-60,-28,-60,-60v0,-32,28,-60,60,-60v32,0,60,28,60,60v0,32,-28,60,-60,60xm387,12v-32,0,-60,-28,-60,-60v0,-32,28,-60,60,-60v32,0,60,28,60,60v0,32,-28,60,-60,60xm657,12v-32,0,-60,-28,-60,-60v0,-32,28,-60,60,-60v32,0,60,28,60,60v0,32,-28,60,-60,60","w":774},"\u2039":{"d":"37,-249r0,-4v23,-17,96,-86,218,-209r29,10r-131,201r131,201r-29,10v-123,-124,-196,-194,-218,-209","w":329},"\u203a":{"d":"45,-50r131,-201r-131,-201r29,-10v122,123,195,192,218,209r0,4v-22,15,-95,85,-218,209","w":329},"\u20ac":{"d":"327,12v-137,2,-217,-93,-238,-210r-56,0r0,-40r51,0v-2,-21,-1,-38,1,-68r-52,0r0,-40r59,0v28,-115,112,-220,249,-219v52,0,105,11,159,33r-32,107r-30,0v-1,-71,-33,-102,-108,-102v-93,1,-141,91,-152,181r267,0r-12,40r-258,0v0,25,1,50,4,68r235,0r-12,40r-215,0v21,80,68,153,160,155v52,0,107,-13,134,-33r14,22v-36,36,-94,65,-168,66","w":529},"\u2122":{"d":"258,-592v4,-49,-27,-52,-73,-50r0,199r-2,22r40,4r-1,18r-120,2r0,-20v19,-1,28,-10,28,-26r0,-199v-51,-3,-65,11,-81,50r-22,0r13,-77v68,5,145,1,217,2r34,-2r-12,77r-21,0xm639,-667v-8,9,-12,32,-12,51r8,176r-1,20r36,3r-3,18r-115,2r0,-20v19,-1,28,-9,28,-23r-7,-197r-90,239r-25,-4r-85,-230r-10,212r37,3r-2,18r-93,2r0,-20v18,-1,28,-10,29,-25r8,-178v1,-26,-8,-22,-33,-30r0,-17r111,-2r57,163r6,23r69,-184r85,-2","w":713}}});
