/*!
 * The following copyright notice may not be removed under any circumstances.
 * 
 * Copyright:
 * © 2009 exljbris Font Foundry. All rights reserved.
 * 
 * Trademark:
 * Calluna is a trademark of exljbris Font Foundry.
 * 
 * Description:
 * Calluna is a trademark of exljbris Font Foundry.
 * 
 * Designer:
 * Jos Buivenga
 * 
 * Vendor URL:
 * http://www.exljbris.com
 * 
 * License information:
 * http://www.exljbris.com
 */
Cufon.registerFont({"w":748,"face":{"font-family":"Calluna","font-weight":400,"font-style":"italic","font-stretch":"normal","units-per-em":"1000","panose-1":"0 0 5 0 0 0 0 0 0 0","ascent":"750","descent":"-250","x-height":"12","cap-height":"3","bbox":"-115 -871 963 249","underline-thickness":"50","underline-position":"-50","slope":"-12","unicode-range":"U+0020-U+2122"},"glyphs":{" ":{"w":225},"!":{"d":"98,-176r53,-480r123,-36r2,3v-11,21,-23,57,-37,108r-116,405r-25,0xm140,-66v0,39,-28,78,-70,78v-29,0,-43,-14,-43,-43v0,-40,27,-77,69,-77v29,0,44,14,44,42","w":265},"\"":{"d":"236,-431r47,-236r77,0r-7,37r-81,199r-36,0xm88,-431r47,-236r77,0r-7,37r-81,199r-36,0","w":326},"#":{"d":"53,-327r11,-45r130,0r57,-206r48,0r-56,206r161,0r57,-206r48,0r-56,206r137,0r-11,45r-139,0r-41,152r140,0r-11,45r-142,0r-59,219r-49,0r60,-219r-162,0r-59,219r-49,0r60,-219r-126,0r11,-45r127,0r42,-152r-129,0xm230,-327r-41,152r161,0r42,-152r-162,0","w":601},"$":{"d":"130,6v-59,-4,-130,-26,-132,-81v0,-23,11,-53,32,-90r31,0v-15,73,12,130,77,137r47,-215v-38,-25,-49,-32,-80,-62v-25,-23,-39,-50,-39,-93v0,-93,88,-160,189,-161r20,-87r40,0r-19,87v38,1,84,11,117,16r-36,140r-31,0v2,-40,6,-73,-14,-97v-10,-13,-25,-21,-44,-24r-47,209v50,34,70,42,101,91v39,63,20,144,-36,184v-38,28,-83,43,-136,46r-18,83r-40,0xm178,-28v54,-6,109,-37,108,-95v0,-33,-22,-65,-66,-97xm248,-525v-54,4,-107,36,-107,92v0,33,22,64,65,95","w":419},"%":{"d":"43,0r578,-672r36,29r-555,643r-59,0xm366,-533v0,86,-88,175,-172,175v-72,0,-121,-51,-121,-122v0,-86,84,-177,171,-177v72,0,122,52,122,124xm125,-485v0,46,28,83,73,83v58,0,115,-66,115,-127v0,-46,-28,-83,-73,-83v-58,0,-115,66,-115,127xm457,12v-72,0,-121,-51,-121,-122v0,-86,84,-177,171,-177v72,0,122,52,122,124v0,86,-88,175,-172,175xm503,-242v-58,0,-115,66,-115,127v0,46,28,83,73,83v58,0,115,-66,115,-127v0,-46,-28,-83,-73,-83","w":682},"&":{"d":"177,12v-89,1,-168,-55,-168,-147v0,-85,61,-131,109,-168v17,-12,39,-27,67,-44v-19,-51,-29,-97,-29,-140v1,-105,70,-192,185,-192v73,0,126,33,126,104v1,86,-61,134,-113,169r-79,55v32,73,76,147,131,222v58,-52,122,-124,125,-214v1,-41,-23,-68,-62,-71r0,-25v55,-19,120,-20,120,53v0,43,-15,90,-45,142v-30,52,-69,99,-117,142v56,71,97,112,123,121r-15,23v-53,-15,-107,-48,-163,-101v-69,47,-134,71,-195,71xm89,-142v-1,70,45,107,114,107v43,0,90,-17,143,-50v-62,-67,-111,-143,-147,-226v-73,53,-110,109,-110,169xm335,-641v-61,-1,-100,70,-100,135v0,37,9,77,26,121v83,-58,125,-121,125,-190v0,-44,-17,-66,-51,-66","w":610},"'":{"d":"88,-431r47,-236r77,0r-7,37r-81,199r-36,0","w":178},"(":{"d":"187,175v-100,-101,-178,-300,-137,-509v28,-146,95,-253,176,-342r11,-10r33,12v-98,131,-187,354,-145,592v18,100,51,176,95,242","w":294},")":{"d":"113,-686v69,80,124,207,125,361v0,155,-51,297,-154,425v-26,33,-50,58,-71,75r-30,-15v40,-44,88,-126,118,-192v31,-71,63,-197,63,-302v0,-125,-32,-243,-86,-340","w":281},"*":{"d":"290,-522v-5,-5,-8,-12,-10,-21r-30,-117v-3,-28,45,-35,69,-20v9,5,13,11,11,20r-30,117xm118,-537v-27,-18,-4,-61,16,-71v10,-5,18,-5,24,1r86,85v7,6,11,12,13,19v-7,1,-14,1,-23,-2xm323,-503v2,-7,6,-13,13,-19r86,-84v31,-13,50,18,52,48v0,10,-2,19,-11,21r-117,32v-9,3,-16,3,-23,2xm422,-361r-86,-85v-7,-6,-11,-12,-13,-19v7,-1,14,-1,23,2r116,32v18,8,13,33,5,49v-6,11,-29,36,-45,21xm158,-362v-31,13,-50,-18,-52,-48v0,-10,2,-19,11,-21r117,-32v9,-3,16,-3,23,-2v-2,7,-6,13,-13,19xm250,-308r30,-117r10,-21v5,5,8,12,10,21r30,117v3,28,-45,35,-69,20v-9,-5,-13,-11,-11,-20","w":500},"+":{"d":"31,-223r0,-55r196,0r0,-210r59,0r0,210r193,0r0,55r-193,0r0,223r-59,0r0,-223r-196,0","w":520},",":{"d":"7,-43r7,-35r86,-41v17,19,26,50,26,93v0,46,-12,83,-36,112v-24,29,-57,58,-101,85r-20,-29v42,-27,88,-48,88,-114v0,-35,-26,-61,-50,-71","w":220},"-":{"d":"54,-217r0,-66r236,0r0,66r-236,0","w":354},".":{"d":"124,-66v0,39,-28,78,-70,78v-29,0,-43,-14,-43,-43v0,-40,27,-77,69,-77v29,0,44,14,44,42","w":217},"\/":{"d":"-12,196r-64,0r377,-863r64,0","w":299},"0":{"d":"230,12v-118,2,-179,-81,-183,-196v-5,-145,106,-298,252,-298v116,0,184,81,184,191v0,110,-50,203,-119,256v-41,31,-85,47,-134,47xm298,-435v-102,0,-174,151,-170,259v3,73,33,141,103,141v130,0,222,-238,143,-361v-17,-27,-43,-39,-76,-39","w":543},"1":{"d":"6,5r0,-34v60,-1,82,-16,93,-64r62,-284v11,-56,-14,-57,-72,-59r0,-34r250,0r-4,32r-87,11r-73,334r-16,53r96,10r-3,30","w":353},"2":{"d":"240,-482v76,0,132,37,131,115v0,42,-23,87,-69,135v-46,48,-111,103,-194,164v74,-5,165,15,204,-30v23,-27,22,-25,44,-58r29,0r-64,156r-320,0r-1,-31v82,-62,145,-111,185,-149v53,-50,99,-90,99,-172v0,-46,-30,-71,-76,-71v-36,0,-74,16,-115,47r-16,-25v26,-35,99,-80,163,-81","w":451},"3":{"d":"151,-184v76,9,137,49,137,127v0,70,-35,130,-106,178v-77,52,-153,77,-248,72r0,-35v66,-2,126,-22,182,-60v56,-38,84,-88,84,-151v1,-72,-71,-91,-145,-86r0,-46v69,-2,192,-94,192,-165v0,-47,-31,-72,-74,-73v-33,0,-70,16,-111,47r-15,-25v28,-32,100,-80,162,-81v71,-1,126,43,125,111v0,39,-20,76,-58,109v-38,33,-80,59,-125,78","w":384},"4":{"d":"-15,-34r-1,-30r373,-404r54,-16r1,3v-36,108,-62,266,-91,388r123,0r-23,59r-113,0v-15,66,-38,162,-39,222r-80,7v0,-47,28,-168,42,-229r-246,0xm65,-93r179,0r44,-199v3,-16,9,-37,18,-63","w":506},"5":{"d":"-53,158v127,4,274,-86,272,-205v0,-57,-42,-98,-126,-124v-24,-7,-46,-12,-66,-15r76,-284r196,0r67,-6r-25,77r-216,0r-38,144v101,22,216,70,216,190v0,111,-86,191,-172,227v-59,24,-115,35,-184,31r0,-35","w":390},"6":{"d":"214,12v-161,0,-194,-183,-150,-332v43,-146,128,-270,264,-328v48,-21,100,-31,155,-31r0,35v-186,15,-284,165,-329,322v-14,51,-21,100,-21,147v0,78,19,153,86,153v43,0,79,-26,107,-77v28,-51,43,-103,43,-154v0,-66,-22,-125,-84,-125v-18,-1,-35,7,-49,10r0,-32v23,-17,49,-25,78,-25v145,0,165,168,111,283v-34,74,-110,154,-211,154","w":499},"7":{"d":"176,-393v-73,2,-68,15,-105,67r-29,0r48,-144r314,0r61,-4r0,27v-29,31,-50,58,-65,81r-334,524v-11,21,-52,53,-75,24v-19,-41,21,-65,42,-90v94,-111,240,-331,340,-489v-69,8,-126,3,-197,4","w":450},"8":{"d":"195,12v-88,0,-167,-53,-167,-144v0,-46,16,-86,48,-120v32,-34,76,-68,133,-103v-55,-57,-82,-110,-82,-159v-2,-95,94,-165,193,-165v84,0,154,49,154,129v0,73,-52,115,-96,142r-69,43v44,46,61,58,89,113v70,137,-72,264,-203,264xm197,-22v90,0,179,-108,123,-202v-30,-50,-40,-57,-84,-103v-87,55,-130,120,-130,193v0,61,30,112,91,112xm312,-645v-59,0,-107,55,-107,114v0,40,26,86,77,139v37,-23,64,-48,84,-70v49,-55,37,-183,-54,-183","w":491},"9":{"d":"286,-482v161,-3,195,180,150,329v-43,142,-129,262,-264,317v-48,20,-100,30,-155,30r0,-35v184,-14,284,-155,329,-309v14,-50,21,-98,21,-145v0,-78,-19,-153,-86,-153v-66,0,-110,75,-128,132v-11,35,-17,68,-17,99v0,62,22,119,79,120v16,-1,36,-5,49,-10r0,32v-23,17,-49,25,-78,25v-141,0,-160,-165,-107,-278v34,-73,108,-152,207,-154","w":510},":":{"d":"141,-66v0,39,-28,78,-70,78v-29,0,-43,-14,-43,-43v0,-40,27,-77,69,-77v29,0,44,14,44,42xm209,-409v0,39,-28,78,-70,78v-29,0,-43,-14,-43,-43v0,-40,27,-77,69,-77v29,0,44,14,44,42","w":256},";":{"d":"205,-409v0,39,-28,78,-70,78v-29,0,-43,-14,-43,-43v0,-40,27,-77,69,-77v29,0,44,14,44,42xm29,-43r7,-35r86,-41v17,19,26,50,26,93v0,46,-12,83,-36,112v-24,29,-57,58,-101,85r-20,-29v42,-27,88,-48,88,-114v0,-35,-26,-61,-50,-71","w":257},"<":{"d":"17,-226r0,-46r426,-229r15,58r-369,194r369,204r-15,57","w":520},"=":{"d":"30,-318r0,-55r448,0r0,55r-448,0xm30,-128r0,-55r448,0r0,55r-448,0","w":520},">":{"d":"71,12r-15,-57r369,-204r-369,-194r15,-58r426,229r0,46","w":520},"?":{"d":"100,-176v-35,-67,16,-133,50,-170v31,-33,68,-67,94,-103v12,-17,18,-31,18,-44v0,-35,-41,-73,-124,-114r-29,-14r35,-78r42,21r41,24v42,27,92,61,116,106v39,70,-29,125,-69,160v-42,37,-93,72,-126,117v-21,31,-31,55,-18,90xm133,-65v0,39,-28,77,-70,77v-29,0,-43,-15,-43,-44v0,-39,27,-76,69,-76v29,0,44,14,44,43","w":330},"@":{"d":"314,166v-170,-4,-300,-145,-298,-321v2,-172,108,-310,228,-379v69,-40,141,-61,217,-61v174,0,309,126,304,300v-5,176,-109,294,-287,299v-26,2,-51,5,-76,9r-5,-4v8,-22,16,-61,21,-91v-35,43,-86,94,-148,94v-59,0,-91,-59,-91,-128v0,-156,160,-345,318,-338v26,1,54,4,75,9r-14,45v-22,82,-35,171,-53,257v-9,41,-13,67,-13,76v0,24,8,31,31,31v46,0,79,-22,109,-49v39,-36,62,-107,62,-186v0,-163,-90,-278,-253,-278v-201,0,-353,182,-353,385v0,161,96,281,236,290xm266,-136v0,45,13,84,50,84v27,0,61,-18,103,-53r61,-309v-88,2,-156,83,-186,153v-19,43,-28,84,-28,125","w":808},"A":{"d":"-58,0r0,-29v31,-3,55,-18,71,-45r340,-590r41,-9r98,568v13,55,9,68,56,77r-3,28r-179,4r0,-32v28,-1,51,-12,47,-42r-26,-160r-226,0r-14,9r-102,181r79,12r-3,28r-179,0xm342,-508v-3,-14,-5,-30,-6,-49r-162,287r206,0","w":592},"B":{"d":"517,-212v0,135,-132,216,-283,212r-101,0r-129,3r0,-32v45,-5,71,-26,78,-62r96,-478v5,-27,4,-43,-2,-51v-6,-8,-26,-15,-61,-22r0,-25v172,6,419,-40,419,132v0,92,-73,149,-146,179v66,21,129,57,129,144xm151,-37v95,4,185,-7,227,-55v26,-29,42,-59,43,-106v3,-92,-75,-132,-198,-127r-12,10r-44,221xm440,-518v-3,-67,-38,-115,-114,-112r-43,0r-12,10r-50,258r87,0v61,0,135,-86,132,-156","w":576},"C":{"d":"330,12v-158,0,-276,-121,-276,-290v0,-223,175,-401,402,-401v34,0,173,19,195,22r-39,153r-34,0v12,-91,-34,-137,-137,-137v-127,0,-220,82,-260,175v-23,51,-34,106,-34,165v0,177,132,286,309,237v45,-12,65,-20,94,-37r11,23v-51,48,-130,89,-231,90","w":634},"D":{"d":"679,-397v2,244,-194,402,-446,397r-98,0r-130,3r0,-32v45,-5,71,-26,78,-62r95,-478v5,-27,4,-43,-2,-51v-6,-8,-26,-15,-61,-22r0,-25v123,4,258,-11,360,15v117,31,203,108,204,255xm585,-386v-1,-146,-79,-248,-233,-244r-70,0r-10,10r-104,525r-16,58r83,0v207,4,352,-146,350,-349","w":707},"E":{"d":"5,3r0,-32v45,-5,71,-26,78,-62r95,-478v5,-27,4,-43,-2,-51v-6,-8,-26,-15,-61,-22r0,-25r377,0r74,-4r-47,167r-34,0v18,-90,3,-126,-77,-126r-124,0r-12,10r-52,263r176,0r18,-64r37,0r-35,176r-45,0r15,-75r-163,0r-12,10r-43,215r-16,58v79,-4,185,14,230,-23v18,-15,44,-50,77,-103r34,0r-58,163r-296,0","w":554},"F":{"d":"5,3r0,-32v45,-5,71,-28,79,-67r94,-473v5,-27,4,-43,-2,-51v-6,-8,-26,-15,-61,-22r0,-25r370,0r74,-4r-47,167r-32,0v19,-89,1,-126,-79,-126r-117,0r-12,10r-52,268r168,0r19,-63r36,-1r-35,176r-44,0r15,-75r-157,0r-12,10r-42,211r-15,54r104,9r-3,28","w":508},"G":{"d":"352,12v-174,0,-302,-108,-299,-286v2,-114,45,-207,103,-274v63,-75,177,-131,313,-131v33,0,175,19,196,22r-38,153r-34,0v12,-91,-32,-139,-134,-139v-133,0,-234,90,-277,185v-24,52,-36,107,-36,165v-2,152,86,264,235,263v29,0,63,-5,100,-14r28,-144v11,-60,-15,-64,-68,-73r0,-25r203,0r3,14v-27,13,-48,56,-56,95r-33,163v-21,1,-178,26,-206,26","w":678},"H":{"d":"5,3r0,-32v45,-7,71,-27,78,-61r95,-477v15,-62,0,-59,-55,-75r0,-25r79,0r107,-4r4,4v-26,25,-44,66,-55,121r-37,187r353,0r11,-9r40,-199v15,-62,0,-59,-55,-75r0,-25r79,0r107,-4r4,4v-26,25,-44,66,-55,121r-89,447r-16,59r84,9r-3,28r-229,6r0,-32v45,-7,71,-27,78,-61r45,-229r-354,0r-10,9r-42,211r-16,59r84,9r-3,28","w":765},"I":{"d":"5,3r0,-32v44,-6,71,-26,78,-61r95,-479v15,-61,-1,-57,-55,-73r0,-25r79,0r106,-4r4,4v-26,25,-44,66,-55,121r-88,445r-17,61r84,9r-3,28","w":318},"J":{"d":"68,-50r104,-519v13,-61,-3,-57,-56,-73r0,-25r79,0r108,-4r3,4v-25,25,-44,66,-55,121r-88,444v-17,89,-45,155,-84,199v-39,44,-85,66,-139,66r-6,-24v27,-4,54,-23,80,-56v26,-33,43,-78,54,-133","w":296},"K":{"d":"5,3r0,-32v45,-7,71,-27,78,-61r95,-479v15,-60,-1,-57,-55,-73r0,-25r79,0r106,-4r4,4v-59,57,-66,199,-90,298r17,0v8,-5,19,-14,33,-26r228,-197v26,-19,24,-47,-16,-50r0,-25r180,0r4,14v-32,7,-78,36,-137,87r-222,191r0,12r180,273v17,25,29,40,35,46v7,7,25,11,42,12r-3,32r-132,0r-2,-3v-1,-20,-19,-55,-53,-106r-144,-218r-19,0r-44,226r-17,61r84,9r-3,28","w":611},"L":{"d":"5,3r0,-32v44,-5,71,-26,78,-62r95,-478v15,-61,-1,-57,-55,-73r0,-25r80,0r106,-4r4,4v-26,25,-44,66,-55,121r-90,452r-16,57r156,0v39,4,66,-13,84,-29v30,-27,61,-82,84,-117r34,0r-66,183r-306,0","w":534},"M":{"d":"-5,3r0,-32v45,-5,71,-26,80,-62r112,-478v7,-24,7,-40,1,-49v-6,-9,-28,-17,-63,-24r0,-25r82,0r99,-4r2,4v1,31,5,62,10,92r72,401v3,27,5,44,6,51r278,-474r37,-70r125,-4r4,4v-25,29,-42,71,-51,126r-70,453r-12,51r81,6r-3,28r-230,6r0,-32v40,-5,74,-23,80,-59r77,-494r-340,582r-31,-12r-106,-566r-11,37r-106,450r-16,54r79,6r-3,28","w":862},"N":{"d":"4,3r0,-32v45,-5,73,-26,80,-62r89,-450v17,-73,8,-91,-58,-101r0,-25r36,0r101,-4v5,15,13,33,24,52r259,439v9,16,17,31,24,46r85,-430v16,-57,-5,-69,-62,-75r0,-28r187,0r2,14v-43,15,-76,51,-86,102r-111,556r-26,0r-302,-514v-11,-18,-20,-36,-26,-55r-93,473r-15,54r78,6r-3,28","w":738},"O":{"d":"336,12v-165,0,-284,-128,-281,-291v1,-113,43,-207,99,-274v58,-71,159,-126,283,-126v164,0,281,118,281,279v0,216,-165,412,-382,412xm624,-385v0,-129,-62,-257,-189,-256v-124,1,-212,98,-253,191v-73,165,-24,420,156,424v160,3,286,-191,286,-359"},"P":{"d":"459,-489v1,-102,-71,-144,-176,-141r-11,10r-104,526r-15,54r89,9r-3,28r-234,6r0,-32v45,-5,71,-26,78,-62r95,-478v5,-27,4,-43,-2,-51v-6,-8,-26,-15,-61,-22r0,-25r226,0v112,0,211,47,211,158v0,136,-141,243,-280,229r0,-28v110,-2,186,-78,187,-181","w":537},"Q":{"d":"523,147v82,1,177,-25,218,-64r7,26v-89,104,-252,130,-408,81v-51,-16,-122,-45,-212,-87r0,-24v50,-8,182,-43,216,-67v-174,6,-289,-125,-288,-295v1,-110,44,-203,99,-269v57,-70,157,-127,279,-127v175,0,287,115,285,291v-3,214,-137,324,-283,401v-54,28,-115,52,-182,72v91,41,180,62,269,62xm344,-26v156,0,286,-197,281,-363v-3,-95,-27,-167,-84,-213v-73,-60,-188,-45,-259,16v-76,65,-131,175,-133,304v-2,129,69,256,195,256"},"R":{"d":"5,3r0,-32v45,-5,71,-26,78,-62r95,-478v5,-27,4,-43,-2,-51v-6,-8,-26,-15,-61,-22r0,-25v132,4,304,-17,377,42v57,46,66,124,31,191v-32,61,-93,97,-157,120r0,13r105,202v15,29,28,50,49,62v7,3,23,4,34,5r-4,32r-131,0r-4,-3v-30,-97,-97,-203,-141,-294r-56,0r-12,10r-39,196r-14,51r84,9r-3,28xm295,-335v76,-4,157,-81,157,-172v0,-94,-62,-130,-168,-123r-12,10r-57,285r80,0","w":589},"S":{"d":"419,-173v3,116,-103,186,-215,185v-49,0,-91,-8,-128,-24v-52,-24,-66,-53,-49,-110v7,-26,11,-39,20,-58r34,0v2,94,29,157,127,156v70,0,130,-45,126,-120v-5,-103,-92,-146,-152,-198v-40,-35,-84,-83,-84,-152v1,-111,98,-189,220,-185v22,0,77,6,166,19r-41,156r-34,0v8,-55,2,-109,-39,-127v-82,-35,-194,10,-189,104v5,85,70,121,119,163v56,48,116,92,119,191","w":482},"T":{"d":"235,-630v-91,5,-112,45,-145,126r-34,0r42,-169v16,4,37,6,63,6r447,0v23,0,50,-3,69,-6r-42,169r-34,0v8,-89,3,-126,-77,-126r-102,0r-12,10r-104,526r-15,54r93,9r-3,28r-238,6r0,-32v45,-5,72,-27,79,-65r106,-536r-93,0","w":610},"U":{"d":"168,-186v-3,95,63,153,152,153v116,0,212,-93,234,-203r65,-328v11,-60,-5,-70,-62,-75r0,-28r190,0r2,14v-42,16,-76,52,-86,102r-64,321v-22,136,-143,242,-287,242v-129,0,-230,-62,-227,-195v0,-21,3,-46,8,-74r62,-312v10,-64,-2,-56,-57,-73r0,-25r80,0r109,-4v6,6,0,4,-8,16v-15,23,-38,70,-45,109r-60,303v-4,21,-6,40,-6,57","w":700},"V":{"d":"218,-3r-103,-584v-5,-27,-26,-49,-50,-55r0,-25r68,0r88,-4r3,4v-19,34,-25,65,-20,92r68,405r6,50r253,-432v28,-46,22,-74,-28,-90r0,-25r151,0r4,14v-22,14,-50,50,-83,107r-325,555","w":586},"W":{"d":"573,-3r-85,-480r-237,492r-37,-12r-103,-584v-6,-26,-26,-49,-50,-55r0,-25r61,0r98,-4r3,4v-20,33,-28,63,-23,92r67,398v3,17,4,32,5,46r204,-420v-5,-26,-6,-53,-22,-69v-13,-13,-20,-17,-34,-22r0,-25r61,0r98,-4r3,4v-20,33,-28,63,-23,92r67,401v3,17,4,32,5,46r207,-427v23,-45,18,-71,-29,-87r0,-25r150,0r4,14v-33,19,-63,66,-84,108r-268,554","w":909},"X":{"d":"-35,0r0,-32v37,-3,67,-15,86,-37r221,-262r-120,-267v-11,-23,-31,-38,-61,-44r0,-25r61,0r90,-4r3,4v-9,27,-9,51,0,72r88,206r162,-193v26,-27,14,-55,-25,-60r0,-25r165,0r5,16v-25,5,-53,25,-83,60r-206,245r139,310r48,8r-3,28r-192,4r0,-32v29,-5,55,-9,42,-40r-95,-221r-208,249r84,10r-3,30r-198,0","w":591},"Y":{"d":"125,3r0,-32v45,-5,71,-26,78,-62r41,-206r-122,-301v-9,-21,-24,-41,-47,-44r0,-25r52,0r86,-4v5,4,0,8,-1,15v-2,12,-7,50,2,61r77,197v6,17,12,36,18,58r191,-239v24,-29,13,-57,-26,-63r0,-25r162,0r4,14v-24,7,-50,27,-77,61r-235,294r-40,204r-15,54r84,9r-3,28","w":560},"Z":{"d":"-10,4r-5,-36v15,-13,37,-37,66,-71r413,-484v15,-17,28,-32,39,-43r-219,0v-37,0,-64,9,-84,26v-20,17,-42,50,-66,100r-34,0r41,-163r404,0r58,-4r11,31v-16,16,-39,41,-68,76r-411,485v-7,9,-21,23,-40,42r230,0v39,0,70,-9,93,-29v23,-20,53,-59,90,-117r34,0r-74,183r-420,0","w":595},"[":{"d":"53,155r71,-822r183,0r-3,45r-118,0r-65,732r118,0r-3,45r-183,0","w":300},"\\":{"d":"335,196r-287,-863r64,0r288,863r-65,0","w":403},"]":{"d":"-7,110r117,0r65,-732r-118,0r3,-45r183,0r-71,822r-182,0","w":306},"^":{"d":"41,-250r214,-429r50,0r214,429r-66,0r-174,-350r-174,350r-64,0","w":550},"_":{"d":"-49,37r500,0r0,47r-500,0r0,-47","w":532},"`":{"d":"339,-504r-110,-171r0,-27r84,9r57,173","w":500},"a":{"d":"293,-120v-37,55,-88,132,-175,132v-68,0,-104,-58,-102,-136v3,-119,57,-221,133,-282v46,-37,97,-56,154,-56v41,0,107,20,147,9r2,3v-31,69,-54,218,-76,308v-10,42,-14,67,-14,75v0,15,7,23,21,23v17,0,37,-11,61,-32r4,29v-41,39,-80,59,-118,59v-65,0,-50,-86,-35,-132r-2,0xm152,-48v37,0,73,-26,108,-75v58,-81,73,-177,97,-285v-19,-14,-40,-21,-63,-21v-46,0,-90,31,-130,93v-40,62,-60,130,-60,203v0,57,16,85,48,85","w":494},"b":{"d":"166,12v-29,0,-110,-17,-145,-11r-3,-3v1,-25,8,-70,22,-134r101,-453v5,-23,8,-39,8,-46v2,-30,-30,-34,-64,-32r0,-27v75,-11,126,-25,154,-43r3,3v-14,129,-53,283,-84,404r2,0v37,-55,88,-132,175,-132v72,0,111,66,109,150v-2,83,-31,156,-68,212v-40,60,-114,112,-210,112xm102,-41v17,13,39,19,66,19v52,0,97,-30,134,-88v37,-58,55,-122,54,-192v0,-67,-18,-100,-53,-100v-72,0,-155,137,-169,199r-21,90","w":480},"c":{"d":"175,12v-98,2,-155,-81,-154,-179v2,-107,50,-197,119,-249v40,-30,85,-46,135,-46v48,0,123,14,123,59v1,23,-16,40,-38,40v-15,0,-31,-11,-48,-33v-17,-22,-35,-33,-54,-33v-87,-2,-154,139,-152,234v2,81,36,146,119,144v44,0,89,-23,111,-44r4,27v-34,41,-89,79,-165,80","w":403},"d":{"d":"458,-47v-20,23,-73,59,-116,59v-33,0,-50,-18,-50,-53v0,-23,4,-49,12,-79v-6,2,-6,10,-10,14v-36,50,-88,118,-172,118v-70,0,-109,-56,-107,-137v1,-86,36,-163,77,-220v52,-74,158,-139,285,-110r28,-129v6,-30,9,-47,9,-51v2,-30,-30,-34,-64,-32r0,-27v75,-11,126,-25,154,-43r3,3v-3,42,-12,95,-26,158r-96,434v-9,39,-13,64,-13,75v0,15,7,23,20,23v17,0,38,-11,62,-32xm158,-48v38,0,74,-26,110,-74v52,-70,69,-152,89,-248v8,-37,-15,-57,-50,-57v-51,0,-97,30,-140,91v-43,61,-64,129,-64,202v0,57,18,86,55,86","w":504},"e":{"d":"164,12v-94,2,-147,-77,-146,-170v2,-107,59,-204,128,-256v41,-31,84,-48,129,-48v52,0,99,22,97,77v-3,98,-111,136,-186,163v-24,8,-47,13,-70,18r-11,12v-4,83,29,141,109,141v43,-1,89,-25,114,-44r2,27v-35,40,-90,79,-166,80xm112,-234v60,-14,123,-38,160,-79v28,-31,32,-116,-17,-114v-29,0,-57,20,-85,59v-28,39,-47,84,-58,134","w":397},"f":{"d":"439,-674v0,20,-19,40,-40,39v-9,0,-24,-7,-44,-23v-58,-46,-118,-24,-139,53v-7,21,-15,73,-26,155r128,0r-13,48r-111,0r-12,8r-32,239v-23,137,-52,262,-130,341v-25,25,-63,47,-108,51r-7,-24v78,-27,109,-129,133,-212v34,-115,50,-271,66,-399r-61,0r2,-31r66,-22v12,-81,29,-137,65,-193v32,-51,86,-84,165,-84v46,0,97,13,98,54","w":288},"g":{"d":"-7,153v0,-46,25,-55,56,-91r28,0v-29,56,-19,141,54,141v59,0,99,-34,125,-101v15,-37,24,-183,37,-222r-2,0v-38,55,-89,132,-176,132v-67,0,-103,-58,-101,-135v1,-85,35,-165,75,-222v41,-61,117,-116,212,-117v41,-1,107,20,147,9r2,3v-27,76,-74,281,-82,380v-6,78,-22,137,-48,192v-17,37,-41,57,-71,81v-64,51,-256,52,-256,-50xm149,-48v34,0,68,-25,104,-71v65,-83,76,-178,102,-289v-18,-14,-39,-21,-62,-21v-47,0,-91,31,-131,93v-40,62,-60,130,-60,204v0,56,16,84,47,84","w":471},"h":{"d":"302,-38v-4,-17,65,-296,59,-315v0,-30,-15,-45,-44,-45v-83,-2,-168,116,-182,189v-13,64,-33,150,-35,209r-81,7v1,-32,8,-80,22,-143r101,-453v5,-23,8,-39,8,-46v2,-30,-30,-34,-64,-32r0,-27v75,-11,126,-25,154,-43r3,3v-8,95,-41,220,-61,315v-8,37,-18,70,-29,99r2,0v37,-61,113,-141,203,-142v55,-1,84,35,84,87v7,24,-58,292,-58,309v0,15,7,22,20,22v18,0,39,-11,62,-32r4,29v-20,23,-72,57,-115,59v-33,1,-53,-19,-53,-50","w":515},"i":{"d":"238,-633v0,34,-25,69,-63,69v-27,0,-40,-13,-40,-40v0,-34,25,-68,63,-68v27,0,40,13,40,39xm210,-47v-20,24,-72,59,-116,59v-35,0,-52,-18,-52,-54v-7,-11,69,-320,65,-326v2,-31,-28,-36,-62,-34r0,-27v75,-11,125,-26,152,-45r3,3v10,21,-77,391,-76,403v3,47,58,12,72,0r10,-8","w":260},"j":{"d":"241,-633v0,34,-25,69,-63,69v-27,0,-40,-13,-40,-40v0,-34,25,-68,63,-68v27,0,40,13,40,39xm-115,213v68,-13,122,-109,139,-186r80,-356v10,-38,13,-74,-33,-73r-25,0r0,-27v76,-11,127,-26,154,-45r3,3v-12,135,-60,312,-88,446v-17,81,-47,144,-87,191v-40,47,-86,71,-136,71","w":238},"k":{"d":"406,-459v7,6,7,17,7,34v0,101,-93,128,-178,163r0,9v27,33,73,132,99,170v35,53,51,46,100,7r4,29v-66,62,-114,87,-169,14v-33,-44,-79,-163,-110,-201r-18,0v-16,70,-38,167,-41,234r-81,7v1,-32,8,-80,22,-143r101,-453v5,-23,8,-39,8,-46v2,-30,-30,-34,-64,-32r0,-27v75,-11,126,-25,154,-43r3,3v-17,152,-65,320,-95,467r18,0r92,-36v53,-21,80,-46,80,-75v0,-26,-24,-34,-57,-32r0,-27","w":473},"l":{"d":"196,-47v-20,24,-72,59,-116,59v-35,0,-52,-18,-52,-54v0,-19,6,-47,14,-85r103,-462v5,-23,8,-39,8,-46v2,-30,-30,-34,-64,-32r0,-27v75,-11,126,-25,154,-43r3,3v-4,45,-13,97,-26,158r-101,454v-6,25,-9,43,-9,54v0,16,7,24,20,24v18,0,39,-11,62,-32","w":247},"m":{"d":"307,7v-7,-41,63,-326,63,-359v0,-31,-14,-46,-42,-46v-78,0,-161,124,-174,189v-13,65,-33,150,-35,209r-81,7v-10,-25,73,-368,73,-382v0,-35,-35,-26,-65,-27r0,-27v68,-11,119,-26,152,-45r3,3v0,39,-10,90,-29,151r2,0v37,-59,109,-141,195,-142v51,0,89,33,82,84r-7,51r2,0v37,-57,107,-133,190,-135v56,-1,84,34,85,87v7,24,-59,293,-57,309v3,44,59,10,72,-2r10,-8r4,29v-20,23,-72,57,-115,59v-33,1,-53,-19,-53,-50v-5,-18,64,-295,58,-314v0,-31,-15,-46,-44,-46v-77,0,-160,122,-173,188v-13,65,-33,145,-35,210","w":794},"n":{"d":"322,-38v-4,-17,64,-296,58,-315v0,-30,-15,-45,-44,-45v-83,0,-168,119,-182,189v-12,62,-35,169,-35,209r-81,7v-10,-25,73,-368,73,-382v0,-35,-35,-26,-65,-27r0,-27v68,-11,119,-26,152,-45r3,3v0,39,-10,90,-29,151r2,0v37,-61,113,-141,203,-142v55,-1,84,35,84,87v7,24,-59,293,-57,309v3,44,59,10,72,-2r10,-8r4,29v-20,23,-72,57,-115,59v-33,1,-53,-19,-53,-50","w":534},"o":{"d":"186,12v-108,2,-166,-70,-166,-175v0,-110,48,-197,120,-251v42,-32,91,-48,146,-48v109,-2,166,65,166,169v0,128,-63,224,-152,275v-35,20,-73,30,-114,30xm108,-144v0,82,27,123,82,123v81,0,132,-89,154,-159v13,-43,20,-86,20,-128v0,-81,-28,-121,-83,-121v-81,0,-131,85,-153,155v-13,43,-20,86,-20,130","w":490},"p":{"d":"154,203v-49,6,-134,26,-166,43r-4,-4v3,-43,10,-91,22,-144r94,-422v6,-24,9,-41,9,-52v2,-34,-35,-25,-65,-26r0,-27v68,-11,119,-26,152,-45r3,3v0,47,-8,94,-23,141v6,-2,6,-10,10,-14v35,-49,86,-118,167,-118v72,0,112,66,110,150v-2,83,-30,156,-67,212v-40,60,-115,112,-211,112v-9,0,-35,-3,-80,-8r-24,107v-11,40,-21,72,25,67r46,-5xm178,-22v120,0,197,-153,197,-279v0,-67,-18,-101,-53,-101v-70,0,-153,133,-168,193r-31,128v-10,41,13,59,55,59","w":499},"q":{"d":"302,-120v-38,56,-89,132,-179,132v-72,0,-111,-55,-109,-137v1,-85,35,-164,76,-220v44,-61,122,-117,222,-117v46,0,106,17,148,1r3,6v-10,15,-21,48,-32,101r-101,463v-4,22,-7,32,-6,53v1,14,9,18,25,18v8,0,25,-2,52,-7r2,30v-49,6,-134,26,-166,43r-4,-4v9,-112,46,-255,71,-362r-2,0xm156,-48v38,0,73,-25,109,-73v58,-78,76,-178,100,-285v-52,-37,-107,-22,-156,22v-56,51,-107,150,-107,251v0,57,18,85,54,85","w":484},"r":{"d":"318,-369v-11,0,-32,-10,-42,-9v-46,0,-114,125,-122,169v-12,63,-34,162,-35,209r-81,7v-10,-25,73,-368,73,-382v0,-35,-35,-26,-65,-27r0,-27v68,-11,119,-26,152,-45r3,3v0,39,-10,90,-29,151r2,0v21,-39,45,-72,72,-100v27,-28,51,-42,72,-42v25,0,47,22,47,45v1,26,-21,48,-47,48","w":340},"s":{"d":"105,12v-48,0,-115,-15,-116,-59v-1,-33,42,-53,67,-29v22,21,33,54,75,55v41,0,77,-33,74,-76v-6,-89,-102,-98,-135,-164v-9,-19,-15,-38,-15,-61v-2,-89,81,-141,171,-140v65,0,97,16,97,49v0,22,-16,40,-39,39v-42,-2,-45,-55,-91,-55v-58,0,-92,73,-55,120v45,58,136,77,137,179v1,89,-81,143,-170,142","w":340},"t":{"d":"132,12v-72,3,-98,-64,-83,-134r44,-211r16,-65r-60,0r3,-31v28,-5,51,-15,68,-30v16,-24,28,-56,36,-95r51,-14v0,29,-5,69,-15,118r141,0r-13,48r-126,0r-12,9r-51,253v-11,44,-1,92,42,92v33,0,68,-15,105,-46r4,29v-25,32,-91,75,-150,77","w":328},"u":{"d":"317,-118v-40,59,-99,130,-185,130v-57,0,-85,-32,-85,-96v-6,-19,60,-277,57,-291v2,-33,-30,-27,-59,-27r0,-28v75,-12,125,-27,148,-44r3,3v8,23,-69,353,-69,370v0,35,14,53,42,53v82,1,164,-134,179,-209v16,-80,28,-143,31,-188r81,-13v9,25,-73,376,-72,391v3,44,61,13,73,-1r9,-8r4,29v-19,25,-71,58,-117,59v-65,1,-52,-75,-38,-130r-2,0","w":524},"v":{"d":"133,3v-25,-82,-55,-203,-55,-363v0,-36,-19,-45,-56,-42r0,-27v71,-15,118,-30,140,-45r3,3v-15,111,3,292,26,392v49,-55,92,-117,130,-184v55,-97,57,-146,7,-146r0,-25r125,-28r3,6v-45,121,-129,260,-251,415r-38,57","w":435},"w":{"d":"129,3v-21,-78,-37,-199,-50,-363v-2,-30,-5,-42,-37,-42r-20,0r0,-27v73,-15,120,-30,141,-45r3,3v-12,108,2,292,21,392v29,-32,148,-206,148,-253v0,-35,3,-74,-39,-70r-20,0r0,-27v73,-15,120,-30,141,-45r3,3v-12,108,2,292,21,392v49,-57,91,-120,128,-188v51,-95,52,-142,4,-142r0,-25r125,-28r3,6v-42,122,-132,266,-246,415r-38,57r-34,-13v-16,-58,-30,-145,-41,-260v-43,77,-90,149,-141,216r-38,57","w":681},"x":{"d":"408,-47v-24,27,-101,88,-142,45v-41,-43,-44,-82,-77,-172v-43,72,-81,124,-112,155v-21,21,-39,31,-56,31v-34,0,-49,-41,-27,-64v17,-17,48,-12,70,-24v17,-9,29,-22,43,-38v19,-22,42,-54,69,-97v-27,-79,-46,-128,-54,-150v-14,-37,-30,-43,-77,-41r0,-27v48,-9,87,-24,118,-45r3,3r65,187v43,-70,79,-119,106,-147v20,-21,39,-31,56,-31v25,0,38,12,38,35v0,32,-34,42,-67,48v-25,4,-42,23,-57,43v-21,27,-42,56,-63,89v25,71,46,125,63,162v12,27,24,41,36,41v18,0,52,-22,61,-32","w":461},"y":{"d":"-71,237v-26,1,-44,-17,-44,-41v0,-26,20,-42,49,-42v78,0,100,-38,149,-89v19,-19,33,-40,33,-80v0,-90,-15,-297,-36,-358v-8,-25,-29,-31,-61,-29r0,-27v64,-14,107,-29,130,-45r4,2v23,147,34,280,35,400v47,-67,87,-131,120,-192v33,-61,50,-100,50,-119v0,-17,-17,-26,-35,-26r0,-25r123,-28r3,6v-42,99,-127,236,-187,332v-68,109,-163,235,-250,316v-32,30,-60,45,-83,45","w":428},"z":{"d":"225,12v-59,3,-181,-43,-234,-12r-12,-26v25,-18,49,-40,71,-65r249,-288r-104,0v-86,3,-90,-5,-118,51r-25,-6r34,-116r238,0v30,0,52,-3,66,-8r9,26v-33,32,-55,54,-66,67r-249,288v55,11,99,17,132,17v77,0,104,-36,132,-99r26,0v-23,100,-46,166,-149,171","w":424},"{":{"d":"99,84v0,-24,9,-117,9,-146v0,-121,-35,-182,-106,-183r0,-35v44,-2,73,-20,92,-50v21,-35,36,-56,44,-104v4,-24,8,-43,10,-56v3,-14,8,-78,9,-91v13,-107,85,-160,218,-160r2,36v-37,1,-65,11,-91,21v-13,5,-23,21,-32,29v-31,43,-27,136,-40,196v-10,46,-29,117,-59,149v-19,20,-40,37,-65,46r0,2v59,28,95,106,90,207r-6,130v2,89,34,106,124,115r-8,36v-127,0,-191,-47,-191,-142","w":347},"|":{"d":"109,225r0,-974r68,0r0,974r-68,0","w":295},"}":{"d":"238,-598v0,24,-9,112,-9,142v0,117,36,175,108,176r-3,35v-68,1,-98,52,-118,101v-23,56,-29,139,-36,210v-12,117,-89,159,-217,160r-2,-36v49,-6,89,-11,113,-40v16,-20,22,-25,28,-56v7,-35,7,-40,11,-81v17,-157,62,-248,135,-275r0,-2v-61,-26,-96,-97,-91,-197r6,-129v-2,-88,-35,-107,-124,-115r8,-36v109,0,191,39,191,143","w":341},"~":{"d":"191,-275v-53,0,-70,50,-71,100r-59,0v-1,-96,40,-153,127,-155v64,-1,98,35,128,68v17,18,39,35,71,36v53,2,70,-50,71,-100r59,0v1,96,-40,153,-127,155v-49,2,-93,-27,-114,-52v-18,-21,-48,-52,-85,-52","w":569},"\u00a0":{"w":225},"\u00a1":{"d":"146,-274r-53,480r-123,36r-2,-3v11,-21,23,-57,37,-108r116,-405r25,0xm104,-384v0,-39,28,-78,70,-78v29,0,43,14,43,43v0,40,-27,77,-69,77v-29,0,-44,-14,-44,-42","w":261},"\u00a2":{"d":"156,-71v-78,-11,-124,-74,-125,-159v-1,-121,100,-248,217,-256r21,-91r40,0r-20,89v81,3,121,22,121,57v0,23,-21,42,-42,42v-26,0,-64,-65,-87,-64r-71,320v56,6,110,-26,142,-50r8,26v-27,36,-100,85,-165,88r-20,91r-40,0xm241,-451v-72,14,-126,114,-125,200v0,55,19,91,56,108","w":407},"\u00a3":{"d":"258,25v-32,0,-169,-39,-196,-39v-20,0,-42,5,-66,14r-11,-29v38,-20,71,-49,85,-93r38,-123r-64,0r0,-38r76,0r28,-89v43,-129,112,-193,209,-193v46,1,110,10,110,52v1,24,-17,40,-40,40v-13,0,-28,-8,-45,-25v-33,-35,-86,-32,-112,5v-20,30,-55,149,-73,210r175,0r-13,38r-173,0v-19,70,-45,130,-77,172v57,19,108,29,153,29v78,0,131,-45,151,-115r31,0v-15,92,-79,184,-186,184","w":492},"\u00a5":{"d":"67,-272r0,-38r121,0r-70,-185v-6,-16,-17,-29,-33,-33r0,-25r42,0r77,-3v3,11,-13,41,-3,57r45,126v8,25,14,44,17,58r137,-165v21,-27,15,-43,-20,-48r0,-25r126,0r5,16v-13,2,-31,16,-52,41r-155,186r125,0r-9,38r-142,0r-16,70r143,0r-9,38r-142,0r-23,100r-10,27r74,8r-3,26r-205,6r0,-29v40,-5,64,-26,73,-65r16,-73r-133,0r0,-38r141,0r16,-70r-133,0","w":487},"\u00a6":{"d":"104,-328r0,-358r72,0r0,358r-72,0xm104,-173r72,0r0,358r-72,0r0,-358","w":293},"\u00a7":{"d":"514,-591v-21,-20,-76,-37,-123,-37v-53,0,-95,23,-125,70v-30,47,-49,104,-57,173r-36,305v-13,85,-38,172,-111,198r-3,-5v23,-41,39,-93,47,-154r46,-365v10,-81,36,-146,77,-197v52,-63,124,-90,215,-69v41,9,69,30,90,57xm-64,149v21,20,76,37,123,37v53,0,95,-23,125,-70v30,-47,49,-104,57,-173r36,-305v13,-85,38,-172,111,-198r3,5v-23,41,-39,93,-47,154r-46,365v-10,81,-36,146,-77,197v-52,63,-124,90,-215,69v-41,-9,-69,-30,-90,-57","w":523},"\u00a8":{"d":"439,-633v0,34,-25,69,-63,69v-27,0,-40,-13,-40,-40v0,-34,25,-68,63,-68v27,0,40,13,40,39xm266,-633v0,34,-25,69,-63,69v-27,0,-40,-13,-40,-40v0,-34,25,-68,63,-68v27,0,40,13,40,39","w":500},"\u00a9":{"d":"393,12v-186,0,-345,-160,-345,-345v0,-186,160,-345,345,-345v186,0,345,160,345,345v0,186,-160,345,-345,345xm393,-637v-164,0,-299,141,-299,304v0,163,135,304,299,304v164,0,299,-141,299,-304v0,-163,-135,-304,-299,-304xm403,-133v-111,2,-210,-82,-208,-196v2,-131,110,-241,261,-208v22,4,62,17,79,22r-17,106r-31,0v0,-65,-31,-98,-93,-98v-75,-1,-122,76,-122,154v0,118,97,203,210,157v29,-12,41,-20,58,-36r11,29v-22,37,-93,70,-148,70","w":763},"\u00aa":{"d":"283,-679v37,2,73,11,109,4r2,3v-23,50,-39,152,-55,217v-6,27,-9,44,-9,50v1,21,13,16,27,8v13,-7,20,-14,29,-22r4,28v-31,29,-60,44,-88,44v-25,0,-42,-13,-38,-39r7,-45r-2,0v-19,33,-65,84,-114,84v-50,0,-77,-41,-77,-97v0,-107,91,-242,205,-235xm277,-652v-70,1,-126,120,-126,202v0,38,9,57,27,57v53,-3,107,-110,119,-163r19,-85v-15,-7,-28,-11,-39,-11","w":402},"\u00ab":{"d":"211,-249r0,-4v17,-11,88,-80,215,-209r28,10r-141,201r107,201r-26,10v-100,-123,-161,-192,-183,-209xm213,-40v-100,-123,-161,-192,-183,-209r0,-4v17,-11,88,-80,215,-209r28,10r-141,201r107,201","w":484},"\u00ac":{"d":"26,-334r0,-55r448,0r0,278r-59,0r0,-223r-389,0","w":520},"\u00ad":{"d":"54,-217r0,-66r236,0r0,66r-236,0","w":354},"\u00ae":{"d":"429,-531v0,92,-81,173,-173,173v-92,0,-173,-81,-173,-173v0,-92,81,-173,173,-173v92,0,173,81,173,173xm117,-531v0,76,64,144,139,144v73,0,139,-70,139,-144v0,-74,-66,-143,-139,-143v-76,0,-139,67,-139,143xm194,-587v-1,-16,-6,-13,-21,-19r0,-12r74,0v80,-4,94,55,39,86v9,16,25,39,36,55v7,9,15,15,26,16r-1,14r-53,1v-9,-23,-29,-49,-43,-70r-17,0v0,18,1,37,-2,52r25,3r-1,13r-80,2r0,-15v12,-1,18,-6,18,-15r0,-111xm234,-533v29,4,43,-9,43,-35v0,-25,-16,-35,-43,-33r0,68","w":419},"\u00af":{"d":"74,-589r13,-59r228,0r-13,59r-228,0","w":500},"\u00b0":{"d":"334,-559v0,65,-56,120,-122,120v-66,0,-122,-55,-122,-120v0,-65,56,-120,122,-120v66,0,122,55,122,120xm140,-559v0,40,33,74,72,74v39,0,72,-34,72,-74v0,-40,-33,-74,-72,-74v-39,0,-72,34,-72,74","w":319},"\u00b1":{"d":"25,-318r0,-55r196,0r0,-185r59,0r0,185r193,0r0,55r-193,0r0,198r-59,0r0,-198r-196,0xm25,0r0,-55r448,0r0,55r-448,0","w":520},"\u00b2":{"d":"225,-432v49,-1,57,-20,77,-55r26,0r-37,111r-244,0r-3,-26v49,-37,90,-72,124,-103v68,-63,102,-116,102,-161v0,-55,-52,-79,-100,-56v-19,8,-28,14,-40,25r-16,-23v28,-33,71,-67,131,-67v52,0,100,34,100,90v0,38,-19,79,-56,121v-37,42,-89,90,-154,144r90,0","w":313},"\u00b3":{"d":"305,-508v0,76,-84,139,-162,139v-39,0,-96,-12,-97,-47v0,-14,13,-27,28,-27v22,0,50,51,75,46v43,1,77,-57,77,-102v0,-47,-36,-72,-87,-65r6,-34v40,-19,54,-22,83,-50v27,-26,26,-86,-23,-83v-25,1,-52,13,-65,25r-14,-24v20,-23,71,-56,116,-57v40,-1,81,28,79,69v-1,58,-65,98,-109,120v48,5,93,39,93,90","w":291},"\u00b4":{"d":"215,-503r-29,-19r118,-171r88,-9r0,27","w":500},"\u00b5":{"d":"13,237v-63,0,-32,-83,-19,-127v6,-20,11,-38,14,-53r78,-348v13,-62,21,-113,24,-154r81,-13v8,25,-66,338,-66,357v0,35,14,53,42,53v82,1,164,-134,179,-209v16,-80,28,-143,31,-188r81,-13v9,25,-73,376,-72,391v3,44,61,13,73,-1r9,-8r4,29v-19,25,-71,58,-117,59v-65,1,-52,-75,-38,-130r-2,0v-57,87,-119,130,-185,130v-27,0,-48,-10,-63,-30v-5,27,-7,79,-7,158v0,65,-16,97,-47,97","w":530},"\u00b6":{"d":"79,195v0,-23,20,-42,40,-42v11,0,39,9,52,8v38,-2,58,-46,69,-81v17,-62,36,-166,51,-239v-152,8,-244,-90,-245,-229v0,-71,29,-134,88,-192v59,-58,135,-87,230,-87r215,0v37,0,63,-1,76,-4r-19,54r-70,0r-123,617r-55,0r123,-617r-71,0r-106,532v-19,90,-22,115,-55,189v-28,62,-84,131,-153,133v-27,0,-47,-15,-47,-42","w":617},"\u00b7":{"d":"169,-272v0,39,-28,78,-70,78v-29,0,-43,-14,-43,-43v0,-40,27,-77,69,-77v29,0,44,14,44,42","w":233},"\u00b8":{"d":"210,156v2,-19,-72,-49,-65,-71v0,-21,18,-50,54,-85r31,0v-18,33,-35,50,-12,71v15,13,35,14,46,33v46,83,-70,163,-160,123v-23,-10,-31,-17,-44,-30r19,-29v21,17,44,26,71,26v28,0,57,-15,60,-38","w":500},"\u00b9":{"d":"51,-374r0,-26v50,-5,69,-4,76,-39r53,-248v4,-26,8,-39,-15,-34r-55,13r0,-31v31,-8,60,-16,87,-25r77,-27r1,2v-36,117,-54,262,-87,383r71,5r-2,23","w":243},"\u00ba":{"d":"271,-679v78,0,121,45,121,118v0,77,-36,141,-87,179v-30,23,-64,35,-103,35v-79,1,-121,-48,-121,-123v-1,-103,79,-209,190,-209xm268,-652v-74,-1,-114,114,-114,195v0,55,17,82,51,82v72,1,115,-119,115,-196v0,-54,-17,-81,-52,-81","w":380},"\u00bb":{"d":"207,-50r141,-201r-107,-201r26,-10v100,123,161,192,183,209r0,4v-17,11,-88,80,-215,209xm25,-50r141,-201r-107,-201r26,-10v100,123,161,192,183,209r0,4v-17,11,-88,80,-215,209","w":489},"\u00bc":{"d":"41,-266r0,-26v50,-5,69,-4,76,-39r53,-248v4,-26,8,-39,-15,-34r-55,13r0,-31v31,-8,60,-16,87,-25r77,-27r1,2v-36,117,-54,262,-87,383r71,5r-2,23xm179,0r-60,0r538,-682r47,15xm531,2r0,-23v26,-3,41,-15,45,-36r12,-57r-161,0r-3,-35r233,-250r65,-14r1,2v-4,12,-9,34,-16,65r-41,190r63,0r-13,42r-58,0r-10,49r-10,38r47,5r-2,20xm477,-156r119,0r28,-129r10,-40","w":781},"\u00bd":{"d":"39,-266r0,-26v50,-5,69,-4,76,-39r53,-248v4,-26,8,-39,-15,-34r-55,13r0,-31v31,-8,60,-16,87,-25r77,-27r1,2v-36,117,-54,262,-87,383r71,5r-2,23xm659,-56v49,-1,57,-20,77,-55r26,0r-37,111r-244,0r-3,-26v49,-37,90,-72,124,-103v68,-63,102,-116,102,-161v0,-55,-52,-79,-100,-56v-19,8,-28,14,-40,25r-16,-23v28,-33,71,-67,131,-67v52,0,100,34,100,90v0,38,-19,79,-56,121v-37,42,-89,90,-154,144r90,0xm177,0r-60,0r538,-682r47,15","w":824},"\u00be":{"d":"538,2r0,-23v26,-3,41,-15,45,-36r12,-57r-161,0r-3,-35r233,-250r65,-14r1,2v-4,12,-9,34,-16,65r-41,190r63,0r-13,42r-58,0r-10,49r-10,38r47,5r-2,20xm294,-395v0,76,-84,139,-162,139v-39,0,-96,-12,-97,-47v0,-14,13,-27,28,-27v22,0,50,51,75,46v43,1,77,-57,77,-102v0,-47,-36,-72,-87,-65r6,-34v40,-19,53,-23,82,-51v27,-26,27,-84,-22,-82v-26,1,-51,12,-65,25r-14,-24v20,-23,71,-56,116,-57v40,-1,81,28,79,69v-1,58,-65,98,-109,120v48,5,93,39,93,90xm186,0r-60,0r538,-682r47,15xm484,-156r119,0r28,-129r10,-40","w":789},"\u00bf":{"d":"201,-274v35,67,-15,133,-49,170v-31,33,-69,67,-95,103v-12,17,-18,31,-18,44v0,35,41,73,124,114r29,14r-35,78r-41,-21r-42,-24v-42,-27,-92,-61,-116,-106v-39,-70,30,-125,70,-160v42,-37,92,-72,125,-117v21,-31,31,-55,18,-90xm168,-385v0,-39,28,-77,70,-77v29,0,43,15,43,44v0,39,-27,76,-69,76v-29,0,-44,-14,-44,-43","w":309},"\u00c0":{"d":"-58,0r0,-29v31,-3,55,-18,71,-45r340,-590r41,-9r98,568v13,55,9,68,56,77r-3,28r-179,4r0,-32v28,-1,51,-12,47,-42r-26,-160r-226,0r-14,9r-102,181r79,12r-3,28r-179,0xm342,-508v-3,-14,-5,-30,-6,-49r-162,287r206,0xm264,-784r0,-25r42,-52r5,0r165,106r-14,32","w":592},"\u00c1":{"d":"-58,0r0,-29v31,-3,55,-18,71,-45r340,-590r41,-9r98,568v13,55,9,68,56,77r-3,28r-179,4r0,-32v28,-1,51,-12,47,-42r-26,-160r-226,0r-14,9r-102,181r79,12r-3,28r-179,0xm342,-508v-3,-14,-5,-30,-6,-49r-162,287r206,0xm317,-723r-12,-33r190,-105r5,0r22,53r0,24","w":592},"\u00c2":{"d":"-58,0r0,-29v31,-3,55,-18,71,-45r340,-590r41,-9r98,568v13,55,9,68,56,77r-3,28r-179,4r0,-32v28,-1,51,-12,47,-42r-26,-160r-226,0r-14,9r-102,181r79,12r-3,28r-179,0xm342,-508v-3,-14,-5,-30,-6,-49r-162,287r206,0xm254,-718r-24,-26r159,-127r53,0r100,132r-28,21r-112,-85r-4,0","w":592},"\u00c3":{"d":"-58,0r0,-29v31,-3,55,-18,71,-45r340,-590r41,-9r98,568v13,55,9,68,56,77r-3,28r-179,4r0,-32v28,-1,51,-12,47,-42r-26,-160r-226,0r-14,9r-102,181r79,12r-3,28r-179,0xm342,-508v-3,-14,-5,-30,-6,-49r-162,287r206,0xm582,-850v-15,57,-47,115,-119,117v-25,0,-52,-12,-83,-31v-48,-30,-64,-45,-100,-15v-16,13,-21,28,-29,46r-35,-7v16,-52,45,-106,112,-113v35,-3,126,61,154,61v27,0,51,-24,65,-61","w":592},"\u00c4":{"d":"-58,0r0,-29v31,-3,55,-18,71,-45r340,-590r41,-9r98,568v13,55,9,68,56,77r-3,28r-179,4r0,-32v28,-1,51,-12,47,-42r-26,-160r-226,0r-14,9r-102,181r79,12r-3,28r-179,0xm342,-508v-3,-14,-5,-30,-6,-49r-162,287r206,0xm563,-808v0,34,-25,69,-63,69v-27,0,-40,-13,-40,-40v0,-34,25,-68,63,-68v27,0,40,13,40,39xm338,-808v0,34,-25,69,-63,69v-27,0,-40,-13,-40,-40v0,-34,25,-68,63,-68v27,0,40,13,40,39","w":592},"\u00c5":{"d":"-58,0r0,-29v31,-3,55,-18,71,-45r340,-590r41,-9r98,568v13,55,9,68,56,77r-3,28r-179,4r0,-32v28,-1,51,-12,47,-42r-26,-160r-226,0r-14,9r-102,181r79,12r-3,28r-179,0xm342,-508v-3,-14,-5,-30,-6,-49r-162,287r206,0xm490,-805v0,53,-47,94,-106,94v-50,0,-85,-26,-85,-70v0,-50,48,-90,105,-90v52,0,86,22,86,66xm404,-837v-34,0,-57,26,-57,56v0,24,13,36,38,36v32,1,60,-26,59,-57v0,-20,-17,-35,-40,-35","w":592},"\u00c6":{"d":"-62,0r0,-29v33,-3,58,-19,77,-45r376,-511v14,-20,20,-32,2,-44v-7,-3,-20,-8,-40,-13r0,-25r432,0r74,-4r-47,167r-34,0v18,-90,3,-126,-77,-126r-124,0r-12,10r-54,273r176,0r20,-74r37,0r-35,176r-45,0r13,-65r-163,0r-12,10r-41,205r-16,58v79,-4,186,14,231,-23v18,-15,43,-50,76,-103r34,0r-58,163r-296,0r-134,3r0,-32v45,-5,71,-26,78,-62r44,-219r-168,0r-18,10r-189,260r74,12r-4,28r-177,0xm438,-580r-170,233r159,0r55,-274v-15,7,-30,21,-44,41","w":847},"\u00c7":{"d":"305,156v2,-19,-72,-49,-65,-71v0,-17,15,-43,45,-77v-132,-18,-231,-130,-231,-286v0,-223,175,-401,402,-401v34,0,173,19,195,22r-39,153r-34,0v12,-91,-34,-137,-137,-137v-127,0,-220,82,-260,175v-23,51,-34,106,-34,165v0,177,132,286,309,237v45,-12,65,-20,94,-37r11,23v-53,50,-135,92,-244,90v-13,27,-25,42,-5,59v15,13,37,14,48,33v46,83,-71,162,-160,123v-23,-10,-31,-17,-45,-30r19,-29v21,17,44,26,71,26v28,0,57,-15,60,-38","w":634},"\u00c8":{"d":"5,3r0,-32v45,-5,71,-26,78,-62r95,-478v5,-27,4,-43,-2,-51v-6,-8,-26,-15,-61,-22r0,-25r377,0r74,-4r-47,167r-34,0v18,-90,3,-126,-77,-126r-124,0r-12,10r-52,263r176,0r18,-64r37,0r-35,176r-45,0r15,-75r-163,0r-12,10r-43,215r-16,58v79,-4,185,14,230,-23v18,-15,44,-50,77,-103r34,0r-58,163r-296,0xm249,-784r0,-25r42,-52r5,0r165,106r-14,32","w":554},"\u00c9":{"d":"5,3r0,-32v45,-5,71,-26,78,-62r95,-478v5,-27,4,-43,-2,-51v-6,-8,-26,-15,-61,-22r0,-25r377,0r74,-4r-47,167r-34,0v18,-90,3,-126,-77,-126r-124,0r-12,10r-52,263r176,0r18,-64r37,0r-35,176r-45,0r15,-75r-163,0r-12,10r-43,215r-16,58v79,-4,185,14,230,-23v18,-15,44,-50,77,-103r34,0r-58,163r-296,0xm302,-723r-12,-33r190,-105r5,0r22,53r0,24","w":554},"\u00ca":{"d":"5,3r0,-32v45,-5,71,-26,78,-62r95,-478v5,-27,4,-43,-2,-51v-6,-8,-26,-15,-61,-22r0,-25r377,0r74,-4r-47,167r-34,0v18,-90,3,-126,-77,-126r-124,0r-12,10r-52,263r176,0r18,-64r37,0r-35,176r-45,0r15,-75r-163,0r-12,10r-43,215r-16,58v79,-4,185,14,230,-23v18,-15,44,-50,77,-103r34,0r-58,163r-296,0xm239,-718r-24,-26r159,-127r53,0r100,132r-28,21r-112,-85r-4,0","w":554},"\u00cb":{"d":"5,3r0,-32v45,-5,71,-26,78,-62r95,-478v5,-27,4,-43,-2,-51v-6,-8,-26,-15,-61,-22r0,-25r377,0r74,-4r-47,167r-34,0v18,-90,3,-126,-77,-126r-124,0r-12,10r-52,263r176,0r18,-64r37,0r-35,176r-45,0r15,-75r-163,0r-12,10r-43,215r-16,58v79,-4,185,14,230,-23v18,-15,44,-50,77,-103r34,0r-58,163r-296,0xm548,-808v0,34,-25,69,-63,69v-27,0,-40,-13,-40,-40v0,-34,25,-68,63,-68v27,0,40,13,40,39xm323,-808v0,34,-25,69,-63,69v-27,0,-40,-13,-40,-40v0,-34,25,-68,63,-68v27,0,40,13,40,39","w":554},"\u00cc":{"d":"5,3r0,-32v44,-6,71,-26,78,-61r95,-479v15,-61,-1,-57,-55,-73r0,-25r79,0r106,-4r4,4v-26,25,-44,66,-55,121r-88,445r-17,61r84,9r-3,28xm124,-784r0,-25r42,-52r5,0r165,106r-14,32","w":318},"\u00cd":{"d":"5,3r0,-32v44,-6,71,-26,78,-61r95,-479v15,-61,-1,-57,-55,-73r0,-25r79,0r106,-4r4,4v-26,25,-44,66,-55,121r-88,445r-17,61r84,9r-3,28xm177,-723r-12,-33r190,-105r5,0r22,53r0,24","w":318},"\u00ce":{"d":"5,3r0,-32v44,-6,71,-26,78,-61r95,-479v15,-61,-1,-57,-55,-73r0,-25r79,0r106,-4r4,4v-26,25,-44,66,-55,121r-88,445r-17,61r84,9r-3,28xm114,-718r-24,-26r159,-127r53,0r100,132r-28,21r-112,-85r-4,0","w":318},"\u00cf":{"d":"398,-808v0,34,-25,69,-63,69v-27,0,-40,-13,-40,-40v0,-34,25,-68,63,-68v27,0,40,13,40,39xm223,-808v0,34,-25,69,-63,69v-27,0,-40,-13,-40,-40v0,-34,25,-68,63,-68v27,0,40,13,40,39xm5,3r0,-32v44,-6,71,-26,78,-61r95,-479v15,-61,-1,-57,-55,-73r0,-25r79,0r106,-4r4,4v-26,25,-44,66,-55,121r-88,445r-17,61r84,9r-3,28","w":318},"\u00d0":{"d":"679,-397v2,244,-194,402,-446,397r-98,0r-130,3r0,-32v45,-5,71,-26,78,-62r45,-227r-85,0r8,-42r85,0r40,-198v15,-69,6,-66,-53,-84r0,-25v120,4,253,-11,352,15v117,31,203,108,204,255xm585,-386v-1,-146,-79,-248,-233,-244r-70,0r-10,10r-52,260r159,0r-8,42r-159,0r-44,223r-16,58r83,0v207,4,352,-146,350,-349","w":707},"\u00d1":{"d":"4,3r0,-32v45,-5,73,-26,80,-62r89,-450v17,-73,8,-91,-58,-101r0,-25r36,0r101,-4v5,15,13,33,24,52r259,439v9,16,17,31,24,46r85,-430v16,-57,-5,-69,-62,-75r0,-28r187,0r2,14v-43,15,-76,51,-86,102r-111,556r-26,0r-302,-514v-11,-18,-20,-36,-26,-55r-93,473r-15,54r78,6r-3,28xm658,-850v-15,57,-47,115,-119,117v-25,0,-52,-12,-83,-31v-48,-30,-64,-45,-100,-15v-16,13,-21,28,-29,46r-35,-7v16,-52,45,-106,112,-113v35,-3,126,61,154,61v27,0,51,-24,65,-61","w":738},"\u00d2":{"d":"336,12v-165,0,-284,-128,-281,-291v1,-113,43,-207,99,-274v58,-71,159,-126,283,-126v164,0,281,118,281,279v0,216,-165,412,-382,412xm624,-385v0,-129,-62,-257,-189,-256v-124,1,-212,98,-253,191v-73,165,-24,420,156,424v160,3,286,-191,286,-359xm345,-784r0,-25r42,-52r5,0r165,106r-14,32"},"\u00d3":{"d":"336,12v-165,0,-284,-128,-281,-291v1,-113,43,-207,99,-274v58,-71,159,-126,283,-126v164,0,281,118,281,279v0,216,-165,412,-382,412xm624,-385v0,-129,-62,-257,-189,-256v-124,1,-212,98,-253,191v-73,165,-24,420,156,424v160,3,286,-191,286,-359xm398,-723r-12,-33r190,-105r5,0r22,53r0,24"},"\u00d4":{"d":"336,12v-165,0,-284,-128,-281,-291v1,-113,43,-207,99,-274v58,-71,159,-126,283,-126v164,0,281,118,281,279v0,216,-165,412,-382,412xm624,-385v0,-129,-62,-257,-189,-256v-124,1,-212,98,-253,191v-73,165,-24,420,156,424v160,3,286,-191,286,-359xm335,-718r-24,-26r159,-127r53,0r100,132r-28,21r-112,-85r-4,0"},"\u00d5":{"d":"336,12v-165,0,-284,-128,-281,-291v1,-113,43,-207,99,-274v58,-71,159,-126,283,-126v164,0,281,118,281,279v0,216,-165,412,-382,412xm624,-385v0,-129,-62,-257,-189,-256v-124,1,-212,98,-253,191v-73,165,-24,420,156,424v160,3,286,-191,286,-359xm663,-850v-15,57,-47,115,-119,117v-25,0,-52,-12,-83,-31v-48,-30,-64,-44,-101,-15v-17,13,-21,27,-28,46r-35,-7v16,-52,45,-106,112,-113v35,-3,126,61,154,61v27,0,51,-24,65,-61"},"\u00d6":{"d":"336,12v-165,0,-284,-128,-281,-291v1,-113,43,-207,99,-274v58,-71,159,-126,283,-126v164,0,281,118,281,279v0,216,-165,412,-382,412xm624,-385v0,-129,-62,-257,-189,-256v-124,1,-212,98,-253,191v-73,165,-24,420,156,424v160,3,286,-191,286,-359xm644,-808v0,34,-25,69,-63,69v-27,0,-40,-13,-40,-40v0,-34,25,-68,63,-68v27,0,40,13,40,39xm419,-808v0,34,-25,69,-63,69v-27,0,-40,-13,-40,-40v0,-34,25,-68,63,-68v27,0,40,13,40,39"},"\u00d7":{"d":"32,-436r39,-41r186,187r186,-187r39,41r-185,186r185,185r-40,41r-185,-186r-185,186r-40,-41r185,-185","w":520},"\u00d8":{"d":"718,-400v0,216,-165,412,-382,412v-58,0,-109,-14,-153,-41r-45,59r-55,0r65,-85v-96,-81,-116,-234,-67,-370v53,-142,166,-254,356,-254v58,0,110,14,155,41r45,-59r54,0r-64,84v61,53,91,124,91,213xm182,-450v-46,107,-47,247,10,337r363,-477v-70,-76,-196,-61,-273,4v-44,38,-78,82,-100,136xm338,-26v215,1,364,-322,244,-528r-363,477v33,34,72,51,119,51"},"\u00d9":{"d":"168,-186v-3,95,63,153,152,153v116,0,212,-93,234,-203r65,-328v11,-60,-5,-70,-62,-75r0,-28r190,0r2,14v-42,16,-76,52,-86,102r-64,321v-22,136,-143,242,-287,242v-129,0,-230,-62,-227,-195v0,-21,3,-46,8,-74r62,-312v10,-64,-2,-56,-57,-73r0,-25r80,0r109,-4v6,6,0,4,-8,16v-15,23,-38,70,-45,109r-60,303v-4,21,-6,40,-6,57xm331,-784r0,-25r42,-52r5,0r165,106r-14,32","w":700},"\u00da":{"d":"168,-186v-3,95,63,153,152,153v116,0,212,-93,234,-203r65,-328v11,-60,-5,-70,-62,-75r0,-28r190,0r2,14v-42,16,-76,52,-86,102r-64,321v-22,136,-143,242,-287,242v-129,0,-230,-62,-227,-195v0,-21,3,-46,8,-74r62,-312v10,-64,-2,-56,-57,-73r0,-25r80,0r109,-4v6,6,0,4,-8,16v-15,23,-38,70,-45,109r-60,303v-4,21,-6,40,-6,57xm384,-723r-12,-33r190,-105r5,0r22,53r0,24","w":700},"\u00db":{"d":"168,-186v-3,95,63,153,152,153v116,0,212,-93,234,-203r65,-328v11,-60,-5,-70,-62,-75r0,-28r190,0r2,14v-42,16,-76,52,-86,102r-64,321v-22,136,-143,242,-287,242v-129,0,-230,-62,-227,-195v0,-21,3,-46,8,-74r62,-312v10,-64,-2,-56,-57,-73r0,-25r80,0r109,-4v6,6,0,4,-8,16v-15,23,-38,70,-45,109r-60,303v-4,21,-6,40,-6,57xm321,-718r-24,-26r159,-127r53,0r100,132r-28,21r-112,-85r-4,0","w":700},"\u00dc":{"d":"168,-186v-3,95,63,153,152,153v116,0,212,-93,234,-203r65,-328v11,-60,-5,-70,-62,-75r0,-28r190,0r2,14v-42,16,-76,52,-86,102r-64,321v-22,136,-143,242,-287,242v-129,0,-230,-62,-227,-195v0,-21,3,-46,8,-74r62,-312v10,-64,-2,-56,-57,-73r0,-25r80,0r109,-4v6,6,0,4,-8,16v-15,23,-38,70,-45,109r-60,303v-4,21,-6,40,-6,57xm630,-808v0,34,-25,69,-63,69v-27,0,-40,-13,-40,-40v0,-34,25,-68,63,-68v27,0,40,13,40,39xm405,-808v0,34,-25,69,-63,69v-27,0,-40,-13,-40,-40v0,-34,25,-68,63,-68v27,0,40,13,40,39","w":700},"\u00dd":{"d":"125,3r0,-32v45,-5,71,-26,78,-62r41,-206r-122,-301v-9,-21,-24,-41,-47,-44r0,-25r52,0r86,-4v5,4,0,8,-1,15v-2,12,-7,50,2,61r77,197v6,17,12,36,18,58r191,-239v24,-29,13,-57,-26,-63r0,-25r162,0r4,14v-24,7,-50,27,-77,61r-235,294r-40,204r-15,54r84,9r-3,28xm306,-723r-12,-33r190,-105r5,0r22,53r0,24","w":560},"\u00de":{"d":"428,-350v0,-93,-76,-129,-176,-126r-11,10r-72,365r-17,61r84,9r-3,28r-228,6r0,-32v45,-7,71,-27,78,-61r95,-479v15,-60,-1,-57,-55,-73r0,-25r79,0r106,-4r4,4v-32,28,-51,93,-62,154r60,0v103,-1,209,48,211,143v3,130,-145,228,-280,214r0,-28v108,-3,187,-67,187,-166","w":531},"\u00df":{"d":"408,-600v6,-77,-91,-111,-145,-66v-31,26,-48,92,-58,138v-5,26,-12,71,-16,109v-8,59,-15,110,-22,154v-26,160,-55,327,-137,429v-30,37,-71,67,-128,73r-7,-24v39,-13,73,-55,92,-91v71,-136,94,-338,119,-520r-61,0r3,-31r67,-23v37,-184,113,-276,230,-276v75,0,139,41,135,113v-5,103,-104,136,-147,207v-23,38,-22,78,6,111v32,38,72,49,101,93v15,22,23,46,23,74v0,86,-79,143,-162,142v-47,1,-118,-18,-119,-60v0,-20,15,-34,36,-34v14,0,30,10,48,30v18,20,38,31,57,31v40,0,73,-33,70,-76v-7,-110,-148,-104,-145,-223v3,-135,150,-148,160,-280","w":509},"\u00e0":{"d":"293,-120v-37,55,-88,132,-175,132v-68,0,-104,-58,-102,-136v3,-119,57,-221,133,-282v46,-37,97,-56,154,-56v41,0,107,20,147,9r2,3v-31,69,-54,218,-76,308v-10,42,-14,67,-14,75v0,15,7,23,21,23v17,0,37,-11,61,-32r4,29v-41,39,-80,59,-118,59v-65,0,-50,-86,-35,-132r-2,0xm152,-48v37,0,73,-26,108,-75v58,-81,73,-177,97,-285v-19,-14,-40,-21,-63,-21v-46,0,-90,31,-130,93v-40,62,-60,130,-60,203v0,57,16,85,48,85xm297,-504r-110,-171r0,-27r84,9r57,173","w":494},"\u00e1":{"d":"293,-120v-37,55,-88,132,-175,132v-68,0,-104,-58,-102,-136v3,-119,57,-221,133,-282v46,-37,97,-56,154,-56v41,0,107,20,147,9r2,3v-31,69,-54,218,-76,308v-10,42,-14,67,-14,75v0,15,7,23,21,23v17,0,37,-11,61,-32r4,29v-41,39,-80,59,-118,59v-65,0,-50,-86,-35,-132r-2,0xm152,-48v37,0,73,-26,108,-75v58,-81,73,-177,97,-285v-19,-14,-40,-21,-63,-21v-46,0,-90,31,-130,93v-40,62,-60,130,-60,203v0,57,16,85,48,85xm276,-503r-29,-19r118,-171r88,-9r0,27","w":494},"\u00e2":{"d":"293,-120v-37,55,-88,132,-175,132v-68,0,-104,-58,-102,-136v3,-119,57,-221,133,-282v46,-37,97,-56,154,-56v41,0,107,20,147,9r2,3v-31,69,-54,218,-76,308v-10,42,-14,67,-14,75v0,15,7,23,21,23v17,0,37,-11,61,-32r4,29v-41,39,-80,59,-118,59v-65,0,-50,-86,-35,-132r-2,0xm152,-48v37,0,73,-26,108,-75v58,-81,73,-177,97,-285v-19,-14,-40,-21,-63,-21v-46,0,-90,31,-130,93v-40,62,-60,130,-60,203v0,57,16,85,48,85xm180,-503r-30,-19r151,-176r39,0r80,176r-30,19r-84,-113","w":494},"\u00e3":{"d":"293,-120v-37,55,-88,132,-175,132v-68,0,-104,-58,-102,-136v3,-119,57,-221,133,-282v46,-37,97,-56,154,-56v41,0,107,20,147,9r2,3v-31,69,-54,218,-76,308v-10,42,-14,67,-14,75v0,15,7,23,21,23v17,0,37,-11,61,-32r4,29v-41,39,-80,59,-118,59v-65,0,-50,-86,-35,-132r-2,0xm152,-48v37,0,73,-26,108,-75v58,-81,73,-177,97,-285v-19,-14,-40,-21,-63,-21v-46,0,-90,31,-130,93v-40,62,-60,130,-60,203v0,57,16,85,48,85xm454,-670v-8,55,-29,115,-89,118v-38,2,-68,-32,-89,-52v-22,-21,-40,-23,-60,-2v-12,14,-17,27,-21,45r-35,-9v8,-54,29,-114,89,-114v36,0,66,33,87,52v23,20,43,24,62,2v12,-14,16,-27,20,-45","w":494},"\u00e4":{"d":"293,-120v-37,55,-88,132,-175,132v-68,0,-104,-58,-102,-136v3,-119,57,-221,133,-282v46,-37,97,-56,154,-56v41,0,107,20,147,9r2,3v-31,69,-54,218,-76,308v-10,42,-14,67,-14,75v0,15,7,23,21,23v17,0,37,-11,61,-32r4,29v-41,39,-80,59,-118,59v-65,0,-50,-86,-35,-132r-2,0xm152,-48v37,0,73,-26,108,-75v58,-81,73,-177,97,-285v-19,-14,-40,-21,-63,-21v-46,0,-90,31,-130,93v-40,62,-60,130,-60,203v0,57,16,85,48,85xm445,-633v0,34,-25,69,-63,69v-27,0,-40,-13,-40,-40v0,-34,25,-68,63,-68v27,0,40,13,40,39xm272,-633v0,34,-25,69,-63,69v-27,0,-40,-13,-40,-40v0,-34,25,-68,63,-68v27,0,40,13,40,39","w":494},"\u00e5":{"d":"293,-120v-37,55,-88,132,-175,132v-68,0,-104,-58,-102,-136v3,-119,57,-221,133,-282v46,-37,97,-56,154,-56v41,0,107,20,147,9r2,3v-31,69,-54,218,-76,308v-10,42,-14,67,-14,75v0,15,7,23,21,23v17,0,37,-11,61,-32r4,29v-41,39,-80,59,-118,59v-65,0,-50,-86,-35,-132r-2,0xm152,-48v37,0,73,-26,108,-75v58,-81,73,-177,97,-285v-19,-14,-40,-21,-63,-21v-46,0,-90,31,-130,93v-40,62,-60,130,-60,203v0,57,16,85,48,85xm403,-632v0,53,-47,96,-106,96v-51,0,-85,-27,-85,-72v0,-52,47,-93,105,-93v52,0,86,24,86,69xm317,-667v-35,0,-57,28,-57,59v0,25,13,38,38,38v32,0,60,-29,59,-59v0,-23,-15,-38,-40,-38","w":494},"\u00e6":{"d":"88,12v-55,0,-101,-36,-101,-88v0,-43,27,-80,80,-110v53,-30,121,-50,203,-62v14,-53,21,-96,21,-127v0,-57,-53,-65,-89,-41v-32,21,-38,72,-81,72v-19,0,-37,-13,-37,-33v0,-55,126,-85,186,-85v55,0,87,23,94,70v45,-47,95,-70,149,-70v51,0,100,22,98,75v-4,94,-118,126,-195,149v-25,6,-47,12,-68,15v-16,86,14,175,101,172v45,-1,93,-23,118,-44r2,27v-35,40,-89,79,-164,80v-80,1,-125,-59,-137,-129v-26,59,-94,129,-180,129xm117,-45v78,0,135,-81,145,-168v-128,20,-192,61,-192,122v0,31,16,46,47,46xm356,-257v117,-23,176,-63,176,-121v0,-33,-13,-49,-39,-49v-25,0,-51,17,-77,51v-26,34,-47,74,-60,119","w":635},"\u00e7":{"d":"160,156v2,-19,-72,-49,-65,-71v0,-17,15,-43,45,-77v-75,-15,-120,-85,-119,-175v1,-107,50,-197,119,-249v40,-30,85,-46,135,-46v48,0,123,14,123,59v1,23,-16,40,-38,40v-15,0,-31,-11,-48,-33v-17,-22,-35,-33,-54,-33v-87,-2,-154,139,-152,234v2,81,36,146,119,144v44,0,89,-23,111,-44r4,27v-35,41,-90,80,-168,80v-13,27,-24,42,-4,59v15,13,35,14,46,33v46,83,-70,163,-160,123v-23,-10,-31,-17,-44,-30r19,-29v21,17,44,26,71,26v28,0,57,-15,60,-38","w":403},"\u00e8":{"d":"164,12v-94,2,-147,-77,-146,-170v2,-107,59,-204,128,-256v41,-31,84,-48,129,-48v52,0,99,22,97,77v-3,98,-111,136,-186,163v-24,8,-47,13,-70,18r-11,12v-4,83,29,141,109,141v43,-1,89,-25,114,-44r2,27v-35,40,-90,79,-166,80xm112,-234v60,-14,123,-38,160,-79v28,-31,32,-116,-17,-114v-29,0,-57,20,-85,59v-28,39,-47,84,-58,134xm277,-504r-110,-171r0,-27r84,9r57,173","w":397},"\u00e9":{"d":"164,12v-94,2,-147,-77,-146,-170v2,-107,59,-204,128,-256v41,-31,84,-48,129,-48v52,0,99,22,97,77v-3,98,-111,136,-186,163v-24,8,-47,13,-70,18r-11,12v-4,83,29,141,109,141v43,-1,89,-25,114,-44r2,27v-35,40,-90,79,-166,80xm112,-234v60,-14,123,-38,160,-79v28,-31,32,-116,-17,-114v-29,0,-57,20,-85,59v-28,39,-47,84,-58,134xm256,-503r-29,-19r118,-171r88,-9r0,27","w":397},"\u00ea":{"d":"164,12v-94,2,-147,-77,-146,-170v2,-107,59,-204,128,-256v41,-31,84,-48,129,-48v52,0,99,22,97,77v-3,98,-111,136,-186,163v-24,8,-47,13,-70,18r-11,12v-4,83,29,141,109,141v43,-1,89,-25,114,-44r2,27v-35,40,-90,79,-166,80xm112,-234v60,-14,123,-38,160,-79v28,-31,32,-116,-17,-114v-29,0,-57,20,-85,59v-28,39,-47,84,-58,134xm160,-503r-30,-19r151,-176r39,0r80,176r-30,19r-84,-113","w":397},"\u00eb":{"d":"164,12v-94,2,-147,-77,-146,-170v2,-107,59,-204,128,-256v41,-31,84,-48,129,-48v52,0,99,22,97,77v-3,98,-111,136,-186,163v-24,8,-47,13,-70,18r-11,12v-4,83,29,141,109,141v43,-1,89,-25,114,-44r2,27v-35,40,-90,79,-166,80xm112,-234v60,-14,123,-38,160,-79v28,-31,32,-116,-17,-114v-29,0,-57,20,-85,59v-28,39,-47,84,-58,134xm425,-633v0,34,-25,69,-63,69v-27,0,-40,-13,-40,-40v0,-34,25,-68,63,-68v27,0,40,13,40,39xm252,-633v0,34,-25,69,-63,69v-27,0,-40,-13,-40,-40v0,-34,25,-68,63,-68v27,0,40,13,40,39","w":397},"\u00ec":{"d":"210,-47v-20,24,-72,59,-116,59v-35,0,-52,-18,-52,-54v-7,-11,69,-320,65,-326v2,-31,-28,-36,-62,-34r0,-27v75,-11,125,-26,152,-45r3,3v10,21,-77,391,-76,403v3,47,58,12,72,0r10,-8xm177,-504r-110,-171r0,-27r84,9r57,173","w":260},"\u00ed":{"d":"210,-47v-20,24,-72,59,-116,59v-35,0,-52,-18,-52,-54v-7,-11,69,-320,65,-326v2,-31,-28,-36,-62,-34r0,-27v75,-11,125,-26,152,-45r3,3v10,21,-77,391,-76,403v3,47,58,12,72,0r10,-8xm156,-503r-29,-19r118,-171r88,-9r0,27","w":260},"\u00ee":{"d":"210,-47v-20,24,-72,59,-116,59v-35,0,-52,-18,-52,-54v-7,-11,69,-320,65,-326v2,-31,-28,-36,-62,-34r0,-27v75,-11,125,-26,152,-45r3,3v10,21,-77,391,-76,403v3,47,58,12,72,0r10,-8xm60,-503r-30,-19r151,-176r39,0r80,176r-30,19r-84,-113","w":260},"\u00ef":{"d":"320,-633v0,34,-25,69,-63,69v-27,0,-40,-13,-40,-40v0,-34,25,-68,63,-68v27,0,40,13,40,39xm156,-633v0,34,-25,69,-63,69v-27,0,-40,-13,-40,-40v0,-34,25,-68,63,-68v27,0,40,13,40,39xm210,-47v-20,24,-72,59,-116,59v-35,0,-52,-18,-52,-54v-7,-11,69,-320,65,-326v2,-31,-28,-36,-62,-34r0,-27v75,-11,125,-26,152,-45r3,3v10,21,-77,391,-76,403v3,47,58,12,72,0r10,-8","w":260},"\u00f0":{"d":"184,12v-105,0,-167,-71,-166,-172v1,-109,63,-201,134,-254v66,-49,151,-61,230,-31v-7,-53,-24,-102,-49,-145r-142,80r-19,-38r137,-76v-34,-40,-76,-70,-127,-90r15,-26v65,15,121,43,166,85r147,-82r17,38r-134,76v114,139,102,379,-5,519v-58,76,-125,116,-204,116xm105,-153v2,68,21,131,84,132v42,0,83,-28,124,-85v41,-57,71,-131,71,-225v0,-48,-30,-97,-83,-96v-115,2,-200,145,-196,274","w":506},"\u00f1":{"d":"322,-38v-4,-17,64,-296,58,-315v0,-30,-15,-45,-44,-45v-83,0,-168,119,-182,189v-12,62,-35,169,-35,209r-81,7v-10,-25,73,-368,73,-382v0,-35,-35,-26,-65,-27r0,-27v68,-11,119,-26,152,-45r3,3v0,39,-10,90,-29,151r2,0v37,-61,113,-141,203,-142v55,-1,84,35,84,87v7,24,-59,293,-57,309v3,44,59,10,72,-2r10,-8r4,29v-20,23,-72,57,-115,59v-33,1,-53,-19,-53,-50xm488,-670v-8,55,-29,115,-89,118v-38,2,-68,-32,-89,-52v-22,-21,-40,-23,-60,-2v-12,14,-17,27,-21,45r-35,-9v8,-54,29,-114,89,-114v36,0,66,33,87,52v23,20,43,24,62,2v12,-14,16,-27,20,-45","w":534},"\u00f2":{"d":"186,12v-108,2,-166,-70,-166,-175v0,-110,48,-197,120,-251v42,-32,91,-48,146,-48v109,-2,166,65,166,169v0,128,-63,224,-152,275v-35,20,-73,30,-114,30xm108,-144v0,82,27,123,82,123v81,0,132,-89,154,-159v13,-43,20,-86,20,-128v0,-81,-28,-121,-83,-121v-81,0,-131,85,-153,155v-13,43,-20,86,-20,130xm311,-504r-110,-171r0,-27r84,9r57,173","w":490},"\u00f3":{"d":"186,12v-108,2,-166,-70,-166,-175v0,-110,48,-197,120,-251v42,-32,91,-48,146,-48v109,-2,166,65,166,169v0,128,-63,224,-152,275v-35,20,-73,30,-114,30xm108,-144v0,82,27,123,82,123v81,0,132,-89,154,-159v13,-43,20,-86,20,-128v0,-81,-28,-121,-83,-121v-81,0,-131,85,-153,155v-13,43,-20,86,-20,130xm290,-503r-29,-19r118,-171r88,-9r0,27","w":490},"\u00f4":{"d":"186,12v-108,2,-166,-70,-166,-175v0,-110,48,-197,120,-251v42,-32,91,-48,146,-48v109,-2,166,65,166,169v0,128,-63,224,-152,275v-35,20,-73,30,-114,30xm108,-144v0,82,27,123,82,123v81,0,132,-89,154,-159v13,-43,20,-86,20,-128v0,-81,-28,-121,-83,-121v-81,0,-131,85,-153,155v-13,43,-20,86,-20,130xm194,-503r-30,-19r151,-176r39,0r80,176r-30,19r-84,-113","w":490},"\u00f5":{"d":"186,12v-108,2,-166,-70,-166,-175v0,-110,48,-197,120,-251v42,-32,91,-48,146,-48v109,-2,166,65,166,169v0,128,-63,224,-152,275v-35,20,-73,30,-114,30xm108,-144v0,82,27,123,82,123v81,0,132,-89,154,-159v13,-43,20,-86,20,-128v0,-81,-28,-121,-83,-121v-81,0,-131,85,-153,155v-13,43,-20,86,-20,130xm468,-670v-8,55,-29,115,-89,118v-38,2,-68,-32,-89,-52v-22,-21,-40,-23,-60,-2v-12,14,-17,27,-21,45r-35,-9v8,-54,29,-114,89,-114v36,0,66,33,87,52v23,20,43,24,62,2v12,-14,16,-27,20,-45","w":490},"\u00f6":{"d":"186,12v-108,2,-166,-70,-166,-175v0,-110,48,-197,120,-251v42,-32,91,-48,146,-48v109,-2,166,65,166,169v0,128,-63,224,-152,275v-35,20,-73,30,-114,30xm108,-144v0,82,27,123,82,123v81,0,132,-89,154,-159v13,-43,20,-86,20,-128v0,-81,-28,-121,-83,-121v-81,0,-131,85,-153,155v-13,43,-20,86,-20,130xm459,-633v0,34,-25,69,-63,69v-27,0,-40,-13,-40,-40v0,-34,25,-68,63,-68v27,0,40,13,40,39xm286,-633v0,34,-25,69,-63,69v-27,0,-40,-13,-40,-40v0,-34,25,-68,63,-68v27,0,40,13,40,39","w":490},"\u00f7":{"d":"314,-442v0,32,-28,60,-60,60v-32,0,-60,-28,-60,-60v0,-32,28,-60,60,-60v32,0,60,28,60,60xm30,-223r0,-55r448,0r0,55r-448,0xm254,1v-32,0,-60,-28,-60,-60v0,-32,28,-60,60,-60v32,0,60,28,60,60v0,32,-28,60,-60,60","w":520},"\u00f8":{"d":"66,-31v-60,-58,-55,-181,-17,-267v36,-81,122,-166,237,-164v33,0,63,6,88,19r27,-37r50,0r-45,60v53,49,56,149,28,230v-36,106,-112,202,-248,202v-34,0,-63,-6,-87,-19r-27,37r-51,0xm188,-384v-56,64,-91,177,-76,291r230,-307v-39,-49,-114,-30,-154,16xm283,-68v54,-66,94,-176,76,-288r-229,308v41,47,113,28,153,-20","w":490},"\u00f9":{"d":"317,-118v-40,59,-99,130,-185,130v-57,0,-85,-32,-85,-96v-6,-19,60,-277,57,-291v2,-33,-30,-27,-59,-27r0,-28v75,-12,125,-27,148,-44r3,3v8,23,-69,353,-69,370v0,35,14,53,42,53v82,1,164,-134,179,-209v16,-80,28,-143,31,-188r81,-13v9,25,-73,376,-72,391v3,44,61,13,73,-1r9,-8r4,29v-19,25,-71,58,-117,59v-65,1,-52,-75,-38,-130r-2,0xm312,-504r-110,-171r0,-27r84,9r57,173","w":524},"\u00fa":{"d":"317,-118v-40,59,-99,130,-185,130v-57,0,-85,-32,-85,-96v-6,-19,60,-277,57,-291v2,-33,-30,-27,-59,-27r0,-28v75,-12,125,-27,148,-44r3,3v8,23,-69,353,-69,370v0,35,14,53,42,53v82,1,164,-134,179,-209v16,-80,28,-143,31,-188r81,-13v9,25,-73,376,-72,391v3,44,61,13,73,-1r9,-8r4,29v-19,25,-71,58,-117,59v-65,1,-52,-75,-38,-130r-2,0xm291,-503r-29,-19r118,-171r88,-9r0,27","w":524},"\u00fb":{"d":"317,-118v-40,59,-99,130,-185,130v-57,0,-85,-32,-85,-96v-6,-19,60,-277,57,-291v2,-33,-30,-27,-59,-27r0,-28v75,-12,125,-27,148,-44r3,3v8,23,-69,353,-69,370v0,35,14,53,42,53v82,1,164,-134,179,-209v16,-80,28,-143,31,-188r81,-13v9,25,-73,376,-72,391v3,44,61,13,73,-1r9,-8r4,29v-19,25,-71,58,-117,59v-65,1,-52,-75,-38,-130r-2,0xm195,-503r-30,-19r151,-176r39,0r80,176r-30,19r-84,-113","w":524},"\u00fc":{"d":"317,-118v-40,59,-99,130,-185,130v-57,0,-85,-32,-85,-96v-6,-19,60,-277,57,-291v2,-33,-30,-27,-59,-27r0,-28v75,-12,125,-27,148,-44r3,3v8,23,-69,353,-69,370v0,35,14,53,42,53v82,1,164,-134,179,-209v16,-80,28,-143,31,-188r81,-13v9,25,-73,376,-72,391v3,44,61,13,73,-1r9,-8r4,29v-19,25,-71,58,-117,59v-65,1,-52,-75,-38,-130r-2,0xm460,-633v0,34,-25,69,-63,69v-27,0,-40,-13,-40,-40v0,-34,25,-68,63,-68v27,0,40,13,40,39xm287,-633v0,34,-25,69,-63,69v-27,0,-40,-13,-40,-40v0,-34,25,-68,63,-68v27,0,40,13,40,39","w":524},"\u00fd":{"d":"-71,237v-26,1,-44,-17,-44,-41v0,-26,20,-42,49,-42v78,0,100,-38,149,-89v19,-19,33,-40,33,-80v0,-90,-15,-297,-36,-358v-8,-25,-29,-31,-61,-29r0,-27v64,-14,107,-29,130,-45r4,2v23,147,34,280,35,400v47,-67,87,-131,120,-192v33,-61,50,-100,50,-119v0,-17,-17,-26,-35,-26r0,-25r123,-28r3,6v-42,99,-127,236,-187,332v-68,109,-163,235,-250,316v-32,30,-60,45,-83,45xm257,-503r-29,-19r118,-171r88,-9r0,27","w":428},"\u00fe":{"d":"137,203v-49,6,-134,26,-166,43r-4,-4v3,-43,10,-91,22,-144r151,-674v7,-35,11,-54,11,-59v2,-30,-30,-34,-64,-32r0,-27v75,-11,126,-25,154,-43r3,3v-11,124,-56,286,-85,404v6,-2,7,-10,11,-14v35,-49,85,-118,166,-118v72,0,112,66,110,150v-2,83,-31,156,-68,212v-40,60,-114,112,-210,112v-9,0,-35,-3,-80,-8r-24,107v-11,40,-21,72,25,67r46,-5xm161,-22v120,0,197,-153,197,-279v0,-67,-18,-101,-53,-101v-70,0,-153,133,-168,193r-31,128v-10,41,13,59,55,59","w":482},"\u00ff":{"d":"-71,237v-26,1,-44,-17,-44,-41v0,-26,20,-42,49,-42v78,0,100,-38,149,-89v19,-19,33,-40,33,-80v0,-90,-15,-297,-36,-358v-8,-25,-29,-31,-61,-29r0,-27v64,-14,107,-29,130,-45r4,2v23,147,34,280,35,400v47,-67,87,-131,120,-192v33,-61,50,-100,50,-119v0,-17,-17,-26,-35,-26r0,-25r123,-28r3,6v-42,99,-127,236,-187,332v-68,109,-163,235,-250,316v-32,30,-60,45,-83,45xm426,-633v0,34,-25,69,-63,69v-27,0,-40,-13,-40,-40v0,-34,25,-68,63,-68v27,0,40,13,40,39xm253,-633v0,34,-25,69,-63,69v-27,0,-40,-13,-40,-40v0,-34,25,-68,63,-68v27,0,40,13,40,39","w":428},"\u0152":{"d":"341,12v-174,3,-286,-124,-286,-297v0,-214,176,-394,395,-394v33,0,149,13,180,12r258,0r74,-4r-47,167r-34,0v5,-19,7,-38,7,-55v-1,-54,-28,-71,-84,-71r-124,0r-12,10r-52,263r176,0r18,-64r37,0r-35,176r-45,0r15,-75r-163,0r-12,10r-43,215r-16,58v79,-4,185,14,230,-23v18,-15,44,-50,77,-103r34,0r-58,163r-309,0v-48,-2,-140,12,-181,12xm504,-638v-221,-26,-357,150,-356,356v1,147,66,256,219,256v66,0,103,-22,112,-67r95,-474v11,-49,-30,-65,-70,-71","w":950},"\u0153":{"d":"186,12v-108,0,-166,-70,-166,-175v0,-110,48,-197,120,-251v42,-32,91,-48,146,-48v76,0,125,30,148,90v52,-60,110,-90,173,-90v52,0,99,22,97,77v-3,98,-111,136,-186,163v-24,8,-47,13,-70,18r-11,12v-7,117,68,164,163,130v28,-11,41,-19,60,-33r2,27v-35,40,-90,79,-166,80v-62,0,-104,-31,-127,-92v-49,61,-110,92,-183,92xm108,-144v0,82,27,123,82,123v81,0,132,-89,154,-159v13,-43,20,-86,20,-128v0,-81,-28,-121,-83,-121v-81,0,-131,85,-153,155v-13,43,-20,86,-20,130xm444,-234v60,-14,123,-38,160,-79v28,-31,32,-116,-17,-114v-29,0,-57,19,-85,59v-28,40,-47,85,-58,134","w":729},"\u0178":{"d":"125,3r0,-32v45,-5,71,-26,78,-62r41,-206r-122,-301v-9,-21,-24,-41,-47,-44r0,-25r52,0r86,-4v5,4,0,8,-1,15v-2,12,-7,50,2,61r77,197v6,17,12,36,18,58r191,-239v24,-29,13,-57,-26,-63r0,-25r162,0r4,14v-24,7,-50,27,-77,61r-235,294r-40,204r-15,54r84,9r-3,28xm327,-808v0,34,-25,69,-63,69v-27,0,-40,-13,-40,-40v0,-34,25,-68,63,-68v27,0,40,13,40,39xm552,-808v0,34,-25,69,-63,69v-27,0,-40,-13,-40,-40v0,-34,25,-68,63,-68v27,0,40,13,40,39","w":560},"\u02c6":{"d":"174,-503r-30,-19r151,-176r39,0r80,176r-30,19r-84,-113","w":500},"\u02dc":{"d":"448,-670v-8,55,-29,115,-89,118v-38,2,-68,-32,-89,-52v-22,-21,-40,-23,-60,-2v-12,14,-17,27,-21,45r-35,-9v8,-54,29,-114,89,-114v36,0,66,33,87,52v23,20,43,24,62,2v12,-14,16,-27,20,-45","w":500},"\u2013":{"d":"57,-227r0,-53r410,0r0,53r-410,0","w":532},"\u2014":{"d":"57,-227r0,-53r800,0r0,53r-800,0","w":922},"\u2018":{"d":"111,-476v-40,-53,-31,-116,9,-170v23,-32,56,-60,99,-85r17,27v-54,38,-81,70,-81,95v0,19,16,38,47,57r-8,35","w":191},"\u2019":{"d":"84,-504v54,-38,81,-69,81,-94v0,-19,-16,-39,-47,-58r8,-35r83,-41v38,52,30,117,-9,170v-23,32,-56,60,-99,85","w":196},"\u201a":{"d":"-28,109v54,-38,81,-69,81,-94v0,-19,-16,-39,-47,-58r8,-35r83,-41v38,52,30,117,-9,170v-23,32,-56,60,-99,85","w":216},"\u201c":{"d":"111,-476v-40,-53,-31,-116,9,-170v23,-32,56,-60,99,-85r17,27v-54,38,-81,70,-81,95v0,19,16,38,47,57r-8,35xm268,-476v-40,-53,-32,-116,8,-170v23,-32,57,-60,100,-85r17,27v-54,38,-81,70,-81,95v0,19,16,38,47,57r-8,35","w":348},"\u201d":{"d":"84,-504v54,-38,81,-69,81,-94v0,-19,-16,-39,-47,-58r8,-35r83,-41v38,52,30,117,-9,170v-23,32,-56,60,-99,85xm241,-504v54,-38,81,-69,81,-94v0,-19,-16,-39,-47,-58r8,-35r83,-41v38,52,30,117,-9,170v-23,32,-56,60,-99,85","w":353},"\u201e":{"d":"-28,109v54,-38,81,-69,81,-94v0,-19,-16,-39,-47,-58r8,-35r83,-41v38,52,30,117,-9,170v-23,32,-56,60,-99,85xm127,109v54,-38,81,-69,81,-94v0,-19,-16,-39,-47,-58r8,-35r83,-41v38,52,30,117,-9,170v-23,32,-56,60,-99,85","w":371},"\u2022":{"d":"321,-256v0,76,-62,138,-138,138v-77,0,-138,-62,-138,-138v0,-76,62,-138,138,-138v77,0,138,62,138,138","w":374},"\u2026":{"d":"636,-66v0,39,-28,78,-70,78v-29,0,-43,-14,-43,-43v0,-40,27,-77,69,-77v29,0,44,14,44,42xm381,-66v0,39,-28,78,-70,78v-29,0,-43,-14,-43,-43v0,-40,27,-77,69,-77v29,0,44,14,44,42xm124,-66v0,39,-28,78,-70,78v-29,0,-43,-14,-43,-43v0,-40,27,-77,69,-77v29,0,44,14,44,42","w":729},"\u2039":{"d":"218,-40v-101,-121,-164,-190,-188,-209r0,-4v18,-11,91,-81,220,-209r28,10r-141,201r107,201","w":308},"\u203a":{"d":"25,-50r141,-201r-107,-201r26,-10v101,121,164,190,188,209r0,4v-18,11,-91,81,-220,209","w":312},"\u20ac":{"d":"270,12v-129,2,-194,-86,-194,-211r-54,0r0,-38r56,0v1,-17,6,-41,15,-70r-47,0r0,-38r60,0v52,-125,169,-254,348,-211v36,8,53,13,77,25r-49,107r-29,0v14,-69,-11,-103,-76,-103v-41,0,-77,17,-109,51v-32,34,-58,78,-77,131r260,0r-17,38r-254,0v-6,24,-10,47,-12,70r236,0r-17,38r-220,0v2,85,36,156,119,156v50,0,106,-14,134,-33r9,22v-27,30,-98,65,-159,66","w":510},"\u2122":{"d":"318,-592v4,-49,-27,-52,-73,-50r0,199r-2,22r40,4r-1,18r-120,2r0,-20v19,-1,28,-10,28,-26r0,-199v-51,-3,-65,11,-81,50r-22,0r13,-77v68,5,145,1,217,2r34,-2r-12,77r-21,0xm699,-667v-8,9,-12,32,-12,51r8,176r-1,20r36,3r-3,18r-115,2r0,-20v19,-1,28,-9,28,-23r-7,-197r-90,239r-25,-4r-85,-230r-10,212r37,3r-2,18r-93,2r0,-20v18,-1,28,-10,29,-25r8,-178v1,-26,-8,-22,-33,-30r0,-17r111,-2r57,163r6,23r69,-184r85,-2","w":745}}});
