/*!
 * The following copyright notice may not be removed under any circumstances.
 * 
 * Copyright:
 * Copyright (c) 2008 by Jos Buivenga. All rights reserved.
 * 
 * Trademark:
 * Museo Sans is a trademark of Jos Buivenga.
 * 
 * Description:
 * Spaced and kerned with iKern.
 * 
 * Manufacturer:
 * Jos Buivenga
 * 
 * Designer:
 * Jos Buivenga
 * 
 * Vendor URL:
 * http://www.josbuivenga.demon.nl
 */
Cufon.registerFont({"w":534,"face":{"font-family":"Museo Sans 700","font-weight":600,"font-style":"italic","font-stretch":"normal","units-per-em":"1000","panose-1":"2 0 0 0 0 0 0 0 0 0","ascent":"750","descent":"-250","x-height":"12","bbox":"-151 -902 1026 210.586","underline-thickness":"50","underline-position":"-50","unicode-range":"U+0020-U+2122"},"glyphs":{" ":{"w":245},"!":{"d":"91,-205r88,-505r132,0r-109,505r-111,0xm46,0r24,-119r123,0r-24,119r-123,0","w":329},"\"":{"d":"257,-514r40,-209r94,0r-40,209r-94,0xm96,-514r41,-209r94,0r-41,209r-94,0","w":364},"#":{"d":"62,0r69,-187r-117,0r33,-91r117,0r52,-140r-116,0r34,-92r115,0r74,-200r104,0r-74,200r137,0r74,-200r104,0r-74,200r118,0r-33,92r-118,0r-52,140r117,0r-34,91r-117,0r-68,187r-105,0r69,-187r-136,0r-69,187r-104,0xm268,-278r136,0r53,-140r-137,0","w":705},"$":{"d":"355,-603v-75,0,-167,76,-105,141v32,32,75,45,118,70v69,39,139,83,140,186v2,121,-112,214,-235,217r-17,90r-86,0r18,-95v-76,-12,-138,-42,-181,-91r79,-91v37,37,95,66,170,69v74,3,162,-74,106,-138v-80,-90,-258,-94,-262,-261v-3,-120,114,-206,229,-214r18,-91r86,0r-18,93v64,9,129,38,161,73r-71,95v-26,-26,-94,-53,-150,-53","w":575},"%":{"d":"419,-580v0,89,-95,174,-185,174v-85,0,-147,-57,-147,-141v0,-88,95,-175,185,-175v83,0,147,61,147,142xm15,0r670,-710r123,0r-670,710r-123,0xm185,-551v0,31,25,53,58,53v40,0,78,-37,78,-78v0,-32,-25,-54,-58,-54v-39,0,-78,40,-78,79xm552,12v-85,0,-147,-57,-147,-140v0,-89,94,-175,185,-175v83,0,147,61,147,142v0,89,-95,173,-185,173xm581,-212v-38,0,-78,40,-78,79v0,33,24,53,58,53v40,0,78,-37,78,-78v0,-31,-25,-54,-58,-54","w":805},"&":{"d":"260,12v-135,3,-235,-70,-235,-194v0,-93,80,-179,162,-198r0,-2v-39,-18,-67,-59,-67,-119v0,-169,186,-260,353,-205r-48,98v-89,-24,-177,25,-176,110v0,49,30,73,91,73r114,0r18,-92r127,0r-18,92r92,0r-22,112r-92,0r-16,84v-27,148,-119,239,-283,241xm312,-313v-79,0,-154,42,-152,123v1,53,46,85,104,84v88,-1,139,-51,154,-130r15,-77r-121,0","w":688},"'":{"d":"96,-514r41,-209r96,0r-41,209r-96,0","w":206},"(":{"d":"114,95v-37,-88,-55,-178,-55,-271v0,-217,70,-405,210,-565r111,0v-139,173,-209,362,-209,568v0,96,15,185,46,268r-103,0","w":311},")":{"d":"51,95r-111,0v139,-175,209,-364,209,-568v0,-93,-15,-183,-46,-268r103,0v37,87,55,177,55,271v0,215,-70,404,-210,565","w":312},"*":{"d":"163,-321r-83,-68r104,-102r0,-2r-116,-29r55,-106r111,49r16,-131r115,0r-35,131r132,-49r15,109r-137,34r0,2r63,97r-98,66r-50,-111r-2,0","w":461},"+":{"d":"221,0r46,-236r-216,0r19,-99r216,0r46,-237r103,0r-46,237r216,0r-18,99r-216,0r-47,236r-103,0","w":661},",":{"d":"-57,105r112,-234r129,0r-142,234r-99,0","w":274},"-":{"d":"64,-230r21,-111r301,0r-21,111r-301,0","w":457},".":{"d":"11,0r24,-128r128,0r-25,128r-127,0","w":262},"\/":{"d":"76,42r-115,0r406,-788r117,0","w":415},"0":{"d":"55,-228v1,-147,43,-280,105,-372v43,-63,118,-122,219,-122v147,0,220,80,220,239v-1,148,-44,280,-105,373v-43,64,-119,122,-220,122v-146,0,-219,-80,-219,-240xm188,-232v0,84,30,126,90,126v119,0,154,-147,176,-258v7,-40,11,-77,11,-112v0,-85,-30,-127,-90,-127v-74,0,-120,72,-143,135v-25,68,-43,152,-44,236","w":631},"1":{"d":"0,0r20,-111r154,0r76,-384r12,-48r-2,0v-26,32,-74,65,-107,94r-66,-88r217,-173r113,0r-117,599r153,0r-22,111r-431,0","w":509},"2":{"d":"354,-722v114,-2,216,72,211,186v-10,208,-222,252,-343,354v-29,25,-48,48,-54,71r326,0r-22,111r-469,0v8,-234,200,-299,341,-399v40,-29,81,-65,83,-122v2,-50,-39,-79,-90,-79v-53,0,-108,34,-146,84r-91,-71v52,-67,134,-133,254,-135","w":581},"3":{"d":"507,-243v0,139,-128,259,-278,255v-101,-3,-178,-37,-229,-85r-8,-10r76,-91v24,33,93,64,157,64v76,0,150,-54,149,-127v-1,-82,-92,-94,-184,-89r-15,-66r154,-154v22,-23,43,-41,63,-54r0,-2v-79,6,-184,2,-270,3r22,-111r433,0r-15,81r-210,204v81,14,155,80,155,182","w":574},"4":{"d":"6,-183r15,-79r382,-448r164,0r-81,420r91,0r-21,107r-91,0r-36,183r-127,0r36,-183r-332,0xm173,-290r185,0r43,-220r19,-74r-2,0v-15,25,-31,47,-47,65r-198,227r0,2","w":619},"5":{"d":"520,-262v0,150,-142,274,-292,274v-98,0,-177,-33,-225,-96r80,-90v29,35,79,63,144,64v78,1,158,-64,158,-145v0,-63,-55,-100,-121,-99v-43,0,-82,10,-116,30r-70,-27r103,-359r377,0r-22,111r-261,0r-34,115r-12,33v144,-52,291,46,291,189","w":573},"6":{"d":"551,-261v0,137,-116,273,-261,273v-147,0,-244,-109,-240,-264v2,-117,50,-227,104,-306v69,-101,205,-193,376,-156v37,8,48,13,71,24r-55,104v-84,-30,-177,-20,-236,38v-38,37,-68,81,-88,135r2,0v24,-28,81,-50,130,-50v123,-2,197,82,197,202xm181,-245v0,71,43,139,110,139v75,0,134,-75,133,-151v-1,-63,-42,-100,-109,-100v-64,0,-134,49,-134,112","w":605},"7":{"d":"10,0r369,-534v16,-24,38,-48,56,-65r0,-2v-9,1,-25,2,-49,2r-294,0r22,-111r488,0r-18,90r-432,620r-142,0","w":543},"8":{"d":"265,12v-135,0,-234,-72,-234,-198v0,-105,82,-164,146,-208v-37,-33,-55,-72,-55,-117v1,-118,116,-211,250,-211v121,0,217,61,215,176v-2,93,-67,156,-117,202v47,35,71,77,71,127v0,130,-133,229,-276,229xm268,-102v76,0,159,-54,138,-136v-26,-51,-93,-71,-143,-100v-65,45,-97,92,-97,143v-1,55,46,93,102,93xm366,-607v-74,0,-139,61,-106,132v9,20,51,45,69,55v9,5,26,14,50,25v34,-29,78,-79,78,-140v0,-48,-40,-72,-91,-72","w":613},"9":{"d":"340,-722v147,0,241,109,238,264v-4,153,-70,274,-148,360v-68,75,-192,132,-332,102v-38,-8,-49,-13,-72,-23r55,-105v82,32,176,22,235,-36v38,-37,69,-82,90,-136r-2,0v-20,24,-82,50,-130,50v-122,0,-197,-83,-197,-202v0,-137,118,-274,263,-274xm204,-453v1,62,41,101,107,101v65,0,136,-50,136,-113v0,-70,-44,-138,-110,-138v-76,0,-134,73,-133,150","w":606},":":{"d":"98,-381r25,-129r127,0r-25,129r-127,0xm23,0r25,-128r128,0r-25,128r-128,0","w":291},";":{"d":"110,-381r25,-129r124,0r-25,129r-124,0xm-50,105r111,-234r129,0r-141,234r-99,0","w":299},"<":{"d":"24,-245r0,-82r481,-214r0,111r-347,143r0,2r347,143r0,111","w":576},"=":{"d":"82,-339r0,-98r488,0r0,98r-488,0xm82,-134r0,-98r488,0r0,98r-488,0","w":662},">":{"d":"66,-31r0,-111r347,-143r0,-2r-347,-143r0,-111r481,214r0,82","w":576},"?":{"d":"280,-724v106,-2,199,64,197,168v-3,144,-126,184,-199,258v-28,28,-32,53,-40,93r-122,0v9,-49,17,-88,42,-125v44,-64,120,-93,166,-153v13,-17,19,-36,19,-55v0,-42,-38,-69,-82,-69v-40,0,-78,14,-115,42r-57,-95v35,-29,122,-64,191,-64xm76,0r24,-119r123,0r-23,119r-124,0","w":486},"@":{"d":"367,127v-185,4,-334,-124,-332,-303v1,-128,61,-238,131,-307v70,-70,181,-129,310,-130v87,0,151,17,190,50v50,43,69,103,54,183r-45,235r72,0r-18,91r-264,0v-111,3,-193,-64,-194,-165v0,-113,116,-210,241,-204r97,0v8,-68,-65,-86,-134,-88v-162,-6,-314,169,-314,328v0,127,91,216,225,213xm519,-341v-64,-2,-121,57,-121,119v0,46,33,77,81,77r76,0r38,-196r-74,0","w":826},"A":{"d":"85,0r-138,0r381,-710r146,0r109,710r-129,0r-25,-182r-249,0xm232,-287r186,0r-27,-190r-8,-110r-2,0v-46,123,-95,193,-149,300","w":639},"B":{"d":"492,-372v53,18,86,70,86,138v0,112,-72,187,-159,217v-32,11,-68,17,-108,17r-279,0r138,-710r228,0v90,0,146,20,183,70v18,26,27,56,27,91v-1,83,-53,148,-116,175r0,2xm475,-532v0,-44,-28,-68,-75,-67r-123,0r-35,179r125,0v61,2,109,-51,108,-112xm446,-237v0,-50,-34,-80,-86,-79r-138,0r-40,205r138,0v54,0,86,-24,108,-59v12,-20,18,-43,18,-67","w":645},"C":{"d":"464,0v-230,53,-416,-81,-416,-298v0,-222,199,-429,419,-424v118,2,206,39,263,98r-75,89v-41,-37,-104,-67,-184,-69v-158,-5,-290,146,-290,298v0,116,76,203,195,200v98,-2,170,-46,226,-89r53,102v-50,39,-112,75,-191,93","w":720},"D":{"d":"712,-431v0,236,-181,431,-418,431r-262,0r138,-710r222,0v190,-2,320,96,320,279xm579,-420v0,-118,-76,-180,-195,-179r-107,0r-95,488r106,0v169,4,291,-140,291,-309","w":738},"E":{"d":"31,0r139,-710r424,0r-22,111r-296,0r-36,186r239,0r-22,111r-239,0r-37,191r312,0r-21,111r-441,0","w":573},"F":{"d":"32,0r138,-710r407,0r-21,111r-280,0r-38,201r235,0r-21,111r-236,0r-56,287r-128,0","w":530},"G":{"d":"349,12v-169,2,-301,-130,-301,-306v0,-227,198,-428,426,-428v87,0,193,32,236,66r26,21r-76,90v-32,-30,-113,-59,-183,-59v-166,0,-296,143,-296,302v0,118,80,196,195,196v66,0,138,-29,194,-77r16,-80r-110,0r22,-111r225,0r-73,374r-110,0r14,-65r-2,0v-44,42,-115,76,-203,77","w":760},"H":{"d":"32,0r138,-710r128,0r-59,301r325,0r59,-301r129,0r-139,710r-128,0r58,-298r-325,0r-58,298r-128,0","w":761},"I":{"d":"31,0r139,-710r128,0r-138,710r-129,0","w":308},"J":{"d":"356,-42v-119,102,-355,55,-355,-122v0,-32,7,-60,12,-87r128,0v-4,18,-10,54,-10,69v0,51,25,76,75,76v62,0,99,-45,111,-106r75,-387r-182,0r22,-111r310,0r-98,509v-14,71,-45,122,-88,159","w":543},"K":{"d":"31,0r139,-710r128,0r-56,289r87,0r227,-289r149,0r-274,344r140,366r-137,0r-114,-310r-100,0r-60,310r-129,0","w":648},"L":{"d":"32,0r138,-710r129,0r-117,599r307,0r-23,111r-434,0"},"M":{"d":"10,0r192,-710r138,0r72,351v6,28,11,63,14,104r2,0v21,-41,39,-76,56,-104r208,-351r140,0r-81,710r-127,0r49,-397r20,-110r-2,0v-76,148,-148,249,-228,385r-114,0r-62,-275r-17,-112r-2,0v-7,43,-14,81,-22,112r-107,397r-129,0","w":877},"N":{"d":"32,0r138,-710r122,0r190,410v13,28,29,78,37,110r2,0v4,-45,9,-82,14,-110r80,-410r128,0r-138,710r-122,0r-189,-409v-13,-29,-27,-79,-38,-110r-2,0v-4,45,-9,82,-14,110r-80,409r-128,0","w":753},"O":{"d":"370,12v-187,0,-325,-129,-323,-312v1,-165,103,-298,216,-364v65,-38,133,-58,204,-58v185,0,326,125,324,305v-1,167,-104,304,-218,371v-65,38,-132,58,-203,58xm466,-604v-147,0,-287,145,-287,297v0,115,79,201,192,201v145,0,287,-150,287,-303v0,-113,-80,-195,-192,-195","w":815},"P":{"d":"424,-710v127,0,202,67,204,190v2,119,-73,213,-158,252v-71,33,-165,20,-262,23r-48,245r-129,0r139,-710r254,0xm496,-510v0,-58,-38,-90,-98,-89r-121,0r-48,242v66,-3,146,8,190,-15v43,-23,77,-74,77,-138","w":615},"Q":{"d":"370,12v-187,0,-325,-129,-323,-312v1,-165,103,-298,216,-364v65,-38,133,-58,204,-58v185,0,324,125,324,305v0,109,-41,206,-124,290r64,71r-82,76r-63,-78v-66,47,-138,70,-216,70xm466,-604v-147,0,-287,145,-287,297v0,115,79,203,192,201v47,0,92,-14,137,-43r-65,-77r81,-75r64,80v47,-57,70,-119,70,-188v0,-113,-80,-195,-192,-195","w":825},"R":{"d":"619,-538v-1,111,-69,211,-162,237v3,10,9,19,16,38r95,263r-138,0r-90,-265r-128,0r-51,265r-129,0r138,-710r251,0v123,-1,199,62,198,172xm487,-516v0,-55,-37,-83,-93,-83r-117,0r-43,222r114,0v79,1,139,-58,139,-139","w":651},"S":{"d":"500,-206v1,125,-121,221,-254,218v-111,-3,-194,-40,-247,-97r79,-91v37,37,95,68,170,69v60,1,126,-38,122,-99v-3,-49,-57,-74,-98,-96v-81,-42,-177,-86,-180,-204v-3,-126,128,-219,257,-216v96,2,172,30,219,77r-70,95v-26,-26,-94,-53,-150,-53v-82,0,-174,87,-98,148v89,70,248,91,250,249","w":558},"T":{"d":"174,0r116,-599r-231,0r21,-111r592,0r-21,111r-232,0r-117,599r-128,0","w":595},"U":{"d":"325,12v-162,0,-286,-98,-252,-272r87,-450r129,0r-89,454v-18,95,37,151,129,150v102,-1,169,-61,186,-151r88,-453r129,0r-90,460v-26,150,-146,262,-317,262","w":731},"V":{"d":"193,0r-118,-710r136,0r66,463r7,104r2,0v17,-42,32,-77,47,-104r247,-463r145,0r-394,710r-138,0","w":645},"W":{"d":"150,0r-47,-710r133,0r20,491v1,27,1,52,-1,75r2,0v7,-23,17,-48,30,-75r225,-491r111,0r27,491r0,75r2,0v7,-25,15,-50,26,-75r207,-491r141,0r-317,710r-150,0r-26,-420r0,-93r-2,0v-11,32,-23,63,-37,93r-196,420r-148,0","w":973},"X":{"d":"-40,0r290,-365r-145,-345r140,0r66,171r29,87r2,0v56,-93,127,-172,190,-258r151,0r-284,354r154,356r-138,0r-75,-188r-29,-83r-2,0v-62,94,-136,181,-203,271r-146,0","w":627},"Y":{"d":"168,0r58,-297r-153,-413r138,0r71,209v10,27,19,67,25,95r2,0v65,-109,139,-202,209,-304r154,0r-319,418r-57,292r-128,0","w":591},"Z":{"d":"-20,0r16,-83r393,-452v19,-23,45,-48,65,-64r0,-2v-13,1,-30,2,-52,2r-290,0r21,-111r513,0r-17,82r-395,453v-19,23,-44,48,-65,64r0,2v13,-1,31,-2,53,-2r311,0r-21,111r-532,0","w":612},"[":{"d":"141,3r89,0r-19,92r-197,0r163,-836r197,0r-18,92r-89,0","w":316},"\\":{"d":"207,42r-102,-788r104,0r102,788r-104,0","w":404},"]":{"d":"-35,3r89,0r126,-652r-89,0r18,-92r197,0r-162,836r-197,0","w":311},"^":{"d":"7,-245r201,-465r80,0r201,465r-110,0r-131,-331r-131,331r-110,0","w":619},"_":{"d":"-39,0r561,0r-19,98r-560,0","w":599},"`":{"d":"182,-757r-77,-136r125,0r49,136r-97,0","w":493},"a":{"d":"147,12v-80,1,-152,-50,-151,-130v2,-127,113,-174,224,-193v42,-7,84,-10,130,-9v12,-61,-13,-98,-79,-97v-54,1,-116,26,-150,48r-30,-98v40,-25,132,-55,202,-55v104,1,190,48,187,157v0,13,-2,30,-5,50r-61,315r-117,0v5,-28,11,-55,18,-80r-2,0v-32,47,-87,90,-166,92xm124,-140v1,34,28,54,66,53v70,0,136,-81,144,-146r-21,0v-66,1,-133,8,-169,43v-14,14,-20,31,-20,50"},"b":{"d":"295,12v-69,0,-128,-31,-151,-81r-2,0v-1,23,-6,48,-11,69r-119,0r138,-710r126,0r-41,216r-12,46r2,0v31,-39,90,-74,155,-74v124,-1,193,88,193,215v0,91,-29,167,-85,228v-56,61,-120,91,-193,91xm343,-413v-90,-1,-163,106,-163,205v0,66,33,114,100,113v91,-1,164,-98,164,-203v0,-67,-36,-115,-101,-115","w":612},"c":{"d":"337,4v-172,37,-316,-57,-316,-218v0,-164,148,-312,316,-308v84,2,163,31,198,75r-67,80v-21,-23,-77,-47,-125,-47v-101,0,-193,92,-193,192v0,75,53,126,131,126v53,0,112,-24,164,-65r34,98v-37,28,-84,54,-142,67","w":546},"d":{"d":"217,12v-123,1,-194,-87,-194,-213v0,-171,124,-322,283,-321v62,0,120,26,141,70r2,0v1,-11,2,-22,4,-31r44,-227r127,0r-138,710r-120,0r17,-76r-2,0v-32,47,-90,88,-164,88xm316,-413v-91,1,-164,98,-164,203v0,67,37,115,102,115v89,0,162,-108,162,-204v0,-65,-33,-115,-100,-114","w":614},"e":{"d":"270,12v-144,3,-246,-86,-248,-219v-3,-168,129,-315,295,-315v128,0,204,72,204,193v0,29,-6,62,-18,98r-351,0v-9,83,44,137,125,135v60,-1,124,-30,158,-56r34,97v-36,32,-127,66,-199,67xm394,-318v11,-61,-22,-107,-79,-106v-71,1,-122,50,-143,106r222,0","w":553},"f":{"d":"39,0r78,-402r-63,0r19,-101r63,0v22,-145,118,-228,292,-208r-22,108v-75,-10,-132,19,-140,82r-3,18r109,0r-19,101r-110,0r-78,402r-126,0","w":349},"g":{"d":"222,-10v-124,2,-197,-87,-196,-209v1,-113,52,-200,124,-256v80,-63,252,-66,293,23r3,0v2,-23,6,-38,9,-58r120,0r-95,487v-17,102,-87,183,-168,213v-101,37,-238,22,-317,-28r53,-93v60,39,182,45,247,3v46,-30,58,-91,71,-153r-1,0v-37,47,-85,71,-143,71xm306,-414v-93,0,-152,91,-152,185v0,68,36,112,103,112v94,0,153,-109,152,-201v0,-64,-34,-96,-103,-96","w":603},"h":{"d":"409,-522v94,1,154,44,153,139v0,15,-2,36,-7,61r-62,322r-127,0r58,-298v13,-59,3,-108,-58,-108v-92,0,-166,92,-182,176r-45,230r-127,0r138,-710r127,0r-47,246r-11,45r2,0v27,-51,109,-104,188,-103","w":613},"i":{"d":"128,-597r22,-113r127,0r-22,113r-127,0xm12,0r99,-510r127,0r-100,510r-126,0","w":266},"j":{"d":"128,-597r22,-113r127,0r-22,113r-127,0xm12,5r99,-515r127,0r-101,524v-25,135,-124,208,-288,190r21,-107v77,10,129,-23,142,-92","w":266},"k":{"d":"12,0r138,-710r127,0r-74,380r61,0r159,-180r150,0r-212,234r124,276r-135,0r-95,-223r-72,0r-44,223r-127,0","w":552},"l":{"d":"166,5v-110,3,-148,-69,-128,-172r105,-543r127,0r-101,523v-11,44,-11,78,37,79r18,-1r-22,111v-12,2,-24,3,-36,3","w":284},"m":{"d":"530,-417v34,-52,106,-105,187,-105v96,0,144,46,144,137v0,19,-3,42,-8,70r-61,315r-126,0r58,-301v13,-52,4,-107,-52,-105v-87,3,-147,101,-162,182r-44,224r-127,0r59,-301v12,-51,5,-107,-51,-105v-87,3,-148,101,-164,182r-44,224r-127,0r99,-510r123,0r-11,55r-11,41r2,0v32,-51,99,-109,179,-108v77,0,122,35,135,105r2,0","w":913},"n":{"d":"408,-522v94,1,155,44,154,139v0,11,-3,33,-9,66r-61,317r-127,0r58,-297v15,-63,5,-108,-58,-109v-92,0,-166,92,-182,176r-44,230r-127,0r99,-510r123,0r-9,46r-13,50r2,0v29,-51,112,-109,194,-108","w":613},"o":{"d":"270,12v-140,0,-250,-90,-250,-226v0,-165,154,-308,315,-308v140,0,251,89,251,225v0,166,-155,309,-316,309xm334,-414v-95,0,-186,93,-186,194v0,73,51,124,124,124v96,0,185,-91,185,-193v0,-73,-51,-125,-123,-125","w":623},"p":{"d":"379,-522v123,-1,193,89,193,215v0,91,-28,167,-84,228v-56,61,-121,91,-194,91v-68,0,-116,-25,-145,-75r-2,0v-11,91,-33,176,-48,263r-126,0r137,-710r116,0v-4,26,-10,51,-17,74r2,0v32,-46,93,-86,168,-86xm342,-413v-88,-1,-163,106,-163,203v0,65,34,116,100,115v92,-1,164,-96,164,-203v0,-67,-36,-115,-101,-115","w":611},"q":{"d":"217,12v-123,1,-194,-86,-194,-212v0,-172,124,-323,283,-322v71,0,120,25,147,75r2,0v1,-18,6,-45,10,-63r120,0r-138,710r-127,0r43,-220r12,-45r-2,0v-39,51,-91,77,-156,77xm316,-413v-91,1,-164,98,-164,203v0,67,36,115,101,115v90,0,163,-107,163,-204v0,-65,-33,-115,-100,-114","w":613},"r":{"d":"207,-385v35,-70,106,-145,212,-130r-25,125v-64,-9,-98,11,-146,58v-78,75,-82,210,-109,332r-127,0r99,-510r122,0r-17,88v-2,12,-9,27,-9,37","w":394},"s":{"d":"389,-148v1,100,-96,160,-203,160v-78,0,-149,-27,-202,-74r66,-82v22,26,83,51,136,51v38,0,86,-18,83,-55v-2,-32,-45,-47,-75,-60v-64,-28,-138,-63,-139,-153v-1,-130,167,-192,298,-147v43,15,57,24,81,44r-58,87v-20,-21,-73,-40,-119,-40v-39,0,-86,17,-83,55v3,32,45,45,76,59v65,29,138,64,139,155","w":450},"t":{"d":"283,2v-141,22,-241,-55,-212,-200r40,-204r-65,0r19,-101r69,0r29,-146r122,0r-29,146r117,0r-19,101r-117,0r-36,186v-14,63,5,112,76,109r28,-2","w":374},"u":{"d":"187,12v-91,-1,-155,-44,-153,-139v0,-12,3,-33,8,-62r62,-321r127,0r-57,293v-14,59,-7,113,58,113v90,0,160,-94,176,-176r44,-230r127,0r-99,510r-123,0v6,-33,13,-65,22,-95r-2,0v-31,51,-107,108,-190,107","w":608},"v":{"d":"125,0r-85,-510r126,0r44,317r4,77r2,0v11,-31,22,-57,33,-77r167,-317r135,0r-282,510r-144,0","w":513},"w":{"d":"110,0r-56,-510r126,0r24,336r-1,54r2,0v7,-18,14,-36,23,-54r159,-335r111,0r29,335r1,54r2,0v5,-18,12,-36,20,-54r155,-336r136,0r-255,510r-140,0r-30,-292r-2,-55r-2,0v-50,121,-112,231,-166,347r-136,0","w":815},"x":{"d":"-40,0r222,-262r-122,-248r135,0v23,57,52,108,70,170r2,0v7,-15,14,-26,21,-34r106,-136r148,0r-216,256r124,254r-132,0r-65,-145r-11,-29r-2,0v-42,63,-89,115,-134,174r-146,0","w":522},"y":{"d":"-36,85v14,12,32,18,53,18v41,0,74,-22,101,-65r29,-46r-118,-502r132,0r58,309r6,65r2,0v11,-25,21,-46,30,-63r160,-311r143,0r-343,588v-41,72,-102,132,-194,132v-44,0,-83,-12,-116,-36","w":521},"z":{"d":"-22,0r13,-68r280,-287r51,-47r0,-2v-76,5,-175,1,-257,2r21,-108r433,0r-13,69r-280,287v-16,17,-34,33,-53,47r0,2v81,-7,187,-1,275,-3r-21,108r-449,0","w":522},"{":{"d":"259,97v-99,10,-179,-31,-178,-131v1,-61,23,-104,25,-162v2,-44,-28,-74,-68,-76r22,-111v59,-7,93,-48,105,-106r19,-95v22,-116,103,-168,238,-159r-18,94v-66,-7,-103,22,-116,84v-15,73,-19,164,-69,202v-19,15,-38,28,-61,35r0,2v43,17,69,71,57,135r-21,110v-14,57,18,94,83,84","w":365},"|":{"d":"114,161r0,-957r108,0r0,957r-108,0","w":330},"}":{"d":"113,-743v102,-8,177,31,178,132v1,65,-45,152,-5,203v15,19,27,22,50,25r-21,111v-58,8,-94,49,-106,107r-20,104v-22,115,-106,170,-239,158r18,-94v66,7,104,-22,116,-84r25,-127v12,-60,49,-101,108,-120r0,-2v-43,-17,-71,-70,-58,-134r19,-101v14,-57,-18,-94,-83,-84","w":363},"~":{"d":"210,-285v-44,0,-62,41,-62,86r-101,0v0,-121,51,-182,154,-182v44,-1,85,22,105,45v18,19,45,46,79,46v44,0,62,-42,62,-87r100,0v0,121,-51,182,-153,182v-44,0,-83,-23,-104,-45v-18,-19,-47,-45,-80,-45","w":597},"\u00a0":{"w":245},"\u00a1":{"d":"106,-391r23,-119r124,0r-24,119r-123,0xm-12,200r109,-505r111,0r-88,505r-132,0","w":302},"\u00a2":{"d":"181,-305v0,69,36,115,103,115v55,0,107,-35,139,-87r111,47v-46,75,-121,148,-233,160r-16,82r-87,0r17,-89v-96,-23,-163,-107,-163,-226v0,-165,128,-321,272,-334r17,-84r86,0r-17,88v81,17,135,74,156,159r-115,42v-9,-49,-42,-87,-102,-88v-96,-1,-168,109,-168,215","w":583},"\u00a3":{"d":"498,-565v-16,-19,-60,-40,-98,-40v-59,-1,-108,40,-117,90r-23,117r177,0r-17,87r-177,0r-39,200r312,0r-22,111r-500,0r22,-111r57,0r39,-200r-43,0r17,-87r43,0r25,-130v22,-125,157,-224,311,-186v51,13,87,38,115,69","w":590},"\u00a5":{"d":"179,0r37,-186r-163,0r14,-77r163,0r7,-33r-17,-48r-137,0r15,-76r99,0r-98,-290r140,0r57,190r25,114r2,0v52,-112,127,-203,191,-304r153,0r-210,290r98,0r-15,76r-137,0r-35,48r-7,33r163,0r-14,77r-163,0r-37,186r-131,0","w":613},"\u00a7":{"d":"323,-618v-84,-1,-126,60,-124,144r5,336r-97,0r-5,-340v-4,-136,82,-244,222,-244v66,0,127,23,170,65r-66,74v-26,-23,-61,-35,-105,-35xm154,-42v84,1,126,-59,124,-144r-4,-336r97,0r4,340v3,136,-81,244,-221,244v-67,0,-128,-23,-171,-65r66,-74v26,23,61,35,105,35","w":467},"\u00a8":{"d":"226,-777r23,-116r98,0r-23,116r-98,0xm42,-777r23,-116r98,0r-23,116r-98,0","w":493},"\u00a9":{"d":"418,12v-194,0,-357,-172,-357,-367v0,-196,163,-366,357,-366v196,0,360,170,360,366v0,196,-164,367,-360,367xm418,-640v-150,0,-268,132,-268,285v0,153,118,286,268,286v152,0,272,-132,272,-286v0,-154,-120,-285,-272,-285xm486,-170v-132,48,-250,-57,-250,-183v0,-105,81,-195,187,-195v73,0,132,40,162,105r-76,36v-15,-29,-40,-56,-83,-58v-59,-1,-98,51,-98,112v0,80,74,141,144,97v21,-13,28,-24,37,-43r76,35v-20,41,-50,77,-99,94","w":820},"\u00aa":{"d":"285,-433v-14,24,-57,50,-97,50v-50,0,-95,-33,-93,-85v3,-105,110,-123,217,-123v10,-36,-4,-59,-45,-59v-28,0,-58,9,-89,26r-22,-62v36,-23,81,-34,135,-34v92,0,126,56,109,142r-37,189r-84,0r8,-44r-2,0xm222,-453v38,0,73,-45,78,-79v-66,-2,-112,14,-112,52v0,18,11,27,34,27xm57,-266r13,-68r286,0r-13,68r-286,0","w":414},"\u00ab":{"d":"385,-77r-130,-206r210,-205r128,0r-221,211r129,200r-116,0xm162,-77r-130,-206r192,-205r126,0r-201,211r129,200r-116,0","w":591},"\u00ac":{"d":"61,-339r0,-98r488,0r0,294r-102,0r0,-196r-386,0","w":626},"\u00ad":{"d":"-4,-230r21,-111r301,0r-21,111r-301,0","w":431},"\u00ae":{"d":"418,12v-194,0,-357,-172,-357,-367v0,-196,163,-366,357,-366v196,0,360,170,360,366v0,196,-164,367,-360,367xm418,-640v-150,0,-268,132,-268,285v0,153,118,286,268,286v152,0,272,-132,272,-286v0,-154,-120,-285,-272,-285xm565,-424v0,48,-31,86,-65,95r82,155r-94,0r-62,-135r-48,0r0,135r-85,0r0,-366r152,0v70,-1,120,47,120,116xm478,-424v0,-34,-19,-54,-52,-54r-48,0r0,109r47,0v34,0,53,-21,53,-55","w":820},"\u00af":{"d":"55,-783r17,-87r262,0r-16,87r-263,0","w":493},"\u00b0":{"d":"412,-582v0,89,-93,174,-180,174v-84,0,-149,-58,-149,-139v0,-88,92,-176,180,-176v83,0,149,60,149,141xm180,-554v0,32,25,55,58,55v38,0,78,-37,78,-76v0,-33,-25,-56,-59,-56v-39,0,-77,38,-77,77","w":396},"\u00b1":{"d":"64,-236r0,-99r216,0r0,-237r103,0r0,237r216,0r0,99r-216,0r0,236r-103,0r0,-236r-216,0xm78,85r508,0r0,98r-508,0r0,-98","w":698},"\u00b2":{"d":"212,-872v77,-1,143,45,143,121v0,72,-61,126,-111,151v-43,21,-113,55,-130,94r200,0r-16,83r-305,0v-1,-69,31,-126,69,-157v36,-29,86,-61,127,-82v31,-16,68,-42,68,-80v0,-43,-58,-51,-95,-30v-21,12,-32,20,-46,34r-56,-60v24,-32,92,-73,152,-74","w":395},"\u00b3":{"d":"333,-573v0,105,-115,187,-235,153v-44,-12,-74,-32,-99,-60r57,-62v15,22,58,42,98,42v41,0,82,-31,81,-71v-1,-45,-52,-52,-103,-49r-14,-45r95,-90r28,-24r0,-2v-51,7,-105,1,-160,3r16,-84r281,0r-12,61r-120,112v48,13,88,55,87,116","w":395},"\u00b4":{"d":"73,-757r103,-136r136,0r-132,136r-107,0","w":493},"\u00b5":{"d":"390,-95v-35,69,-173,146,-265,85r-2,0v-4,84,-21,138,-34,210r-110,0r138,-710r127,0r-58,298v-13,61,-4,108,60,108v89,0,159,-94,175,-176r44,-230r127,0r-99,510r-123,0v6,-33,13,-65,22,-95r-2,0","w":627},"\u00b6":{"d":"67,-447v0,-136,138,-263,272,-263r318,0r-21,111r-212,0r-127,649r-92,0r56,-291v-104,2,-194,-96,-194,-206xm359,50r115,-594r93,0r-115,594r-93,0","w":615},"\u00b7":{"d":"61,-227r24,-129r124,0r-24,129r-124,0","w":274},"\u00b8":{"d":"268,110v0,88,-103,113,-187,90r13,-68v31,13,97,10,92,-25v4,-22,-39,-26,-65,-21r53,-111r56,13v-6,20,-16,37,-23,56v31,5,61,29,61,66","w":493},"\u00b9":{"d":"15,-423r16,-83r91,0r39,-201r9,-29r-2,0v-13,19,-36,32,-54,47r-46,-64r135,-109r83,0r-69,356r91,0r-16,83r-277,0","w":395},"\u00ba":{"d":"456,-578v0,104,-100,194,-201,194v-87,0,-155,-57,-155,-142v0,-104,100,-194,201,-194v88,0,155,57,155,142xm192,-533v0,40,29,69,69,69v54,0,104,-51,104,-108v0,-40,-29,-69,-69,-69v-53,0,-104,52,-104,108xm62,-266r14,-68r322,0r-13,68r-323,0","w":459},"\u00bb":{"d":"234,-77r201,-211r-129,-200r116,0r129,206r-191,205r-126,0xm-10,-77r222,-211r-129,-200r116,0r129,206r-209,205r-129,0","w":588},"\u00bc":{"d":"301,0r-98,0r473,-710r98,0xm47,-271r16,-83r91,0r39,-201r9,-29r-2,0v-13,19,-36,32,-54,47r-46,-64r135,-109r83,0r-69,356r91,0r-16,83r-277,0xm727,0r19,-99r-204,0r12,-64r238,-276r113,0r-50,258r59,0r-16,82r-58,0r-20,99r-93,0xm660,-181r102,0r21,-110r15,-55r-2,0v-41,61,-90,108,-136,163r0,2","w":981},"\u00bd":{"d":"303,0r-98,0r473,-710r98,0xm47,-271r16,-83r91,0r39,-201r9,-29r-2,0v-13,19,-36,32,-54,47r-46,-64r135,-109r83,0r-69,356r91,0r-16,83r-277,0xm777,-449v77,-1,143,45,143,121v0,72,-62,127,-112,152v-43,21,-112,54,-129,93r200,0r-16,83r-305,0v-1,-69,32,-126,70,-157v36,-29,85,-62,126,-83v31,-16,68,-41,68,-79v0,-43,-58,-52,-94,-31v-21,12,-32,21,-47,35r-56,-60v24,-32,92,-73,152,-74","w":974},"\u00be":{"d":"307,0r-98,0r473,-710r98,0xm733,0r19,-99r-204,0r12,-64r238,-276r113,0r-50,258r59,0r-16,82r-58,0r-20,99r-93,0xm666,-181r102,0r21,-110r15,-55r-2,0v-41,61,-90,108,-136,163r0,2xm370,-421v0,105,-114,187,-234,153v-44,-12,-75,-32,-100,-60r57,-62v15,22,58,42,98,42v41,0,82,-31,81,-71v-1,-45,-52,-52,-103,-49r-14,-45r95,-90r28,-24r0,-2v-51,7,-105,1,-160,3r16,-84r281,0r-12,61r-120,112v48,13,88,55,87,116","w":987},"\u00bf":{"d":"225,-391r23,-119r123,0r-23,119r-123,0xm169,210v-107,1,-199,-62,-197,-168v2,-144,126,-184,199,-258v27,-27,32,-50,39,-89r122,0v-8,48,-17,85,-42,121v-45,64,-118,94,-164,154v-13,17,-20,36,-20,55v0,42,37,70,81,69v39,-1,78,-15,115,-43r57,95v-35,29,-121,64,-190,64","w":463},"\u00c0":{"d":"85,0r-138,0r381,-710r146,0r109,710r-129,0r-25,-182r-249,0xm232,-287r186,0r-27,-190r-8,-110r-2,0v-46,123,-95,193,-149,300xm358,-757r-77,-136r125,0r49,136r-97,0","w":639},"\u00c1":{"d":"85,0r-138,0r381,-710r146,0r109,710r-129,0r-25,-182r-249,0xm232,-287r186,0r-27,-190r-8,-110r-2,0v-46,123,-95,193,-149,300xm355,-757r103,-136r136,0r-132,136r-107,0","w":639},"\u00c2":{"d":"85,0r-138,0r381,-710r146,0r109,710r-129,0r-25,-182r-249,0xm232,-287r186,0r-27,-190r-8,-110r-2,0v-46,123,-95,193,-149,300xm252,-757r119,-136r127,0r65,136r-100,0r-34,-81r-2,0r-66,81r-109,0","w":639},"\u00c3":{"d":"85,0r-138,0r381,-710r146,0r109,710r-129,0r-25,-182r-249,0xm232,-287r186,0r-27,-190r-8,-110r-2,0v-46,123,-95,193,-149,300xm238,-758v17,-91,61,-137,130,-137v38,0,61,30,80,49v34,35,66,11,76,-46r87,0v-17,91,-61,137,-130,137v-44,0,-60,-36,-85,-55v-35,-27,-60,-1,-71,52r-87,0","w":639},"\u00c4":{"d":"85,0r-138,0r381,-710r146,0r109,710r-129,0r-25,-182r-249,0xm232,-287r186,0r-27,-190r-8,-110r-2,0v-46,123,-95,193,-149,300xm459,-777r23,-116r98,0r-23,116r-98,0xm275,-777r23,-116r98,0r-23,116r-98,0","w":639},"\u00c5":{"d":"85,0r-138,0r381,-710r146,0r109,710r-129,0r-25,-182r-249,0xm232,-287r186,0r-27,-190r-8,-110r-2,0v-46,123,-95,193,-149,300xm520,-832v0,52,-55,87,-106,87v-46,0,-86,-22,-86,-68v0,-53,54,-89,105,-89v48,0,87,23,87,70xm431,-858v-22,-1,-42,20,-41,43v0,17,9,26,28,26v22,0,42,-19,41,-42v0,-16,-11,-27,-28,-27","w":639},"\u00c6":{"d":"87,0r-143,0r429,-710r564,0r-21,111r-297,0r-36,186r240,0r-23,111r-239,0r-37,191r312,0r-22,111r-440,0r59,-304r-167,0xm440,-599r-112,190r125,0r37,-190r-50,0","w":917},"\u00c7":{"d":"416,110v0,88,-103,113,-187,90r13,-68v31,13,97,10,92,-25v4,-22,-39,-26,-65,-21r38,-79v-152,-22,-257,-137,-257,-305v0,-222,199,-429,419,-424v118,2,206,39,263,98r-75,89v-41,-37,-104,-67,-184,-69v-158,-5,-290,146,-290,298v0,116,76,203,195,200v98,-2,170,-46,226,-89r53,102v-68,54,-164,104,-289,105r-13,32v31,5,61,29,61,66","w":722},"\u00c8":{"d":"31,0r139,-710r424,0r-22,111r-296,0r-36,186r239,0r-22,111r-239,0r-37,191r312,0r-21,111r-441,0xm347,-757r-77,-136r125,0r49,136r-97,0","w":573},"\u00c9":{"d":"31,0r139,-710r424,0r-22,111r-296,0r-36,186r239,0r-22,111r-239,0r-37,191r312,0r-21,111r-441,0xm343,-757r103,-136r136,0r-132,136r-107,0","w":573},"\u00ca":{"d":"31,0r139,-710r424,0r-22,111r-296,0r-36,186r239,0r-22,111r-239,0r-37,191r312,0r-21,111r-441,0xm240,-757r119,-136r127,0r65,136r-100,0r-34,-81r-2,0r-66,81r-109,0","w":573},"\u00cb":{"d":"31,0r139,-710r424,0r-22,111r-296,0r-36,186r239,0r-22,111r-239,0r-37,191r312,0r-21,111r-441,0xm448,-777r23,-116r98,0r-23,116r-98,0xm264,-777r23,-116r98,0r-23,116r-98,0","w":573},"\u00cc":{"d":"31,0r139,-710r128,0r-138,710r-129,0xm190,-757r-77,-136r125,0r49,136r-97,0","w":308},"\u00cd":{"d":"31,0r139,-710r128,0r-138,710r-129,0xm186,-757r103,-136r136,0r-132,136r-107,0","w":308},"\u00ce":{"d":"31,0r139,-710r128,0r-138,710r-129,0xm84,-757r119,-136r127,0r65,136r-100,0r-34,-81r-2,0r-66,81r-109,0","w":308},"\u00cf":{"d":"31,0r139,-710r128,0r-138,710r-129,0xm291,-777r23,-116r98,0r-23,116r-98,0xm107,-777r23,-116r98,0r-23,116r-98,0","w":308},"\u00d0":{"d":"729,-431v0,236,-181,431,-418,431r-261,0r58,-301r-57,0r20,-105r58,0r59,-304r222,0v190,-2,319,96,319,279xm597,-420v0,-118,-76,-180,-196,-179r-106,0r-38,193r132,0r-20,105r-132,0r-37,190r106,0v168,4,291,-140,291,-309","w":755},"\u00d1":{"d":"32,0r138,-710r122,0r190,410v13,28,29,78,37,110r2,0v4,-45,9,-82,14,-110r80,-410r128,0r-138,710r-122,0r-189,-409v-13,-29,-27,-79,-38,-110r-2,0v-4,45,-9,82,-14,110r-80,409r-128,0xm291,-758v17,-91,61,-137,130,-137v38,0,60,30,79,49v34,35,67,11,77,-46r87,0v-17,91,-61,137,-130,137v-44,0,-61,-36,-86,-55v-35,-27,-59,-1,-70,52r-87,0","w":753},"\u00d2":{"d":"370,12v-187,0,-325,-129,-323,-312v1,-165,103,-298,216,-364v65,-38,133,-58,204,-58v185,0,326,125,324,305v-1,167,-104,304,-218,371v-65,38,-132,58,-203,58xm466,-604v-147,0,-287,145,-287,297v0,115,79,201,192,201v145,0,287,-150,287,-303v0,-113,-80,-195,-192,-195xm441,-757r-77,-136r125,0r49,136r-97,0","w":815},"\u00d3":{"d":"370,12v-187,0,-325,-129,-323,-312v1,-165,103,-298,216,-364v65,-38,133,-58,204,-58v185,0,326,125,324,305v-1,167,-104,304,-218,371v-65,38,-132,58,-203,58xm466,-604v-147,0,-287,145,-287,297v0,115,79,201,192,201v145,0,287,-150,287,-303v0,-113,-80,-195,-192,-195xm438,-757r103,-136r136,0r-132,136r-107,0","w":815},"\u00d4":{"d":"370,12v-187,0,-325,-129,-323,-312v1,-165,103,-298,216,-364v65,-38,133,-58,204,-58v185,0,326,125,324,305v-1,167,-104,304,-218,371v-65,38,-132,58,-203,58xm466,-604v-147,0,-287,145,-287,297v0,115,79,201,192,201v145,0,287,-150,287,-303v0,-113,-80,-195,-192,-195xm335,-757r119,-136r127,0r65,136r-100,0r-34,-81r-2,0r-66,81r-109,0","w":815},"\u00d5":{"d":"370,12v-187,0,-325,-129,-323,-312v1,-165,103,-298,216,-364v65,-38,133,-58,204,-58v185,0,326,125,324,305v-1,167,-104,304,-218,371v-65,38,-132,58,-203,58xm466,-604v-147,0,-287,145,-287,297v0,115,79,201,192,201v145,0,287,-150,287,-303v0,-113,-80,-195,-192,-195xm321,-758v17,-91,61,-137,130,-137v38,0,60,30,79,49v34,35,67,11,77,-46r87,0v-17,91,-61,137,-130,137v-44,0,-61,-36,-86,-55v-35,-27,-59,-1,-70,52r-87,0","w":815},"\u00d6":{"d":"370,12v-187,0,-325,-129,-323,-312v1,-165,103,-298,216,-364v65,-38,133,-58,204,-58v185,0,326,125,324,305v-1,167,-104,304,-218,371v-65,38,-132,58,-203,58xm466,-604v-147,0,-287,145,-287,297v0,115,79,201,192,201v145,0,287,-150,287,-303v0,-113,-80,-195,-192,-195xm542,-777r23,-116r98,0r-23,116r-98,0xm358,-777r23,-116r98,0r-23,116r-98,0","w":815},"\u00d7":{"d":"69,-69r197,-217r-197,-216r69,-70r195,214r195,-214r69,70r-198,216r198,217r-69,69r-195,-214r-195,214","w":674},"\u00d8":{"d":"123,-91v-97,-108,-94,-289,-15,-418v69,-113,198,-213,361,-213v71,0,135,17,190,51r60,-65r54,43r-61,66v106,104,100,291,20,423v-70,114,-196,216,-360,216v-77,0,-143,-19,-198,-57r-65,71r-54,-43xm261,-139v183,112,399,-81,399,-270v0,-47,-12,-87,-37,-121xm572,-577v-186,-98,-391,85,-391,270v0,46,11,86,32,119","w":818},"\u00d9":{"d":"325,12v-162,0,-286,-98,-252,-272r87,-450r129,0r-89,454v-18,95,37,151,129,150v102,-1,169,-61,186,-151r88,-453r129,0r-90,460v-26,150,-146,262,-317,262xm401,-757r-77,-136r125,0r49,136r-97,0","w":731},"\u00da":{"d":"325,12v-162,0,-286,-98,-252,-272r87,-450r129,0r-89,454v-18,95,37,151,129,150v102,-1,169,-61,186,-151r88,-453r129,0r-90,460v-26,150,-146,262,-317,262xm398,-757r103,-136r136,0r-132,136r-107,0","w":731},"\u00db":{"d":"325,12v-162,0,-286,-98,-252,-272r87,-450r129,0r-89,454v-18,95,37,151,129,150v102,-1,169,-61,186,-151r88,-453r129,0r-90,460v-26,150,-146,262,-317,262xm295,-757r119,-136r127,0r65,136r-100,0r-34,-81r-2,0r-66,81r-109,0","w":731},"\u00dc":{"d":"325,12v-162,0,-286,-98,-252,-272r87,-450r129,0r-89,454v-18,95,37,151,129,150v102,-1,169,-61,186,-151r88,-453r129,0r-90,460v-26,150,-146,262,-317,262xm503,-777r23,-116r98,0r-23,116r-98,0xm319,-777r23,-116r98,0r-23,116r-98,0","w":731},"\u00dd":{"d":"168,0r58,-297r-153,-413r138,0r71,209v10,27,19,67,25,95r2,0v65,-109,139,-202,209,-304r154,0r-319,418r-57,292r-128,0xm321,-757r103,-136r136,0r-132,136r-107,0","w":591},"\u00de":{"d":"402,-595v128,-2,204,72,204,189v0,120,-72,213,-158,253v-69,32,-168,19,-263,22r-25,131r-129,0r139,-710r128,0r-23,115r127,0xm474,-396v0,-56,-38,-89,-97,-88r-123,0r-47,242v66,-3,146,9,190,-15v44,-24,77,-74,77,-139","w":615},"\u00df":{"d":"410,-512v40,-44,13,-105,-50,-102v-62,3,-108,37,-119,94r-101,520r-127,0r104,-538v17,-108,128,-183,248,-184v103,-1,193,58,194,153v0,54,-33,100,-63,123v-35,26,-91,73,-44,122v39,41,100,77,102,154v3,98,-100,179,-199,177v-53,-1,-112,-9,-144,-26r22,-105v57,31,200,42,194,-45v-6,-83,-124,-97,-124,-188v0,-78,67,-112,107,-155","w":605},"\u00e0":{"d":"147,12v-80,1,-152,-50,-151,-130v2,-127,113,-174,224,-193v42,-7,84,-10,130,-9v12,-61,-13,-98,-79,-97v-54,1,-116,26,-150,48r-30,-98v40,-25,132,-55,202,-55v104,1,190,48,187,157v0,13,-2,30,-5,50r-61,315r-117,0v5,-28,11,-55,18,-80r-2,0v-32,47,-87,90,-166,92xm124,-140v1,34,28,54,66,53v70,0,136,-81,144,-146r-21,0v-66,1,-133,8,-169,43v-14,14,-20,31,-20,50xm262,-573r-77,-136r125,0r49,136r-97,0"},"\u00e1":{"d":"147,12v-80,1,-152,-50,-151,-130v2,-127,113,-174,224,-193v42,-7,84,-10,130,-9v12,-61,-13,-98,-79,-97v-54,1,-116,26,-150,48r-30,-98v40,-25,132,-55,202,-55v104,1,190,48,187,157v0,13,-2,30,-5,50r-61,315r-117,0v5,-28,11,-55,18,-80r-2,0v-32,47,-87,90,-166,92xm124,-140v1,34,28,54,66,53v70,0,136,-81,144,-146r-21,0v-66,1,-133,8,-169,43v-14,14,-20,31,-20,50xm259,-573r103,-136r136,0r-132,136r-107,0"},"\u00e2":{"d":"147,12v-80,1,-152,-50,-151,-130v2,-127,113,-174,224,-193v42,-7,84,-10,130,-9v12,-61,-13,-98,-79,-97v-54,1,-116,26,-150,48r-30,-98v40,-25,132,-55,202,-55v104,1,190,48,187,157v0,13,-2,30,-5,50r-61,315r-117,0v5,-28,11,-55,18,-80r-2,0v-32,47,-87,90,-166,92xm124,-140v1,34,28,54,66,53v70,0,136,-81,144,-146r-21,0v-66,1,-133,8,-169,43v-14,14,-20,31,-20,50xm156,-573r119,-136r127,0r65,136r-100,0r-34,-81r-2,0r-66,81r-109,0"},"\u00e3":{"d":"147,12v-80,1,-152,-50,-151,-130v2,-127,113,-174,224,-193v42,-7,84,-10,130,-9v12,-61,-13,-98,-79,-97v-54,1,-116,26,-150,48r-30,-98v40,-25,132,-55,202,-55v104,1,190,48,187,157v0,13,-2,30,-5,50r-61,315r-117,0v5,-28,11,-55,18,-80r-2,0v-32,47,-87,90,-166,92xm124,-140v1,34,28,54,66,53v70,0,136,-81,144,-146r-21,0v-66,1,-133,8,-169,43v-14,14,-20,31,-20,50xm143,-574v17,-91,61,-137,130,-137v38,0,60,30,79,49v34,35,67,11,77,-46r87,0v-17,91,-61,137,-130,137v-44,0,-61,-36,-86,-55v-35,-27,-59,-1,-70,52r-87,0"},"\u00e4":{"d":"147,12v-80,1,-152,-50,-151,-130v2,-127,113,-174,224,-193v42,-7,84,-10,130,-9v12,-61,-13,-98,-79,-97v-54,1,-116,26,-150,48r-30,-98v40,-25,132,-55,202,-55v104,1,190,48,187,157v0,13,-2,30,-5,50r-61,315r-117,0v5,-28,11,-55,18,-80r-2,0v-32,47,-87,90,-166,92xm124,-140v1,34,28,54,66,53v70,0,136,-81,144,-146r-21,0v-66,1,-133,8,-169,43v-14,14,-20,31,-20,50xm364,-593r23,-116r98,0r-23,116r-98,0xm180,-593r23,-116r98,0r-23,116r-98,0"},"\u00e5":{"d":"147,12v-80,1,-152,-50,-151,-130v2,-127,113,-174,224,-193v42,-7,84,-10,130,-9v12,-61,-13,-98,-79,-97v-54,1,-116,26,-150,48r-30,-98v40,-25,132,-55,202,-55v104,1,190,48,187,157v0,13,-2,30,-5,50r-61,315r-117,0v5,-28,11,-55,18,-80r-2,0v-32,47,-87,90,-166,92xm124,-140v1,34,28,54,66,53v70,0,136,-81,144,-146r-21,0v-66,1,-133,8,-169,43v-14,14,-20,31,-20,50xm425,-648v0,52,-55,87,-106,87v-46,0,-86,-22,-86,-68v0,-53,54,-89,105,-89v48,0,87,23,87,70xm336,-674v-22,-1,-42,20,-41,43v0,17,9,26,28,26v22,0,42,-19,41,-42v0,-16,-11,-27,-28,-27"},"\u00e6":{"d":"158,12v-85,0,-163,-46,-162,-130v1,-127,112,-173,222,-192v41,-7,83,-10,129,-9v15,-59,-10,-100,-79,-98v-46,1,-95,17,-148,48r-30,-98v40,-25,131,-55,200,-55v71,0,121,24,150,73r2,0v50,-49,108,-73,174,-73v128,-2,205,72,205,194v0,28,-6,60,-18,96r-348,0v-7,86,37,137,122,136v60,-1,124,-30,158,-56r34,97v-36,31,-126,67,-199,67v-102,1,-177,-43,-211,-111r-2,0v-34,60,-101,111,-199,111xm694,-320v11,-60,-23,-105,-79,-104v-71,1,-118,47,-139,104r218,0xm332,-231v-96,0,-208,3,-208,91v0,34,28,54,66,53v70,0,134,-79,142,-144","w":853},"\u00e7":{"d":"315,110v0,88,-103,113,-187,90r13,-68v31,13,97,10,92,-25v4,-22,-39,-26,-65,-21r38,-80v-108,-18,-181,-100,-183,-220v-2,-164,148,-312,316,-308v84,2,163,31,198,75r-67,80v-21,-23,-77,-47,-125,-47v-101,0,-193,92,-193,192v0,75,53,126,131,126v53,0,112,-24,164,-65r34,98v-50,39,-122,75,-214,75r-13,32v31,5,61,29,61,66","w":548},"\u00e8":{"d":"270,12v-144,3,-246,-86,-248,-219v-3,-168,129,-315,295,-315v128,0,204,72,204,193v0,29,-6,62,-18,98r-351,0v-9,83,44,137,125,135v60,-1,124,-30,158,-56r34,97v-36,32,-127,66,-199,67xm394,-318v11,-61,-22,-107,-79,-106v-71,1,-122,50,-143,106r222,0xm290,-573r-77,-136r125,0r49,136r-97,0","w":553},"\u00e9":{"d":"270,12v-144,3,-246,-86,-248,-219v-3,-168,129,-315,295,-315v128,0,204,72,204,193v0,29,-6,62,-18,98r-351,0v-9,83,44,137,125,135v60,-1,124,-30,158,-56r34,97v-36,32,-127,66,-199,67xm394,-318v11,-61,-22,-107,-79,-106v-71,1,-122,50,-143,106r222,0xm286,-573r103,-136r136,0r-132,136r-107,0","w":553},"\u00ea":{"d":"270,12v-144,3,-246,-86,-248,-219v-3,-168,129,-315,295,-315v128,0,204,72,204,193v0,29,-6,62,-18,98r-351,0v-9,83,44,137,125,135v60,-1,124,-30,158,-56r34,97v-36,32,-127,66,-199,67xm394,-318v11,-61,-22,-107,-79,-106v-71,1,-122,50,-143,106r222,0xm183,-573r119,-136r127,0r65,136r-100,0r-34,-81r-2,0r-66,81r-109,0","w":553},"\u00eb":{"d":"270,12v-144,3,-246,-86,-248,-219v-3,-168,129,-315,295,-315v128,0,204,72,204,193v0,29,-6,62,-18,98r-351,0v-9,83,44,137,125,135v60,-1,124,-30,158,-56r34,97v-36,32,-127,66,-199,67xm394,-318v11,-61,-22,-107,-79,-106v-71,1,-122,50,-143,106r222,0xm391,-593r23,-116r98,0r-23,116r-98,0xm207,-593r23,-116r98,0r-23,116r-98,0","w":553},"\u00ec":{"d":"134,-573r-77,-136r125,0r49,136r-97,0xm13,0r98,-510r127,0r-99,510r-126,0","w":266},"\u00ed":{"d":"129,-573r103,-136r136,0r-132,136r-107,0xm13,0r98,-510r127,0r-99,510r-126,0","w":266},"\u00ee":{"d":"13,0r98,-510r127,0r-99,510r-126,0xm27,-573r119,-136r127,0r65,136r-100,0r-34,-81r-2,0r-66,81r-109,0","w":266},"\u00ef":{"d":"235,-593r23,-116r98,0r-23,116r-98,0xm51,-593r23,-116r98,0r-23,116r-98,0xm13,0r98,-510r127,0r-99,510r-126,0","w":266},"\u00f0":{"d":"17,-195v-1,-159,157,-310,336,-261v25,7,35,13,49,25r2,0v-10,-40,-36,-78,-77,-113r-203,78r10,-76r125,-49v-37,-19,-74,-34,-110,-43r52,-92v75,19,138,47,190,84r170,-66r-8,76r-104,41v79,85,113,198,82,333v-33,143,-117,265,-291,270v-134,4,-222,-83,-223,-207xm304,-366v-91,0,-161,79,-159,169v0,59,34,102,96,102v90,0,164,-100,162,-184v0,-56,-40,-87,-99,-87","w":585},"\u00f1":{"d":"408,-522v94,1,155,44,154,139v0,11,-3,33,-9,66r-61,317r-127,0r58,-297v15,-63,5,-108,-58,-109v-92,0,-166,92,-182,176r-44,230r-127,0r99,-510r123,0r-9,46r-13,50r2,0v29,-51,112,-109,194,-108xm196,-574v17,-91,61,-137,130,-137v38,0,61,30,80,49v34,35,66,11,76,-46r87,0v-17,91,-61,137,-130,137v-44,0,-60,-36,-85,-55v-35,-27,-60,-1,-71,52r-87,0","w":613},"\u00f2":{"d":"270,12v-140,0,-250,-90,-250,-226v0,-165,154,-308,315,-308v140,0,251,89,251,225v0,166,-155,309,-316,309xm334,-414v-95,0,-186,93,-186,194v0,73,51,124,124,124v96,0,185,-91,185,-193v0,-73,-51,-125,-123,-125xm311,-573r-77,-136r125,0r49,136r-97,0","w":623},"\u00f3":{"d":"270,12v-140,0,-250,-90,-250,-226v0,-165,154,-308,315,-308v140,0,251,89,251,225v0,166,-155,309,-316,309xm334,-414v-95,0,-186,93,-186,194v0,73,51,124,124,124v96,0,185,-91,185,-193v0,-73,-51,-125,-123,-125xm308,-573r103,-136r136,0r-132,136r-107,0","w":623},"\u00f4":{"d":"270,12v-140,0,-250,-90,-250,-226v0,-165,154,-308,315,-308v140,0,251,89,251,225v0,166,-155,309,-316,309xm334,-414v-95,0,-186,93,-186,194v0,73,51,124,124,124v96,0,185,-91,185,-193v0,-73,-51,-125,-123,-125xm205,-573r119,-136r127,0r65,136r-100,0r-34,-81r-2,0r-66,81r-109,0","w":623},"\u00f5":{"d":"270,12v-140,0,-250,-90,-250,-226v0,-165,154,-308,315,-308v140,0,251,89,251,225v0,166,-155,309,-316,309xm334,-414v-95,0,-186,93,-186,194v0,73,51,124,124,124v96,0,185,-91,185,-193v0,-73,-51,-125,-123,-125xm191,-574v17,-91,61,-137,130,-137v38,0,60,30,79,49v34,35,67,11,77,-46r87,0v-17,91,-61,137,-130,137v-44,0,-61,-36,-86,-55v-35,-27,-59,-1,-70,52r-87,0","w":623},"\u00f6":{"d":"270,12v-140,0,-250,-90,-250,-226v0,-165,154,-308,315,-308v140,0,251,89,251,225v0,166,-155,309,-316,309xm334,-414v-95,0,-186,93,-186,194v0,73,51,124,124,124v96,0,185,-91,185,-193v0,-73,-51,-125,-123,-125xm413,-593r23,-116r98,0r-23,116r-98,0xm229,-593r23,-116r98,0r-23,116r-98,0","w":623},"\u00f7":{"d":"253,-437r0,-108r114,0r0,108r-114,0xm50,-236r0,-99r521,0r0,99r-521,0xm253,-27r0,-108r114,0r0,108r-114,0","w":628},"\u00f8":{"d":"587,-297v0,212,-243,383,-451,278r-57,62r-51,-43r54,-58v-41,-41,-61,-93,-61,-156v0,-214,252,-387,458,-272r56,-61r51,42r-55,60v37,41,56,90,56,148xm398,-399v-121,-57,-253,59,-249,179v0,28,6,51,18,70xm217,-107v123,46,244,-63,241,-182v0,-23,-5,-43,-14,-62","w":625},"\u00f9":{"d":"187,12v-91,-1,-155,-44,-153,-139v0,-12,3,-33,8,-62r62,-321r127,0r-57,293v-14,59,-7,113,58,113v90,0,160,-94,176,-176r44,-230r127,0r-99,510r-123,0v6,-33,13,-65,22,-95r-2,0v-31,51,-107,108,-190,107xm300,-573r-77,-136r125,0r49,136r-97,0","w":608},"\u00fa":{"d":"187,12v-91,-1,-155,-44,-153,-139v0,-12,3,-33,8,-62r62,-321r127,0r-57,293v-14,59,-7,113,58,113v90,0,160,-94,176,-176r44,-230r127,0r-99,510r-123,0v6,-33,13,-65,22,-95r-2,0v-31,51,-107,108,-190,107xm296,-573r103,-136r136,0r-132,136r-107,0","w":608},"\u00fb":{"d":"187,12v-91,-1,-155,-44,-153,-139v0,-12,3,-33,8,-62r62,-321r127,0r-57,293v-14,59,-7,113,58,113v90,0,160,-94,176,-176r44,-230r127,0r-99,510r-123,0v6,-33,13,-65,22,-95r-2,0v-31,51,-107,108,-190,107xm193,-573r119,-136r127,0r65,136r-100,0r-34,-81r-2,0r-66,81r-109,0","w":608},"\u00fc":{"d":"187,12v-91,-1,-155,-44,-153,-139v0,-12,3,-33,8,-62r62,-321r127,0r-57,293v-14,59,-7,113,58,113v90,0,160,-94,176,-176r44,-230r127,0r-99,510r-123,0v6,-33,13,-65,22,-95r-2,0v-31,51,-107,108,-190,107xm401,-593r23,-116r98,0r-23,116r-98,0xm217,-593r23,-116r98,0r-23,116r-98,0","w":608},"\u00fd":{"d":"-36,85v14,12,32,18,53,18v41,0,74,-22,101,-65r29,-46r-118,-502r132,0r58,309r6,65r2,0v11,-25,21,-46,30,-63r160,-311r143,0r-343,588v-41,72,-102,132,-194,132v-44,0,-83,-12,-116,-36xm254,-573r103,-136r136,0r-132,136r-107,0","w":521},"\u00fe":{"d":"295,12v-64,0,-122,-29,-145,-75r-2,0v-11,91,-33,176,-48,263r-126,0r176,-910r125,0r-44,225r-10,37r2,0v32,-40,89,-74,157,-74v124,-1,193,88,193,215v0,91,-29,167,-85,228v-56,61,-120,91,-193,91xm344,-413v-89,0,-164,106,-164,203v0,65,34,116,100,115v92,-1,164,-96,164,-203v0,-67,-36,-115,-100,-115","w":612},"\u00ff":{"d":"-36,85v14,12,32,18,53,18v41,0,74,-22,101,-65r29,-46r-118,-502r132,0r58,309r6,65r2,0v11,-25,21,-46,30,-63r160,-311r143,0r-343,588v-41,72,-102,132,-194,132v-44,0,-83,-12,-116,-36xm359,-593r23,-116r98,0r-23,116r-98,0xm175,-593r23,-116r98,0r-23,116r-98,0","w":521},"\u0152":{"d":"367,9v-183,0,-322,-128,-320,-307v2,-165,103,-299,217,-364v65,-37,134,-56,205,-56v40,0,116,8,151,8r370,0r-22,111r-297,0r-35,186r239,0r-22,111r-240,0r-37,191r313,0r-21,111r-373,0v-26,0,-98,9,-128,9xm473,-604v-155,-4,-294,146,-294,304v0,140,120,224,270,187r93,-484v-19,-5,-42,-7,-69,-7","w":968},"\u0153":{"d":"271,12v-141,3,-251,-89,-251,-226v0,-166,154,-308,316,-308v89,0,155,35,199,105r2,0v56,-70,126,-105,210,-105v128,0,204,72,204,193v0,29,-6,62,-18,98r-351,0v-15,115,97,160,200,121v38,-14,58,-24,83,-42r34,97v-36,31,-126,67,-199,67v-97,0,-165,-36,-204,-107r-2,0v-50,57,-128,105,-223,107xm824,-318v11,-61,-22,-107,-79,-106v-71,1,-122,50,-143,106r222,0xm334,-414v-95,0,-185,93,-185,194v0,73,51,124,124,124v96,0,185,-91,185,-193v0,-73,-53,-125,-124,-125","w":982},"\u0178":{"d":"168,0r58,-297r-153,-413r138,0r71,209v10,27,19,67,25,95r2,0v65,-109,139,-202,209,-304r154,0r-319,418r-57,292r-128,0xm426,-777r23,-116r98,0r-23,116r-98,0xm242,-777r23,-116r98,0r-23,116r-98,0","w":591},"\u02c6":{"d":"19,-757r119,-136r127,0r65,136r-100,0r-34,-81r-2,0r-66,81r-109,0","w":494},"\u02dc":{"d":"3,-758v17,-91,61,-137,130,-137v38,0,60,30,79,49v34,35,67,11,77,-46r87,0v-17,91,-61,137,-130,137v-44,0,-61,-36,-86,-55v-35,-27,-59,-1,-70,52r-87,0","w":493},"\u2013":{"d":"66,-236r19,-99r553,0r-18,99r-554,0","w":710},"\u2014":{"d":"66,-236r19,-99r753,0r-18,99r-754,0","w":910},"\u2018":{"d":"80,-504r117,-218r94,0r-89,218r-122,0","w":243},"\u2019":{"d":"84,-504r89,-218r121,0r-116,218r-94,0","w":236},"\u201a":{"d":"-40,89r90,-218r121,0r-117,218r-94,0","w":262},"\u201c":{"d":"244,-504r116,-218r94,0r-89,218r-121,0xm80,-504r117,-218r94,0r-89,218r-122,0","w":406},"\u201d":{"d":"248,-504r89,-218r121,0r-116,218r-94,0xm84,-504r90,-218r121,0r-117,218r-94,0","w":400},"\u201e":{"d":"124,89r90,-218r121,0r-117,218r-94,0xm-39,89r89,-218r121,0r-116,218r-94,0","w":426},"\u2022":{"d":"374,-291v0,90,-76,167,-167,167v-89,0,-167,-78,-167,-167v0,-89,78,-167,167,-167v91,0,167,77,167,167","w":419},"\u2026":{"d":"581,0r24,-128r124,0r-24,128r-124,0xm296,0r25,-128r123,0r-24,128r-124,0xm11,0r25,-128r124,0r-25,128r-124,0","w":828},"\u2039":{"d":"162,-77r-130,-206r192,-205r126,0r-201,211r129,200r-116,0","w":357},"\u203a":{"d":"0,-77r201,-211r-128,-200r116,0r129,206r-191,205r-127,0","w":355},"\u20ac":{"d":"399,12v-170,2,-288,-109,-305,-262r-73,0r15,-76r55,0v1,-21,4,-42,9,-62r-52,0r14,-77r63,0v68,-164,269,-310,501,-238r-52,111v-136,-37,-258,36,-306,127r256,0r-30,77r-259,0v-5,22,-9,43,-11,62r246,0r-31,76r-205,0v15,82,75,141,172,140v34,0,66,-5,96,-14r1,120v-31,11,-66,16,-104,16","w":588},"\u2122":{"d":"500,-267r35,-443r89,0r91,209r14,42r2,0v4,-17,8,-31,13,-42r92,-209r88,0r34,443r-95,0r-17,-228r1,-31r-2,0r-78,178r-75,0r-78,-178r-2,0r1,31r-18,228r-95,0xm230,-267r0,-359r-148,0r0,-84r391,0r0,84r-147,0r0,359r-96,0","w":1005}}});
