/*!
 * The following copyright notice may not be removed under any circumstances.
 * 
 * Copyright:
 * Copyright (c) 2008 by Jos Buivenga. All rights reserved.
 * 
 * Trademark:
 * Museo Sans is a trademark of Jos Buivenga.
 * 
 * Description:
 * Spaced and kerned with iKern.
 * 
 * Manufacturer:
 * Jos Buivenga
 * 
 * Designer:
 * Jos Buivenga
 * 
 * Vendor URL:
 * http://www.josbuivenga.demon.nl
 */
Cufon.registerFont({"w":625,"face":{"font-family":"Museo Sans 700","font-weight":600,"font-stretch":"normal","units-per-em":"1000","panose-1":"2 0 0 0 0 0 0 0 0 0","ascent":"750","descent":"-250","x-height":"12","bbox":"-55 -902 949.342 210","underline-thickness":"50","underline-position":"-50","unicode-range":"U+0020-U+2122"},"glyphs":{" ":{"w":243},"!":{"d":"109,-205r-11,-505r132,0r-10,505r-111,0xm103,0r0,-118r123,0r0,118r-123,0","w":328},"\"":{"d":"216,-514r0,-209r94,0r0,209r-94,0xm56,-514r0,-209r94,0r0,209r-94,0","w":366},"#":{"d":"123,0r32,-187r-119,0r15,-91r119,0r25,-140r-117,0r15,-92r118,0r35,-200r102,0r-35,200r136,0r35,-200r102,0r-35,200r121,0r-16,92r-120,0r-25,140r119,0r-15,91r-120,0r-32,187r-102,0r33,-187r-137,0r-32,187r-102,0xm272,-278r137,0r25,-140r-137,0","w":706},"$":{"d":"524,-196v0,113,-85,193,-193,205r0,92r-86,0r0,-92v-80,-10,-160,-49,-200,-94r70,-97v41,36,100,74,177,75v55,0,104,-31,103,-86v0,-22,-12,-42,-35,-59v-105,-76,-303,-88,-303,-264v0,-110,86,-186,188,-201r0,-94r86,0r0,92v71,5,141,36,176,73r-56,105v-28,-28,-97,-61,-157,-62v-56,-1,-107,33,-107,85v0,21,12,40,35,56v107,74,302,87,302,266","w":570},"%":{"d":"365,-564v0,87,-77,158,-164,158v-87,0,-163,-71,-163,-158v0,-85,77,-158,163,-158v86,0,164,73,164,158xm63,0r545,-710r117,0r-545,710r-117,0xm135,-564v0,36,30,66,66,66v36,0,67,-30,67,-66v0,-35,-31,-66,-67,-66v-36,0,-66,31,-66,66xm589,12v-87,0,-163,-71,-163,-157v0,-86,76,-158,163,-158v86,0,163,73,163,158v0,86,-76,157,-163,157xm589,-212v-36,0,-66,31,-66,66v0,36,30,66,66,66v36,0,67,-30,67,-66v0,-35,-31,-66,-67,-66","w":792},"&":{"d":"299,12v-140,0,-254,-83,-254,-213v0,-84,54,-156,121,-177r0,-2v-51,-24,-90,-76,-90,-155v0,-154,163,-215,317,-175r-31,102v-77,-21,-158,12,-156,89v2,58,39,94,108,94r113,0r0,-92r127,0r0,92r92,0r0,112r-92,0r0,84v1,149,-102,241,-255,241xm307,-313v-76,0,-130,32,-130,104v0,62,56,103,122,103v82,0,129,-46,128,-130r0,-77r-120,0","w":687},"'":{"d":"56,-514r0,-209r96,0r0,209r-96,0","w":208},"(":{"d":"184,95v-79,-130,-119,-276,-119,-438v0,-140,40,-273,119,-398r107,0v-157,258,-144,571,0,836r-107,0","w":310},")":{"d":"126,95r-107,0v144,-269,157,-576,0,-836r107,0v79,125,119,258,119,398v0,162,-40,308,-119,438","w":310},"*":{"d":"161,-321r-91,-66r83,-100r0,-2r-126,-31r34,-108r121,49r-9,-131r115,0r-9,131r121,-49r36,107r-128,32r0,2r84,99r-91,67r-69,-110r-2,0","w":461},"+":{"d":"49,-236r0,-99r216,0r0,-237r103,0r0,237r216,0r0,99r-216,0r0,236r-103,0r0,-236r-216,0","w":633},",":{"d":"17,105r67,-234r125,0r-96,234r-96,0","w":265},"-":{"d":"78,-230r0,-111r301,0r0,111r-301,0","w":457},".":{"d":"65,0r0,-127r127,0r0,127r-127,0","w":257},"\/":{"d":"27,42r254,-788r109,0r-255,788r-108,0","w":410},"0":{"d":"436,-16v-65,37,-179,37,-244,0v-101,-58,-135,-183,-135,-340v0,-244,86,-366,257,-366v201,0,258,162,258,366v0,107,-17,191,-56,260v-19,35,-46,61,-80,80xm314,-106v83,0,125,-83,125,-250v0,-165,-42,-247,-125,-247v-83,0,-125,82,-125,247v0,167,42,250,125,250","w":629},"1":{"d":"54,0r0,-111r154,0r1,-442r-2,0v-17,33,-61,67,-88,94r-76,-80r178,-171r113,0r0,599r154,0r0,111r-434,0","w":512},"2":{"d":"195,-706v156,-53,326,35,321,194v-4,123,-85,181,-160,236v-50,37,-100,59,-136,104v-16,20,-24,40,-25,61r332,0r0,111r-471,0v-38,-228,134,-298,260,-397v31,-26,64,-57,66,-104v1,-60,-49,-100,-108,-99v-65,2,-103,44,-128,84r-96,-64v30,-55,76,-103,145,-126","w":580},"3":{"d":"520,-221v0,132,-108,233,-250,233v-92,0,-178,-35,-235,-95r66,-99v27,32,98,71,161,72v68,1,128,-42,128,-106v0,-77,-72,-111,-152,-110r-49,0r-29,-66r130,-154v19,-22,36,-40,51,-54r0,-2v-79,7,-188,1,-275,3r0,-111r434,0r0,81r-174,201v102,13,194,90,194,207","w":574},"4":{"d":"28,-183r0,-79r306,-448r153,0r0,420r92,0r0,107r-92,0r0,183r-127,0r0,-183r-332,0xm164,-290r196,0r0,-220r5,-74r-2,0v-11,25,-22,47,-35,65r-164,227r0,2","w":621},"5":{"d":"526,-232v0,140,-114,244,-256,244v-91,0,-173,-35,-227,-96r66,-97v33,35,82,70,151,71v70,1,134,-50,134,-121v0,-94,-101,-143,-198,-115v-26,7,-39,11,-55,22r-71,-26r33,-360r373,0r0,111r-262,0r-11,117r-5,33v24,-9,48,-16,78,-16v143,0,250,97,250,233","w":569},"6":{"d":"561,-226v0,133,-99,240,-234,238v-167,-3,-278,-151,-274,-337v3,-135,49,-240,117,-311v46,-48,119,-86,210,-86v59,0,108,10,145,30r-38,111v-75,-36,-176,-27,-226,33v-31,37,-53,81,-63,135r2,0v23,-28,83,-50,133,-50v133,0,228,107,228,237xm187,-280v-2,81,63,174,140,174v65,0,106,-54,106,-120v0,-76,-51,-131,-130,-131v-55,0,-115,28,-116,77","w":604},"7":{"d":"78,0r266,-534v15,-29,29,-51,43,-65r0,-2v-9,1,-26,2,-49,2r-303,0r0,-111r488,0r0,90r-311,620r-134,0","w":544},"8":{"d":"305,12v-139,0,-256,-88,-254,-218v1,-82,57,-151,107,-183v-49,-37,-73,-84,-73,-139v2,-117,96,-194,228,-194v128,0,232,73,230,197v0,57,-26,115,-79,175v61,39,91,89,91,151v-1,123,-113,211,-250,211xm305,-102v75,0,142,-62,111,-136v-8,-18,-50,-42,-66,-52v-13,-8,-88,-39,-101,-46v-44,37,-66,77,-66,120v0,64,58,114,122,114xm311,-607v-69,0,-121,54,-90,115v14,26,21,33,51,50v38,22,52,25,97,45v32,-35,48,-75,48,-120v0,-57,-46,-90,-106,-90","w":611},"9":{"d":"277,-722v167,3,278,151,274,337v-3,135,-49,240,-117,311v-46,48,-119,86,-210,86v-59,0,-108,-10,-145,-30r38,-111v75,38,175,29,225,-31v31,-37,54,-82,64,-136r-2,0v-23,28,-83,50,-134,50v-133,0,-227,-108,-227,-238v0,-132,99,-240,234,-238xm170,-484v0,77,51,132,131,132v55,0,114,-29,116,-77v3,-80,-64,-174,-140,-174v-64,0,-107,54,-107,119","w":604},":":{"d":"81,-383r0,-127r126,0r0,127r-126,0xm81,0r0,-127r126,0r0,127r-126,0","w":288},";":{"d":"31,105r58,-234r125,0r-86,234r-97,0xm90,-383r0,-127r126,0r0,127r-126,0","w":292},"<":{"d":"25,-245r0,-82r481,-214r0,111r-347,143r0,2r347,143r0,111","w":556},"=":{"d":"82,-339r0,-98r488,0r0,98r-488,0xm82,-134r0,-98r488,0r0,98r-488,0","w":652},">":{"d":"50,-31r0,-111r347,-143r0,-2r-347,-143r0,-111r481,214r0,82","w":556},"?":{"d":"212,-724v113,0,220,75,218,188v-2,96,-60,146,-112,190v-28,24,-61,56,-62,102r0,39r-123,0v0,-48,0,-86,17,-121v31,-63,94,-90,131,-145v11,-17,17,-34,17,-53v0,-67,-82,-101,-149,-72v-26,11,-38,17,-55,31r-70,-87v31,-35,115,-72,188,-72xm133,0r0,-118r123,0r0,118r-123,0","w":487},"@":{"d":"447,127v-222,6,-396,-154,-396,-367v0,-204,170,-373,376,-373v95,0,165,20,209,61v44,41,66,93,66,157r0,250r73,0r0,91r-277,0v-118,4,-215,-78,-215,-186v0,-107,97,-187,215,-183r85,0v-4,-60,-80,-88,-152,-88v-140,0,-255,131,-255,271v0,151,115,273,271,268r0,99xm508,-341v-56,-2,-99,43,-99,98v0,54,42,98,97,98r77,0r0,-196r-75,0","w":834},"A":{"d":"503,0r-60,-182r-249,0r-60,182r-133,0r250,-710r135,0r250,710r-133,0xm320,-587r-2,0v-27,120,-60,193,-93,300r186,0r-63,-190","w":637},"B":{"d":"592,-206v3,136,-110,207,-245,206r-257,0r0,-710r254,0v123,-1,220,64,219,183v0,71,-37,126,-86,152r0,2v69,17,114,86,115,167xm432,-511v0,-54,-33,-89,-90,-88r-123,0r0,179r125,0v54,1,88,-38,88,-91xm460,-214v0,-60,-41,-102,-103,-102r-138,0r0,205r138,0v62,1,103,-42,103,-103","w":642},"C":{"d":"408,12v-209,4,-367,-163,-367,-370v0,-232,204,-412,458,-354v73,16,127,46,169,87r-62,96v-34,-34,-121,-74,-194,-75v-141,-3,-238,107,-238,244v0,137,99,254,239,254v75,0,150,-35,206,-90r68,93v-59,62,-155,113,-279,115","w":716},"D":{"d":"694,-356v0,219,-143,356,-362,356r-242,0r0,-710r242,0v219,-2,362,135,362,354xm561,-356v0,-151,-89,-244,-236,-243r-106,0r0,488r106,0v149,0,236,-92,236,-245","w":739},"E":{"d":"90,0r0,-710r425,0r0,111r-296,0r0,186r239,0r0,111r-239,0r0,191r312,0r0,111r-441,0","w":575},"F":{"d":"90,0r0,-710r408,0r0,111r-279,0r0,201r235,0r0,111r-235,0r0,287r-129,0","w":529},"G":{"d":"390,12v-196,2,-348,-163,-348,-368v0,-203,162,-366,366,-366v107,0,198,32,264,90r-64,96v-33,-32,-118,-67,-189,-68v-148,-3,-244,102,-244,244v0,143,100,254,238,254v66,0,129,-28,178,-74r0,-83r-109,0r0,-111r225,0r0,374r-110,0r1,-64r-2,0v-45,42,-116,76,-206,76","w":760},"H":{"d":"90,0r0,-710r129,0r0,301r325,0r0,-301r129,0r0,710r-129,0r0,-298r-325,0r0,298r-129,0","w":763},"I":{"d":"90,0r0,-710r129,0r0,710r-129,0","w":309},"J":{"d":"244,12v-125,0,-225,-87,-220,-222r0,-41r128,0r0,33v-2,69,34,112,94,112v59,0,91,-40,91,-106r0,-387r-183,0r0,-111r312,0r0,500v5,137,-96,222,-222,222","w":547},"K":{"d":"90,0r0,-710r129,0r0,289r92,0r167,-289r140,0r-201,338r0,2r213,370r-145,0r-174,-310r-92,0r0,310r-129,0","w":647},"L":{"d":"90,0r0,-710r129,0r0,599r307,0r0,111r-436,0","w":539},"M":{"d":"68,0r58,-710r138,0r139,351r36,104r2,0v52,-165,115,-299,174,-455r138,0r57,710r-128,0r-30,-397v-2,-31,-2,-68,-1,-110r-2,0v-46,148,-100,250,-153,385r-113,0r-114,-275r-39,-111r-2,0v1,43,1,80,-1,111r-30,397r-129,0","w":878},"N":{"d":"90,0r0,-710r129,0r269,410v19,28,44,79,59,110r2,0v-5,-45,-7,-82,-7,-110r0,-410r128,0r0,710r-128,0r-269,-409v-20,-30,-42,-74,-59,-110r-2,0v5,45,7,82,7,110r0,409r-129,0","w":760},"O":{"d":"408,12v-204,0,-367,-168,-367,-372v0,-200,165,-362,367,-362v202,0,367,162,367,362v0,204,-163,372,-367,372xm408,-604v-130,0,-234,111,-234,244v0,137,102,254,234,254v132,0,234,-117,234,-254v0,-133,-104,-244,-234,-244","w":816},"P":{"d":"590,-479v0,134,-94,234,-226,234r-145,0r0,245r-129,0r0,-710r274,0v132,-2,226,97,226,231xm459,-479v0,-72,-45,-121,-117,-120r-123,0r0,242r121,0v74,1,119,-48,119,-122","w":614},"Q":{"d":"407,12v-202,0,-366,-169,-366,-371v0,-200,164,-363,366,-363v203,0,368,161,368,363v0,81,-26,156,-78,225r80,72r-74,82r-79,-78v-61,47,-134,70,-217,70xm407,-604v-130,0,-233,111,-233,245v0,136,101,255,233,253v46,0,87,-12,124,-37r-79,-75r74,-81r77,77v26,-42,39,-88,39,-137v0,-135,-103,-245,-235,-245","w":826},"R":{"d":"578,-496v0,90,-52,169,-120,194v5,11,14,19,24,37r146,265r-144,0r-141,-265r-124,0r0,265r-129,0r0,-710v118,4,292,-14,372,20v69,29,116,98,116,194xm447,-489v-2,-81,-41,-110,-130,-110r-98,0r0,222r116,0v69,0,113,-42,112,-112","w":658},"S":{"d":"515,-196v0,123,-102,208,-234,208v-96,0,-184,-36,-245,-97r70,-97v41,36,100,74,177,75v55,0,104,-31,103,-86v0,-23,-11,-43,-34,-61v-103,-77,-297,-86,-301,-262v-2,-121,112,-206,238,-206v86,0,160,27,212,76r-56,105v-28,-28,-97,-61,-157,-62v-56,-1,-107,33,-107,85v0,23,12,42,35,59v49,37,122,57,181,87v60,31,118,88,118,176","w":554},"T":{"d":"237,0r0,-599r-233,0r0,-111r595,0r0,111r-233,0r0,599r-129,0","w":603},"U":{"d":"367,12v-165,0,-287,-106,-287,-267r0,-455r129,0r0,455v-1,93,63,149,157,149v94,0,158,-56,158,-150r0,-454r129,0r0,455v2,160,-122,267,-286,267","w":733},"V":{"d":"258,0r-259,-710r139,0r156,463v10,29,19,71,27,104r2,0r15,-60v4,-17,8,-32,12,-44r157,-463r138,0r-259,710r-128,0","w":644},"W":{"d":"538,-710r126,491v6,22,11,51,13,75r2,0v2,-23,6,-48,12,-75r117,-491r133,0r-183,710r-149,0r-109,-420v-8,-31,-14,-62,-18,-93r-2,0v-4,31,-10,62,-18,93r-109,420r-149,0r-178,-710r133,0r112,491r12,75v4,0,2,-7,3,-10v2,-18,7,-47,12,-65r128,-491r112,0","w":966},"X":{"d":"17,0r221,-360r-212,-350r147,0r97,174r45,87r2,0v41,-93,94,-174,142,-261r148,0r-214,350r222,360r-145,0r-110,-191r-44,-84r-2,0v-46,96,-103,183,-153,275r-144,0","w":633},"Y":{"d":"238,0r0,-297r-236,-413r146,0r120,228r32,74v1,1,2,2,4,2v44,-110,102,-202,153,-304r146,0r-236,413r0,297r-129,0","w":605},"Z":{"d":"38,0r0,-83r315,-452v15,-22,35,-48,52,-64r0,-2v-13,1,-31,2,-53,2r-298,0r0,-111r513,0r0,82r-315,453v-15,22,-35,48,-52,64r0,2v13,-1,31,-2,53,-2r318,0r0,111r-533,0","w":614},"[":{"d":"93,95r0,-836r197,0r0,92r-89,0r0,652r89,0r0,92r-197,0","w":317},"\\":{"d":"275,42r-255,-788r109,0r255,788r-109,0","w":411},"]":{"d":"27,3r89,0r0,-652r-89,0r0,-92r197,0r0,836r-197,0r0,-92","w":317},"^":{"d":"65,-245r201,-465r80,0r201,465r-110,0r-131,-331r-131,331r-110,0","w":619},"_":{"d":"20,0r561,0r0,98r-561,0r0,-98","w":601},"`":{"d":"247,-757r-104,-136r131,0r76,136r-103,0","w":493},"a":{"d":"260,2v-116,36,-233,-34,-233,-149v0,-85,57,-123,119,-147v55,-21,127,-27,200,-26v2,-65,-30,-97,-98,-97v-47,1,-94,17,-140,49r-48,-91v37,-31,126,-63,200,-63v132,-1,213,73,212,203r0,319r-117,0r0,-42r2,-36v-4,-1,-1,3,-6,10v-20,31,-49,57,-91,70xm232,-87v66,0,121,-74,115,-146r-22,0v-113,0,-170,27,-170,80v1,39,33,66,77,66","w":534},"b":{"d":"576,-255v0,168,-118,302,-290,259v-45,-11,-73,-38,-96,-68r-2,0v3,18,2,43,2,64r-120,0r0,-710r127,0r0,219r-2,43r2,0v28,-42,81,-73,153,-74v142,-1,226,119,226,267xm321,-413v-81,0,-128,67,-128,161v0,81,46,158,127,157v79,-1,128,-70,128,-158v0,-88,-46,-160,-127,-160","w":611},"c":{"d":"310,12v-158,3,-277,-114,-277,-267v0,-151,120,-267,277,-267v81,0,149,27,196,76r-56,87v-23,-25,-81,-55,-133,-55v-90,0,-155,70,-155,158v0,89,68,162,159,160v61,-1,121,-33,150,-65r49,90v-44,46,-118,81,-210,83","w":545},"d":{"d":"261,12v-142,1,-226,-119,-226,-267v0,-149,90,-268,231,-267v68,0,119,21,147,65r2,0r-1,-253r127,0r0,710r-120,0r0,-42r2,-33r-2,0v-28,48,-82,86,-160,87xm291,-413v-79,1,-128,70,-128,158v0,88,46,160,127,160v81,0,128,-67,128,-161v0,-81,-46,-158,-127,-157","w":611},"e":{"d":"308,12v-157,3,-274,-117,-274,-267v0,-153,108,-267,259,-267v157,0,245,126,223,291r-352,0v5,106,120,163,226,121v36,-14,52,-24,74,-42r49,91v-46,40,-117,71,-205,73xm391,-318v0,-63,-41,-106,-101,-106v-69,0,-112,44,-122,106r223,0","w":554},"f":{"d":"96,-502v-9,-161,95,-225,251,-209r0,108v-7,-1,-16,-2,-26,-2v-73,0,-103,33,-98,103r109,0r0,101r-109,0r0,401r-127,0r0,-401r-63,0r0,-101r63,0","w":347},"g":{"d":"262,-522v70,0,123,26,151,65r3,0v-2,-15,-1,-36,-1,-53r119,0r0,479v-3,163,-109,241,-269,241v-65,0,-126,-15,-181,-44r38,-97v100,55,292,52,285,-91v0,-20,0,-39,2,-57r-2,0v-31,46,-78,69,-142,69v-141,0,-229,-118,-229,-258v0,-142,84,-254,226,-254xm164,-272v0,86,45,157,128,155v80,-2,118,-56,118,-150v0,-98,-42,-147,-126,-147v-79,0,-120,60,-120,142","w":604},"h":{"d":"424,-302v-1,-65,-17,-104,-81,-104v-70,0,-121,49,-138,106v-5,18,-8,40,-8,66r0,234r-127,0r0,-710r127,0r0,246r-2,43r2,0v27,-53,94,-101,176,-101v118,0,177,65,177,194r0,328r-126,0r0,-302","w":613},"i":{"d":"70,-597r0,-113r126,0r0,113r-126,0xm70,0r0,-510r127,0r0,510r-127,0","w":267},"j":{"d":"70,-597r0,-113r126,0r0,113r-126,0xm-55,97v70,9,125,-20,125,-92r0,-515r127,0r0,525v0,145,-106,204,-252,189r0,-107","w":267},"k":{"d":"70,0r0,-710r127,0r0,380r63,0r123,-180r141,0r-161,228r0,2r181,280r-146,0r-135,-223r-66,0r0,223r-127,0","w":552},"l":{"d":"189,-178v-2,56,19,75,71,69r0,111v-86,10,-159,-8,-183,-74v-9,-23,-14,-52,-14,-87r0,-551r126,0r0,532","w":284},"m":{"d":"397,-304v-1,-61,-10,-102,-69,-102v-70,1,-113,56,-125,117v-16,80,-3,197,-6,289r-127,0r0,-510r122,0r0,59r-2,35r2,0v26,-52,89,-106,166,-106v78,0,128,35,149,105r2,0v26,-54,95,-106,174,-105v111,0,167,65,167,194r0,328r-127,0r0,-304v-1,-62,-11,-102,-70,-102v-69,0,-112,55,-123,116v-15,81,-3,197,-6,290r-127,0r0,-304","w":913},"n":{"d":"424,-302v-1,-65,-17,-104,-81,-104v-71,0,-119,47,-137,104v-6,18,-9,41,-9,68r0,234r-127,0r0,-510r122,0r0,59r-2,35r2,0v29,-55,92,-106,181,-106v118,0,177,65,177,194r0,328r-126,0r0,-302","w":613},"o":{"d":"313,12v-154,0,-281,-114,-281,-267v0,-153,127,-267,280,-267v153,0,281,115,281,267v0,153,-127,267,-280,267xm313,-414v-84,0,-152,72,-152,159v0,89,66,159,152,159v85,0,151,-71,151,-159v0,-88,-67,-159,-151,-159"},"p":{"d":"343,12v-69,0,-117,-31,-146,-70r-2,0v5,80,1,174,2,258r-127,0r0,-710r116,0r0,37r-2,35r2,0v28,-48,85,-84,164,-84v142,-1,226,119,226,267v0,149,-92,268,-233,267xm321,-413v-81,0,-128,67,-128,161v0,81,46,158,127,157v79,-1,128,-70,128,-158v0,-88,-46,-160,-127,-160","w":611},"q":{"d":"261,12v-142,1,-226,-119,-226,-267v0,-149,90,-267,231,-267v71,0,130,33,155,74r2,0v-3,-16,-2,-42,-2,-62r120,0r0,710r-127,0r0,-220r2,-44r-2,0v-29,43,-79,76,-153,76xm291,-413v-79,1,-128,70,-128,158v0,88,46,160,127,160v81,0,128,-67,128,-161v0,-81,-46,-158,-127,-157","w":611},"r":{"d":"377,-390v-119,-13,-180,67,-180,188r0,202r-127,0r0,-510r122,0r0,88r-2,36r2,0v23,-73,88,-142,185,-129r0,125","w":393},"s":{"d":"420,-141v0,96,-89,155,-195,153v-81,-1,-161,-34,-198,-75r58,-89v23,26,86,56,139,56v33,0,69,-15,67,-46v-3,-37,-52,-53,-87,-67v-73,-30,-159,-63,-161,-163v-3,-129,163,-178,289,-136v41,14,54,24,77,44r-47,94v-21,-23,-77,-44,-125,-44v-33,0,-65,14,-65,46v0,13,9,24,26,34v83,49,222,63,222,193","w":452},"t":{"d":"343,2v-144,15,-251,-44,-251,-189r0,-214r-66,0r0,-101r69,0r0,-147r124,0r0,147r116,0r0,101r-116,0r0,198v-3,75,55,102,124,94r0,111","w":377},"u":{"d":"417,-94v-26,55,-95,106,-177,106v-118,0,-177,-65,-177,-194r0,-328r127,0r0,302v1,64,17,104,79,104v90,2,143,-81,143,-172r0,-234r127,0r0,510r-122,0r0,-58r2,-36r-2,0","w":609},"v":{"d":"185,0r-185,-510r134,0r106,316r16,64r2,13r2,0v3,-23,12,-56,18,-77r106,-316r134,0r-183,510r-150,0","w":519},"w":{"d":"170,0r-156,-510r134,0r89,335r10,54r2,0v3,-18,7,-36,12,-54r94,-334r113,0r94,334r11,54r2,0v27,-135,68,-259,100,-389r132,0r-155,510r-141,0r-86,-291r-13,-55r-2,0v-3,19,-7,37,-12,55r-86,291r-142,0","w":821},"x":{"d":"263,-175r-2,0v-32,62,-69,116,-103,175r-141,0r168,-258r-164,-252r144,0r96,171r2,0v6,-13,12,-23,17,-32r79,-139r144,0r-164,252r168,258r-141,0r-89,-148","w":524},"y":{"d":"1,177r42,-95v56,41,120,20,145,-45r19,-45r-215,-502r143,0r107,294r19,69r2,0v5,-27,11,-49,17,-67r100,-296r139,0r-228,587v-32,92,-120,155,-237,125v-26,-7,-37,-13,-53,-25","w":521},"z":{"d":"35,0r0,-68r250,-312v10,-11,17,-12,22,-24v-78,5,-178,1,-262,2r0,-108r434,0r0,69r-229,287v-13,17,-28,33,-44,47r0,2v82,-7,191,-1,280,-3r0,108r-451,0","w":524},"{":{"d":"336,97v-125,12,-209,-44,-208,-168r0,-97v0,-61,-30,-96,-85,-104r0,-111v53,-7,85,-44,85,-106r0,-86v1,-124,80,-177,208,-168r0,94v-62,-9,-100,24,-100,84r0,109v1,61,-29,106,-82,127r0,2v48,16,81,60,82,126r0,120v-1,62,38,90,100,84r0,94","w":365},"|":{"d":"91,161r0,-957r108,0r0,957r-108,0","w":290},"}":{"d":"237,-71v0,124,-82,180,-208,168r0,-94v63,7,99,-21,99,-84v0,-76,-11,-168,30,-209v16,-16,31,-31,53,-37r0,-2v-46,-18,-82,-61,-83,-127r0,-109v1,-62,-37,-90,-99,-84r0,-94v127,-9,208,44,208,168v0,59,-8,124,21,157v22,24,34,31,64,35r0,111v-52,6,-85,43,-85,104r0,97","w":365},"~":{"d":"219,-285v-44,0,-62,41,-62,86r-101,0v0,-121,51,-182,154,-182v44,-1,84,22,104,45v18,19,46,46,80,46v44,0,62,-42,62,-87r100,0v0,121,-51,182,-153,182v-44,0,-84,-23,-105,-45v-18,-19,-46,-45,-79,-45","w":610},"\u00a0":{"w":243},"\u00a1":{"d":"91,-391r0,-118r122,0r0,118r-122,0xm86,200r11,-504r111,0r10,504r-132,0","w":305},"\u00a2":{"d":"533,-235v-31,76,-96,151,-190,161r0,86r-86,0r0,-86v-124,-18,-212,-137,-212,-281v0,-143,88,-264,212,-282r0,-84r86,0r0,84v91,16,161,81,190,162r-114,44v-24,-59,-63,-89,-116,-89v-82,0,-130,78,-130,165v0,92,44,165,130,165v53,0,92,-30,116,-89","w":576},"\u00a3":{"d":"340,-605v-55,-1,-101,37,-100,90r0,117r177,0r0,87r-177,0r0,200r312,0r0,111r-501,0r0,-111r58,0r0,-200r-43,0r0,-87r43,0r0,-121v-4,-151,170,-245,321,-185v43,17,60,31,86,54r-73,88v-31,-29,-66,-43,-103,-43","w":591},"\u00a5":{"d":"79,-345r0,-76r98,0r-154,-289r147,0r93,189v16,33,33,79,43,114r2,0v32,-113,90,-203,136,-303r147,0r-154,289r98,0r0,76r-137,0r-25,49r0,33r162,0r0,76r-162,0r0,187r-131,0r0,-187r-163,0r0,-76r163,0r0,-33r-26,-49r-137,0","w":614},"\u00a7":{"d":"372,-579v-62,-60,-217,-57,-212,55v0,11,2,28,7,50r69,336r-99,0r-73,-344v-34,-143,59,-243,198,-240v68,1,134,28,167,62xm403,-178v32,143,-57,242,-198,240v-67,-1,-135,-28,-167,-61r54,-86v21,21,70,43,113,44v61,0,105,-37,103,-101v0,-11,-3,-30,-9,-57r-67,-323r100,0","w":470},"\u00a8":{"d":"290,-777r0,-116r97,0r0,116r-97,0xm106,-777r0,-116r98,0r0,116r-98,0","w":493},"\u00a9":{"d":"403,12v-194,0,-357,-172,-357,-367v0,-196,163,-366,357,-366v196,0,360,170,360,366v0,196,-164,367,-360,367xm403,-640v-150,0,-268,132,-268,285v0,153,118,286,268,286v152,0,272,-132,272,-286v0,-154,-120,-285,-272,-285xm472,-170v-132,48,-251,-57,-251,-183v0,-105,81,-195,187,-195v73,0,132,40,162,105r-76,36v-15,-29,-40,-56,-83,-58v-59,-1,-98,51,-98,112v0,80,75,141,145,97v21,-13,27,-24,36,-43r76,35v-20,41,-49,77,-98,94","w":809},"\u00aa":{"d":"260,-433v-11,25,-51,50,-91,50v-56,1,-107,-40,-107,-98v0,-76,70,-112,194,-110v7,-55,-48,-69,-96,-52v-20,7,-30,11,-44,20r-32,-59v23,-20,80,-38,128,-38v85,-1,134,48,134,130r0,201r-84,0r0,-44r-2,0xm152,-487v0,21,18,35,40,34v38,0,66,-38,63,-79v-60,-2,-103,12,-103,45xm63,-266r0,-68r286,0r0,68r-286,0","w":413},"\u00ab":{"d":"259,-282r164,-206r121,0r-164,206r164,205r-121,0xm199,-77r-164,-205r164,-206r121,0r-164,206r164,205r-121,0","w":584},"\u00ac":{"d":"47,-339r0,-98r488,0r0,294r-102,0r0,-196r-386,0","w":603},"\u00ad":{"d":"65,-230r0,-111r301,0r0,111r-301,0","w":431},"\u00ae":{"d":"403,12v-194,0,-357,-172,-357,-367v0,-196,163,-366,357,-366v196,0,360,170,360,366v0,196,-164,367,-360,367xm403,-640v-150,0,-268,132,-268,285v0,153,118,286,268,286v152,0,272,-132,272,-286v0,-154,-120,-285,-272,-285xm550,-424v0,48,-31,86,-65,95r82,155r-94,0r-62,-135r-48,0r0,135r-85,0r0,-366r152,0v70,-1,120,47,120,116xm463,-424v0,-34,-19,-54,-52,-54r-48,0r0,109r47,0v34,0,53,-21,53,-55","w":809},"\u00af":{"d":"116,-783r0,-87r262,0r0,87r-262,0","w":493},"\u00b0":{"d":"361,-565v0,87,-76,157,-163,157v-87,0,-163,-70,-163,-157v0,-86,76,-158,163,-158v86,0,163,73,163,158xm132,-565v0,36,30,66,66,66v36,0,67,-30,67,-66v0,-35,-31,-66,-67,-66v-36,0,-66,31,-66,66","w":395},"\u00b1":{"d":"49,-236r0,-99r216,0r0,-237r103,0r0,237r216,0r0,99r-216,0r0,236r-103,0r0,-236r-216,0xm63,85r508,0r0,98r-508,0r0,-98","w":633},"\u00b2":{"d":"142,-864v101,-31,207,27,205,128v-3,115,-111,139,-175,192v-14,12,-22,25,-23,38r204,0r0,83r-305,0v-23,-122,56,-182,130,-227v31,-19,71,-42,73,-82v2,-47,-62,-65,-102,-40v-18,11,-28,20,-39,34r-62,-55v20,-31,52,-58,94,-71","w":395},"\u00b3":{"d":"351,-562v0,84,-75,149,-166,149v-65,0,-123,-30,-149,-67r50,-67v15,22,57,47,97,47v38,0,73,-27,72,-63v-1,-49,-56,-61,-113,-57r-20,-45r79,-90r24,-24r0,-2v-52,7,-108,1,-164,3r0,-84r280,0r0,61r-99,112v62,11,110,55,109,127","w":395},"\u00b4":{"d":"143,-757r76,-136r131,0r-105,136r-102,0","w":493},"\u00b5":{"d":"372,-25v-35,29,-146,56,-191,16r-2,0v11,73,6,132,7,209r-109,0r0,-710r126,0r0,302v1,64,17,104,79,104v90,2,143,-81,143,-172r0,-234r127,0r0,510r-122,0r0,-62r2,-32v-7,0,-5,9,-8,12v-9,16,-36,43,-52,57","w":629},"\u00b6":{"d":"36,-476v0,-127,109,-234,235,-234r305,0r0,111r-213,0r0,649r-92,0r0,-291v-126,3,-235,-108,-235,-235xm425,50r0,-594r93,0r0,594r-93,0","w":613},"\u00b7":{"d":"77,-229r0,-126r123,0r0,126r-123,0","w":277},"\u00b8":{"d":"331,120v0,84,-93,99,-169,81r0,-70v28,13,90,13,87,-20v4,-24,-39,-30,-69,-25r31,-111r58,13v-1,21,-8,37,-11,56v42,5,73,29,73,76","w":493},"\u00b9":{"d":"67,-423r0,-83r92,0r0,-207r2,-28r-2,0v-9,18,-32,33,-46,48r-56,-60r113,-109r84,0r0,356r91,0r0,83r-278,0","w":395},"\u00ba":{"d":"404,-553v0,96,-80,169,-176,169v-95,0,-175,-74,-175,-169v0,-94,81,-167,175,-167v95,0,176,72,176,167xm144,-553v0,49,37,89,84,89v48,0,85,-39,85,-89v0,-49,-37,-88,-85,-88v-47,0,-84,40,-84,88xm68,-266r0,-68r322,0r0,68r-322,0","w":457},"\u00bb":{"d":"265,-77r164,-205r-164,-206r121,0r164,206r-164,205r-121,0xm40,-77r164,-205r-164,-206r121,0r164,206r-164,205r-121,0","w":585},"\u00bc":{"d":"368,0r-93,0r336,-710r92,0xm66,-271r0,-83r92,0r0,-207r2,-28r-2,0v-9,18,-32,33,-46,48r-56,-60r113,-109r84,0r0,356r91,0r0,83r-278,0xm797,0r0,-99r-204,0r0,-64r189,-276r108,0r0,258r58,0r0,82r-58,0r0,99r-93,0xm690,-181r107,0r0,-110r3,-55r-2,0v-30,63,-72,108,-108,163r0,2","w":977},"\u00bd":{"d":"358,0r-93,0r336,-710r92,0xm53,-271r0,-83r92,0r0,-207r2,-28r-2,0v-9,18,-32,33,-46,48r-56,-60r113,-109r84,0r0,356r91,0r0,83r-278,0xm708,-440v101,-31,208,26,206,127v-3,115,-110,139,-174,192v-14,12,-23,25,-24,38r204,0r0,83r-305,0v-24,-135,68,-189,149,-240v25,-15,53,-36,54,-69v1,-47,-62,-66,-102,-41v-19,12,-28,21,-39,35r-62,-55v20,-31,51,-57,93,-70","w":979},"\u00be":{"d":"364,0r-93,0r336,-710r92,0xm793,0r0,-99r-204,0r0,-64r189,-276r108,0r0,258r58,0r0,82r-58,0r0,99r-93,0xm686,-181r107,0r0,-110r3,-55r-2,0v-30,63,-72,108,-108,163r0,2xm348,-410v0,84,-75,149,-166,149v-65,0,-123,-30,-149,-67r50,-67v15,22,57,47,97,47v38,0,73,-27,72,-63v-1,-49,-56,-61,-113,-57r-20,-45r79,-90r24,-24r0,-2v-52,7,-108,1,-164,3r0,-84r280,0r0,61r-99,112v62,11,110,55,109,127","w":986},"\u00bf":{"d":"207,-392r0,-118r122,0r0,118r-122,0xm251,210v-114,0,-221,-73,-219,-188v2,-95,61,-145,113,-189v29,-25,61,-56,62,-103r0,-35r122,0v1,47,0,83,-17,117v-31,63,-93,90,-130,145v-11,17,-17,34,-17,53v0,66,83,104,149,73v25,-12,37,-18,54,-32r71,88v-31,35,-115,71,-188,71","w":459},"\u00c0":{"d":"503,0r-60,-182r-249,0r-60,182r-133,0r250,-710r135,0r250,710r-133,0xm320,-587r-2,0v-27,120,-60,193,-93,300r186,0r-63,-190xm270,-757r-104,-136r131,0r76,136r-103,0","w":637},"\u00c1":{"d":"503,0r-60,-182r-249,0r-60,182r-133,0r250,-710r135,0r250,710r-133,0xm320,-587r-2,0v-27,120,-60,193,-93,300r186,0r-63,-190xm264,-757r76,-136r131,0r-105,136r-102,0","w":637},"\u00c2":{"d":"503,0r-60,-182r-249,0r-60,182r-133,0r250,-710r135,0r250,710r-133,0xm320,-587r-2,0v-27,120,-60,193,-93,300r186,0r-63,-190xm163,-757r92,-136r127,0r93,136r-105,0r-50,-81r-2,0r-50,81r-105,0","w":637},"\u00c3":{"d":"503,0r-60,-182r-249,0r-60,182r-133,0r250,-710r135,0r250,710r-133,0xm320,-587r-2,0v-27,120,-60,193,-93,300r186,0r-63,-190xm137,-758v0,-91,37,-137,112,-137v41,-1,70,30,92,49v36,31,76,16,73,-46r86,0v0,91,-37,137,-112,137v-41,1,-70,-30,-92,-49v-36,-31,-75,-16,-72,46r-87,0","w":637},"\u00c4":{"d":"503,0r-60,-182r-249,0r-60,182r-133,0r250,-710r135,0r250,710r-133,0xm320,-587r-2,0v-27,120,-60,193,-93,300r186,0r-63,-190xm362,-777r0,-116r97,0r0,116r-97,0xm178,-777r0,-116r98,0r0,116r-98,0","w":637},"\u00c5":{"d":"503,0r-60,-182r-249,0r-60,182r-133,0r250,-710r135,0r250,710r-133,0xm320,-587r-2,0v-27,120,-60,193,-93,300r186,0r-63,-190xm413,-823v0,48,-46,78,-94,78v-49,0,-95,-29,-95,-78v0,-50,45,-79,95,-79v49,0,94,30,94,79xm285,-823v0,20,13,34,34,34v20,0,34,-14,34,-34v0,-21,-14,-35,-34,-35v-20,0,-34,14,-34,35","w":637},"\u00c6":{"d":"-4,0r295,-710r553,0r0,111r-297,0r0,186r240,0r0,111r-240,0r0,191r312,0r0,111r-440,0r0,-304r-169,0r-120,304r-134,0xm366,-599r-75,190r128,0r0,-190r-53,0","w":903},"\u00c7":{"d":"364,9v-183,-15,-321,-171,-321,-367v0,-232,204,-412,458,-354v73,16,127,46,169,87r-62,96v-34,-34,-121,-74,-194,-75v-141,-3,-238,107,-238,244v0,137,99,254,239,254v75,0,150,-35,206,-90r68,93v-56,60,-147,108,-261,114r-7,33v42,5,73,29,73,76v0,84,-93,99,-169,81r0,-70v28,13,90,13,87,-20v4,-24,-39,-30,-69,-25","w":718},"\u00c8":{"d":"90,0r0,-710r425,0r0,111r-296,0r0,186r239,0r0,111r-239,0r0,191r312,0r0,111r-441,0xm264,-757r-104,-136r131,0r76,136r-103,0","w":575},"\u00c9":{"d":"90,0r0,-710r425,0r0,111r-296,0r0,186r239,0r0,111r-239,0r0,191r312,0r0,111r-441,0xm258,-757r76,-136r131,0r-105,136r-102,0","w":575},"\u00ca":{"d":"90,0r0,-710r425,0r0,111r-296,0r0,186r239,0r0,111r-239,0r0,191r312,0r0,111r-441,0xm157,-757r92,-136r127,0r93,136r-105,0r-50,-81r-2,0r-50,81r-105,0","w":575},"\u00cb":{"d":"90,0r0,-710r425,0r0,111r-296,0r0,186r239,0r0,111r-239,0r0,191r312,0r0,111r-441,0xm356,-777r0,-116r97,0r0,116r-97,0xm172,-777r0,-116r98,0r0,116r-98,0","w":575},"\u00cc":{"d":"90,0r0,-710r129,0r0,710r-129,0xm107,-757r-104,-136r131,0r76,136r-103,0","w":309},"\u00cd":{"d":"90,0r0,-710r129,0r0,710r-129,0xm100,-757r76,-136r131,0r-105,136r-102,0","w":309},"\u00ce":{"d":"90,0r0,-710r129,0r0,710r-129,0xm-1,-757r92,-136r127,0r93,136r-105,0r-50,-81r-2,0r-50,81r-105,0","w":309},"\u00cf":{"d":"90,0r0,-710r129,0r0,710r-129,0xm199,-777r0,-116r97,0r0,116r-97,0xm15,-777r0,-116r98,0r0,116r-98,0","w":309},"\u00d0":{"d":"713,-356v0,219,-143,356,-362,356r-242,0r0,-301r-58,0r0,-105r58,0r0,-304r242,0v219,-2,362,135,362,354xm580,-356v0,-151,-89,-244,-236,-243r-106,0r0,193r132,0r0,105r-132,0r0,190r106,0v149,0,236,-92,236,-245","w":758},"\u00d1":{"d":"90,0r0,-710r129,0r269,410v19,28,44,79,59,110r2,0v-5,-45,-7,-82,-7,-110r0,-410r128,0r0,710r-128,0r-269,-409v-20,-30,-42,-74,-59,-110r-2,0v5,45,7,82,7,110r0,409r-129,0xm199,-758v0,-91,37,-137,112,-137v41,-1,70,30,92,49v36,31,76,16,73,-46r86,0v0,91,-37,137,-112,137v-41,1,-70,-30,-92,-49v-36,-31,-75,-16,-72,46r-87,0","w":760},"\u00d2":{"d":"408,12v-204,0,-367,-168,-367,-372v0,-200,165,-362,367,-362v202,0,367,162,367,362v0,204,-163,372,-367,372xm408,-604v-130,0,-234,111,-234,244v0,137,102,254,234,254v132,0,234,-117,234,-254v0,-133,-104,-244,-234,-244xm360,-757r-104,-136r131,0r76,136r-103,0","w":816},"\u00d3":{"d":"408,12v-204,0,-367,-168,-367,-372v0,-200,165,-362,367,-362v202,0,367,162,367,362v0,204,-163,372,-367,372xm408,-604v-130,0,-234,111,-234,244v0,137,102,254,234,254v132,0,234,-117,234,-254v0,-133,-104,-244,-234,-244xm353,-757r76,-136r131,0r-105,136r-102,0","w":816},"\u00d4":{"d":"408,12v-204,0,-367,-168,-367,-372v0,-200,165,-362,367,-362v202,0,367,162,367,362v0,204,-163,372,-367,372xm408,-604v-130,0,-234,111,-234,244v0,137,102,254,234,254v132,0,234,-117,234,-254v0,-133,-104,-244,-234,-244xm252,-757r92,-136r127,0r93,136r-105,0r-50,-81r-2,0r-50,81r-105,0","w":816},"\u00d5":{"d":"408,12v-204,0,-367,-168,-367,-372v0,-200,165,-362,367,-362v202,0,367,162,367,362v0,204,-163,372,-367,372xm408,-604v-130,0,-234,111,-234,244v0,137,102,254,234,254v132,0,234,-117,234,-254v0,-133,-104,-244,-234,-244xm227,-758v0,-91,37,-137,112,-137v41,-1,70,30,92,49v36,31,76,16,73,-46r86,0v0,91,-37,137,-112,137v-41,1,-70,-30,-92,-49v-36,-31,-75,-16,-72,46r-87,0","w":816},"\u00d6":{"d":"408,12v-204,0,-367,-168,-367,-372v0,-200,165,-362,367,-362v202,0,367,162,367,362v0,204,-163,372,-367,372xm408,-604v-130,0,-234,111,-234,244v0,137,102,254,234,254v132,0,234,-117,234,-254v0,-133,-104,-244,-234,-244xm452,-777r0,-116r97,0r0,116r-97,0xm268,-777r0,-116r98,0r0,116r-98,0","w":816},"\u00d7":{"d":"47,-69r197,-217r-197,-216r69,-70r195,214r195,-214r69,70r-198,216r198,217r-69,69r-195,-214r-195,214","w":622},"\u00d8":{"d":"778,-360v4,204,-163,372,-367,372v-71,0,-134,-17,-191,-51r-47,65r-57,-39r49,-67v-81,-73,-121,-167,-121,-280v0,-200,165,-362,367,-362v65,0,126,15,183,46r43,-60r57,39r-43,60v72,59,125,155,127,277xm411,-106v132,2,234,-117,234,-254v0,-69,-23,-127,-68,-174r-285,395v37,22,76,33,119,33xm411,-604v-130,-3,-234,111,-234,244v0,69,21,128,62,176r283,-392v-34,-19,-71,-28,-111,-28","w":820},"\u00d9":{"d":"367,12v-165,0,-287,-106,-287,-267r0,-455r129,0r0,455v-1,93,63,149,157,149v94,0,158,-56,158,-150r0,-454r129,0r0,455v2,160,-122,267,-286,267xm318,-757r-104,-136r131,0r76,136r-103,0","w":733},"\u00da":{"d":"367,12v-165,0,-287,-106,-287,-267r0,-455r129,0r0,455v-1,93,63,149,157,149v94,0,158,-56,158,-150r0,-454r129,0r0,455v2,160,-122,267,-286,267xm311,-757r76,-136r131,0r-105,136r-102,0","w":733},"\u00db":{"d":"367,12v-165,0,-287,-106,-287,-267r0,-455r129,0r0,455v-1,93,63,149,157,149v94,0,158,-56,158,-150r0,-454r129,0r0,455v2,160,-122,267,-286,267xm210,-757r92,-136r127,0r93,136r-105,0r-50,-81r-2,0r-50,81r-105,0","w":733},"\u00dc":{"d":"367,12v-165,0,-287,-106,-287,-267r0,-455r129,0r0,455v-1,93,63,149,157,149v94,0,158,-56,158,-150r0,-454r129,0r0,455v2,160,-122,267,-286,267xm410,-777r0,-116r97,0r0,116r-97,0xm226,-777r0,-116r98,0r0,116r-98,0","w":733},"\u00dd":{"d":"238,0r0,-297r-236,-413r146,0r120,228r32,74v1,1,2,2,4,2v44,-110,102,-202,153,-304r146,0r-236,413r0,297r-129,0xm248,-757r76,-136r131,0r-105,136r-102,0","w":605},"\u00de":{"d":"589,-364v0,134,-94,233,-226,233r-145,0r0,131r-128,0r0,-710r128,0r0,115r145,0v132,-2,226,97,226,231xm458,-364v0,-74,-44,-121,-117,-120r-123,0r0,242r121,0v74,1,119,-48,119,-122","w":615},"\u00df":{"d":"297,-614v-56,1,-100,35,-100,94r0,520r-127,0r0,-529v-3,-121,111,-193,231,-193v126,0,248,105,193,232v-20,46,-70,62,-76,118v4,35,53,63,81,83v36,25,81,75,81,135v0,147,-168,192,-302,142r-13,-7r0,-108v35,17,73,26,116,26v41,0,73,-19,71,-60v-2,-38,-51,-69,-81,-88v-46,-29,-107,-99,-67,-171v24,-44,76,-66,76,-126v0,-41,-37,-69,-83,-68","w":604},"\u00e0":{"d":"260,2v-116,36,-233,-34,-233,-149v0,-85,57,-123,119,-147v55,-21,127,-27,200,-26v2,-65,-30,-97,-98,-97v-47,1,-94,17,-140,49r-48,-91v37,-31,126,-63,200,-63v132,-1,213,73,212,203r0,319r-117,0r0,-42r2,-36v-4,-1,-1,3,-6,10v-20,31,-49,57,-91,70xm232,-87v66,0,121,-74,115,-146r-22,0v-113,0,-170,27,-170,80v1,39,33,66,77,66xm217,-573r-104,-136r131,0r76,136r-103,0","w":534},"\u00e1":{"d":"260,2v-116,36,-233,-34,-233,-149v0,-85,57,-123,119,-147v55,-21,127,-27,200,-26v2,-65,-30,-97,-98,-97v-47,1,-94,17,-140,49r-48,-91v37,-31,126,-63,200,-63v132,-1,213,73,212,203r0,319r-117,0r0,-42r2,-36v-4,-1,-1,3,-6,10v-20,31,-49,57,-91,70xm232,-87v66,0,121,-74,115,-146r-22,0v-113,0,-170,27,-170,80v1,39,33,66,77,66xm209,-573r76,-136r131,0r-105,136r-102,0","w":534},"\u00e2":{"d":"260,2v-116,36,-233,-34,-233,-149v0,-85,57,-123,119,-147v55,-21,127,-27,200,-26v2,-65,-30,-97,-98,-97v-47,1,-94,17,-140,49r-48,-91v37,-31,126,-63,200,-63v132,-1,213,73,212,203r0,319r-117,0r0,-42r2,-36v-4,-1,-1,3,-6,10v-20,31,-49,57,-91,70xm232,-87v66,0,121,-74,115,-146r-22,0v-113,0,-170,27,-170,80v1,39,33,66,77,66xm108,-573r92,-136r127,0r93,136r-105,0r-50,-81r-2,0r-50,81r-105,0","w":534},"\u00e3":{"d":"260,2v-116,36,-233,-34,-233,-149v0,-85,57,-123,119,-147v55,-21,127,-27,200,-26v2,-65,-30,-97,-98,-97v-47,1,-94,17,-140,49r-48,-91v37,-31,126,-63,200,-63v132,-1,213,73,212,203r0,319r-117,0r0,-42r2,-36v-4,-1,-1,3,-6,10v-20,31,-49,57,-91,70xm232,-87v66,0,121,-74,115,-146r-22,0v-113,0,-170,27,-170,80v1,39,33,66,77,66xm83,-574v0,-91,37,-137,112,-137v41,-1,70,30,92,49v36,31,76,16,73,-46r86,0v0,91,-37,137,-112,137v-41,1,-70,-30,-92,-49v-36,-31,-75,-16,-72,46r-87,0","w":534},"\u00e4":{"d":"260,2v-116,36,-233,-34,-233,-149v0,-85,57,-123,119,-147v55,-21,127,-27,200,-26v2,-65,-30,-97,-98,-97v-47,1,-94,17,-140,49r-48,-91v37,-31,126,-63,200,-63v132,-1,213,73,212,203r0,319r-117,0r0,-42r2,-36v-4,-1,-1,3,-6,10v-20,31,-49,57,-91,70xm232,-87v66,0,121,-74,115,-146r-22,0v-113,0,-170,27,-170,80v1,39,33,66,77,66xm308,-593r0,-116r97,0r0,116r-97,0xm124,-593r0,-116r98,0r0,116r-98,0","w":534},"\u00e5":{"d":"260,2v-116,36,-233,-34,-233,-149v0,-85,57,-123,119,-147v55,-21,127,-27,200,-26v2,-65,-30,-97,-98,-97v-47,1,-94,17,-140,49r-48,-91v37,-31,126,-63,200,-63v132,-1,213,73,212,203r0,319r-117,0r0,-42r2,-36v-4,-1,-1,3,-6,10v-20,31,-49,57,-91,70xm232,-87v66,0,121,-74,115,-146r-22,0v-113,0,-170,27,-170,80v1,39,33,66,77,66xm358,-639v0,48,-46,78,-94,78v-49,0,-95,-29,-95,-78v0,-50,45,-79,95,-79v49,0,94,30,94,79xm230,-639v0,20,13,34,34,34v20,0,34,-14,34,-34v0,-21,-14,-35,-34,-35v-20,0,-34,14,-34,35","w":534},"\u00e6":{"d":"201,11v-94,0,-174,-63,-174,-158v0,-83,55,-121,115,-145v56,-22,128,-28,204,-28v2,-65,-30,-97,-99,-97v-47,1,-93,17,-140,49r-47,-90v35,-31,123,-64,196,-64v79,0,135,25,166,75r2,0v41,-50,97,-75,170,-75v152,-1,239,127,222,289r-349,0v5,85,64,136,150,137v52,1,102,-20,146,-55r50,90v-46,40,-117,72,-205,73v-97,0,-169,-37,-214,-112r-2,0v-31,61,-95,111,-191,111xm691,-320v1,-61,-42,-103,-99,-103v-67,0,-108,34,-121,103r220,0xm233,-87v67,0,120,-73,115,-146r-36,0v-105,0,-157,27,-157,80v1,41,32,66,78,66","w":853},"\u00e7":{"d":"263,8v-130,-14,-229,-123,-229,-263v0,-151,120,-267,277,-267v81,0,149,27,196,76r-56,87v-23,-25,-81,-55,-133,-55v-90,0,-155,70,-155,158v0,89,68,163,159,160v60,-1,122,-32,150,-65r49,90v-43,43,-111,77,-194,82r-7,33v42,5,73,29,73,76v0,84,-93,99,-169,81r0,-70v28,13,90,13,87,-20v4,-24,-39,-30,-69,-25","w":546},"\u00e8":{"d":"308,12v-157,3,-274,-117,-274,-267v0,-153,108,-267,259,-267v157,0,245,126,223,291r-352,0v5,106,120,163,226,121v36,-14,52,-24,74,-42r49,91v-46,40,-117,71,-205,73xm391,-318v0,-63,-41,-106,-101,-106v-69,0,-112,44,-122,106r223,0xm243,-573r-104,-136r131,0r76,136r-103,0","w":554},"\u00e9":{"d":"308,12v-157,3,-274,-117,-274,-267v0,-153,108,-267,259,-267v157,0,245,126,223,291r-352,0v5,106,120,163,226,121v36,-14,52,-24,74,-42r49,91v-46,40,-117,71,-205,73xm391,-318v0,-63,-41,-106,-101,-106v-69,0,-112,44,-122,106r223,0xm235,-573r76,-136r131,0r-105,136r-102,0","w":554},"\u00ea":{"d":"308,12v-157,3,-274,-117,-274,-267v0,-153,108,-267,259,-267v157,0,245,126,223,291r-352,0v5,106,120,163,226,121v36,-14,52,-24,74,-42r49,91v-46,40,-117,71,-205,73xm391,-318v0,-63,-41,-106,-101,-106v-69,0,-112,44,-122,106r223,0xm134,-573r92,-136r127,0r93,136r-105,0r-50,-81r-2,0r-50,81r-105,0","w":554},"\u00eb":{"d":"308,12v-157,3,-274,-117,-274,-267v0,-153,108,-267,259,-267v157,0,245,126,223,291r-352,0v5,106,120,163,226,121v36,-14,52,-24,74,-42r49,91v-46,40,-117,71,-205,73xm391,-318v0,-63,-41,-106,-101,-106v-69,0,-112,44,-122,106r223,0xm334,-593r0,-116r97,0r0,116r-97,0xm150,-593r0,-116r98,0r0,116r-98,0","w":554},"\u00ec":{"d":"85,-573r-104,-136r131,0r76,136r-103,0xm70,0r0,-510r127,0r0,510r-127,0","w":267},"\u00ed":{"d":"78,-573r76,-136r131,0r-105,136r-102,0xm70,0r0,-510r127,0r0,510r-127,0","w":267},"\u00ee":{"d":"70,0r0,-510r127,0r0,510r-127,0xm-23,-573r92,-136r127,0r93,136r-105,0r-50,-81r-2,0r-50,81r-105,0","w":267},"\u00ef":{"d":"177,-593r0,-116r97,0r0,116r-97,0xm-7,-593r0,-116r98,0r0,116r-98,0xm70,0r0,-510r127,0r0,510r-127,0","w":267},"\u00f0":{"d":"277,12v-143,3,-244,-113,-244,-249v0,-145,128,-260,289,-221v25,6,32,15,50,22v-19,-43,-51,-78,-94,-106r-185,80r-6,-75r111,-49v-33,-16,-71,-29,-115,-40r35,-100v84,19,156,46,216,83r148,-63r6,74r-88,39v108,96,161,228,128,397v-24,121,-103,205,-251,208xm291,-366v-79,0,-130,58,-130,132v0,74,43,139,119,139v85,0,129,-78,129,-160v1,-66,-49,-111,-118,-111","w":585},"\u00f1":{"d":"424,-302v-1,-65,-17,-104,-81,-104v-71,0,-119,47,-137,104v-6,18,-9,41,-9,68r0,234r-127,0r0,-510r122,0r0,59r-2,35r2,0v29,-55,92,-106,181,-106v118,0,177,65,177,194r0,328r-126,0r0,-302xm135,-574v0,-91,37,-137,112,-137v41,-1,70,30,92,49v36,31,76,16,73,-46r86,0v0,91,-37,137,-112,137v-41,1,-70,-30,-92,-49v-36,-31,-75,-16,-72,46r-87,0","w":613},"\u00f2":{"d":"313,12v-154,0,-281,-114,-281,-267v0,-153,127,-267,280,-267v153,0,281,115,281,267v0,153,-127,267,-280,267xm313,-414v-84,0,-152,72,-152,159v0,89,66,159,152,159v85,0,151,-71,151,-159v0,-88,-67,-159,-151,-159xm264,-573r-104,-136r131,0r76,136r-103,0"},"\u00f3":{"d":"313,12v-154,0,-281,-114,-281,-267v0,-153,127,-267,280,-267v153,0,281,115,281,267v0,153,-127,267,-280,267xm313,-414v-84,0,-152,72,-152,159v0,89,66,159,152,159v85,0,151,-71,151,-159v0,-88,-67,-159,-151,-159xm258,-573r76,-136r131,0r-105,136r-102,0"},"\u00f4":{"d":"313,12v-154,0,-281,-114,-281,-267v0,-153,127,-267,280,-267v153,0,281,115,281,267v0,153,-127,267,-280,267xm313,-414v-84,0,-152,72,-152,159v0,89,66,159,152,159v85,0,151,-71,151,-159v0,-88,-67,-159,-151,-159xm157,-573r92,-136r127,0r93,136r-105,0r-50,-81r-2,0r-50,81r-105,0"},"\u00f5":{"d":"313,12v-154,0,-281,-114,-281,-267v0,-153,127,-267,280,-267v153,0,281,115,281,267v0,153,-127,267,-280,267xm313,-414v-84,0,-152,72,-152,159v0,89,66,159,152,159v85,0,151,-71,151,-159v0,-88,-67,-159,-151,-159xm131,-574v0,-91,37,-137,112,-137v41,-1,70,30,92,49v36,31,76,16,73,-46r86,0v0,91,-37,137,-112,137v-41,1,-70,-30,-92,-49v-36,-31,-75,-16,-72,46r-87,0"},"\u00f6":{"d":"313,12v-154,0,-281,-114,-281,-267v0,-153,127,-267,280,-267v153,0,281,115,281,267v0,153,-127,267,-280,267xm313,-414v-84,0,-152,72,-152,159v0,89,66,159,152,159v85,0,151,-71,151,-159v0,-88,-67,-159,-151,-159xm356,-593r0,-116r97,0r0,116r-97,0xm172,-593r0,-116r98,0r0,116r-98,0"},"\u00f7":{"d":"255,-437r0,-108r114,0r0,108r-114,0xm52,-236r0,-99r521,0r0,99r-521,0xm255,-27r0,-108r114,0r0,108r-114,0"},"\u00f8":{"d":"593,-255v0,197,-213,326,-407,241r-41,57r-55,-39r39,-54v-65,-51,-97,-119,-97,-205v0,-153,127,-267,280,-267v48,0,93,10,134,31r40,-56r55,38r-39,55v61,51,91,117,91,199xm379,-398v-106,-53,-218,32,-218,143v0,43,13,79,38,108xm253,-108v107,44,211,-38,211,-147v0,-39,-11,-73,-33,-101"},"\u00f9":{"d":"417,-94v-26,55,-95,106,-177,106v-118,0,-177,-65,-177,-194r0,-328r127,0r0,302v1,64,17,104,79,104v90,2,143,-81,143,-172r0,-234r127,0r0,510r-122,0r0,-58r2,-36r-2,0xm253,-573r-104,-136r131,0r76,136r-103,0","w":609},"\u00fa":{"d":"417,-94v-26,55,-95,106,-177,106v-118,0,-177,-65,-177,-194r0,-328r127,0r0,302v1,64,17,104,79,104v90,2,143,-81,143,-172r0,-234r127,0r0,510r-122,0r0,-58r2,-36r-2,0xm246,-573r76,-136r131,0r-105,136r-102,0","w":609},"\u00fb":{"d":"417,-94v-26,55,-95,106,-177,106v-118,0,-177,-65,-177,-194r0,-328r127,0r0,302v1,64,17,104,79,104v90,2,143,-81,143,-172r0,-234r127,0r0,510r-122,0r0,-58r2,-36r-2,0xm145,-573r92,-136r127,0r93,136r-105,0r-50,-81r-2,0r-50,81r-105,0","w":609},"\u00fc":{"d":"417,-94v-26,55,-95,106,-177,106v-118,0,-177,-65,-177,-194r0,-328r127,0r0,302v1,64,17,104,79,104v90,2,143,-81,143,-172r0,-234r127,0r0,510r-122,0r0,-58r2,-36r-2,0xm345,-593r0,-116r97,0r0,116r-97,0xm161,-593r0,-116r98,0r0,116r-98,0","w":609},"\u00fd":{"d":"1,177r42,-95v56,41,120,20,145,-45r19,-45r-215,-502r143,0r107,294r19,69r2,0v5,-27,11,-49,17,-67r100,-296r139,0r-228,587v-32,92,-120,155,-237,125v-26,-7,-37,-13,-53,-25xm207,-573r76,-136r131,0r-105,136r-102,0","w":521},"\u00fe":{"d":"576,-255v0,175,-143,320,-316,249v-36,-15,-46,-27,-63,-51r-2,0v5,80,1,173,2,257r-127,0r0,-910r127,0r0,218r-2,42r2,0v36,-48,86,-72,150,-72v141,-2,229,122,229,267xm323,-414v-85,1,-130,62,-130,160v0,91,45,158,129,159v78,0,126,-76,126,-160v0,-85,-46,-160,-125,-159","w":610},"\u00ff":{"d":"1,177r42,-95v56,41,120,20,145,-45r19,-45r-215,-502r143,0r107,294r19,69r2,0v5,-27,11,-49,17,-67r100,-296r139,0r-228,587v-32,92,-120,155,-237,125v-26,-7,-37,-13,-53,-25xm306,-593r0,-116r97,0r0,116r-97,0xm122,-593r0,-116r98,0r0,116r-98,0","w":521},"\u0152":{"d":"413,9v-202,0,-373,-164,-373,-365v0,-201,170,-362,373,-362v31,0,99,8,126,8r370,0r0,111r-297,0r0,186r240,0r0,111r-240,0r0,191r313,0r0,111r-386,0v-26,0,-96,9,-126,9xm484,-601v-174,-41,-311,85,-311,245v0,137,104,257,240,254v24,0,53,-4,71,-7r0,-492","w":968},"\u0153":{"d":"309,12v-153,0,-276,-112,-276,-266v0,-154,124,-268,276,-268v91,0,161,35,211,105r2,0v44,-70,111,-105,201,-105v157,0,245,126,223,291r-351,0v5,108,119,163,225,121v37,-13,52,-24,74,-42r49,91v-46,40,-117,72,-205,73v-95,0,-166,-36,-213,-108r-2,0v-51,72,-122,108,-214,108xm821,-318v0,-61,-41,-106,-99,-106v-69,0,-114,44,-124,106r223,0xm313,-414v-86,0,-152,70,-152,160v0,90,66,158,152,158v85,0,151,-69,151,-159v0,-90,-66,-159,-151,-159","w":984},"\u0178":{"d":"238,0r0,-297r-236,-413r146,0r120,228r32,74v1,1,2,2,4,2v44,-110,102,-202,153,-304r146,0r-236,413r0,297r-129,0xm347,-777r0,-116r97,0r0,116r-97,0xm163,-777r0,-116r98,0r0,116r-98,0","w":605},"\u02c6":{"d":"91,-757r92,-136r127,0r93,136r-105,0r-50,-81r-2,0r-50,81r-105,0","w":494},"\u02dc":{"d":"65,-758v0,-91,37,-137,112,-137v41,-1,70,30,92,49v36,31,76,16,73,-46r86,0v0,91,-37,137,-112,137v-41,1,-70,-30,-92,-49v-36,-31,-75,-16,-72,46r-87,0","w":493},"\u2013":{"d":"78,-236r0,-99r553,0r0,99r-553,0","w":709},"\u2014":{"d":"78,-236r0,-99r753,0r0,99r-753,0","w":909},"\u2018":{"d":"40,-504r75,-218r89,0r-47,218r-117,0","w":237},"\u2019":{"d":"44,-503r47,-219r117,0r-74,219r-90,0","w":231},"\u201a":{"d":"32,89r47,-218r114,0r-75,218r-86,0","w":250},"\u201c":{"d":"204,-504r74,-218r90,0r-47,218r-117,0xm40,-504r75,-218r90,0r-48,218r-117,0","w":401},"\u201d":{"d":"208,-503r47,-219r117,0r-74,219r-90,0xm44,-503r47,-219r118,0r-75,219r-90,0","w":395},"\u201e":{"d":"192,89r47,-218r113,0r-74,218r-86,0xm32,89r47,-218r114,0r-75,218r-86,0","w":409},"\u2022":{"d":"375,-291v0,90,-76,167,-167,167v-89,0,-167,-78,-167,-167v0,-89,78,-167,167,-167v91,0,167,77,167,167","w":416},"\u2026":{"d":"634,0r0,-127r123,0r0,127r-123,0xm349,0r0,-127r123,0r0,127r-123,0xm65,0r0,-127r122,0r0,127r-122,0","w":822},"\u2039":{"d":"199,-77r-164,-205r164,-206r121,0r-164,206r164,205r-121,0","w":360},"\u203a":{"d":"40,-77r164,-205r-164,-206r121,0r164,206r-164,205r-121,0","w":360},"\u20ac":{"d":"442,12v-177,1,-306,-115,-342,-262r-69,0r0,-76r56,0v-3,-17,-4,-37,-1,-62r-55,0r0,-77r69,0v44,-169,228,-300,449,-244r-31,117v-73,-19,-150,-12,-203,26v-35,25,-61,58,-77,101r255,0r-15,77r-258,0v-3,18,-2,39,1,62r244,0r-15,76r-207,0v32,89,123,156,246,136v22,-4,32,-5,47,-10r24,118v-34,12,-73,18,-118,18","w":589},"\u2122":{"d":"436,-267r35,-443r89,0r91,209r14,42r2,0v4,-17,8,-31,13,-42r92,-209r88,0r34,443r-95,0r-17,-228r1,-31r-2,0r-78,178r-75,0r-78,-178r-2,0r1,31r-18,228r-95,0xm166,-267r0,-359r-148,0r0,-84r391,0r0,84r-147,0r0,359r-96,0","w":946}}});
